3.430031590954820686e-01,3.040810687400172796e-01,2.968573436663241027e-01,4.950018816786542764e-01,-1.466007661038859211e-01,-6.324927367994268579e-01,-6.769507827937893962e-01,-5.594550106885636254e-01,-2.385311125774953467e-01,-6.611522665157418821e-01,-4.808499610278449965e-01,-9.484083757441948981e-01,-5.658961357628350397e-01,-4.597422120757717057e-01,-1.108684606155472818e-01,-1.064792030467172634e-01,-8.158183875296395882e-02,4.516757565212758951e-01,5.248104324368011442e-01,-1.823043865510026174e-01,-3.314945425759913133e-01,8.864258456366415073e-01,1.066408908290636948e+00,4.795277649318752666e-01,9.124370868926341693e-02,2.379856950986210251e-01,6.661645484785236881e-01,-1.137696212680019553e-01,-4.859084618285559598e-01,-2.083253175734824936e-01,3.176163584033471765e-01,8.466208461470003943e-01,-3.799004481744505113e-01,-1.236929271170205125e+00,-4.453416319497598419e-01,-2.330951433908049764e-01,-1.335745350243029983e-01,-6.712914492607628680e-02,-5.190041793654179836e-01,-1.017109632429762600e+00,-4.570842809439643051e-01,-2.271558066614078331e-01,2.550580675170325828e-01,3.388992940802020848e-01,-5.542964900975479864e-02,-8.296048705058531869e-01,2.717592105661284507e-01,6.526130400183667302e-01,-8.088240549563958659e-01,-1.164183976168246953e-01,7.468345831743130603e-01,5.036350049554868535e-01,-1.723309936812892906e-01,-3.422485476190277875e-01,-5.135139237125868616e-01,-5.360339854466138476e-01,-3.562063132811453536e-02,-4.772971750624156462e-01,-1.296374460419724040e+00,-7.195634083034424533e-01,-9.559474071242953785e-01,-9.031167265530644084e-01,1.685923944601658564e-01,8.109917842407496913e-01,5.039127038539324976e-01,-3.671527067118144916e-01,7.838209412581652324e-02,6.029416410529168102e-01,1.995395671112337177e-01,-4.859055177185015451e-01,1.735006795152924941e-01,2.439906094625533123e-02,-2.187314193178493127e-01,-5.989776507671382699e-01,-3.930990027979922030e-01,3.289741509149045062e-01,9.497580877561009882e-02,5.927628542426488512e-01,1.398799403500115834e-01,2.439531440727657485e-01,1.386439259277288949e-01,-9.175369834326772001e-01,-1.263542380632272089e+00,-1.498311835064741748e-01,-4.170485029428843138e-01,-1.299805460818862779e-01,-1.156691781629269000e+00,-4.316103647543363953e-01,-5.066525889196507038e-01,-1.532202426589081012e-01,-1.929244283706922636e-02,4.358854013875951838e-01,4.463592710144996256e-01,-8.254715161309634786e-01,3.018448034569587435e-01,-3.504071378706812290e-01,2.656365415125722454e-02,6.425605326420361640e-01,-7.295038104360710429e-01,-2.402662274978463464e-01,4.951352571461044016e-01,5.461985070388567509e-01,-1.071292229656767514e+00,-8.566327044422290815e-02,-2.450506524179442980e-01,-4.665697723099260785e-01,1.225957504800700704e-01,8.457972982418279217e-01,2.205337971172783296e-01,3.932069411842361584e-01,3.708884470807664174e-02,-6.905198169017240373e-01,5.533653727678867762e-01,1.482492894549168216e+00,1.034601791379923252e+00,3.718901438079226240e-01,4.332405179665873018e-01,3.546993487500684217e-01,-1.005662629850372775e-01,-1.402838162484828732e+00,-2.834754220892165555e-01
-2.109276185914295623e-02,7.739027125014733555e-01,1.310160624522255679e+00,4.200207068585407044e-01,3.593249535759032720e-01,2.989623952904890136e-01,2.348702893249495771e-01,8.074583632540574540e-02,-7.529521484241463725e-02,3.328964265653290289e-01,-1.449628669378602241e+00,-4.465002904199932843e-01,2.046979899046737772e-01,-1.765347486633265239e-01,2.799612434279883932e-01,-2.711526632248674185e-01,1.248722532109447919e-01,3.749547299068614267e-03,-1.342373056937160580e-01,1.387361298904583595e-01,9.974860212603521570e-02,-2.400362857330921584e-01,-1.262418436773580233e-01,5.246389526281437093e-02,-3.163256564637553225e-01,-4.373479555692895149e-01,5.565890635537861231e-01,-1.680440502561666646e-02,2.554171037699956015e-01,1.224651497511842352e-01,-3.935669683187183882e-02,-1.970294895926844869e-01,-5.352980255724113512e-01,4.261956140197351722e-02,-4.083548136348268409e-01,5.248583657190898366e-01,1.820464365462914902e-01,-8.573115561336599466e-01,-3.142555842183103638e-03,5.035943202464999713e-01,6.659157015752135145e-01,7.704743838770055087e-01,6.882903720505492151e-01,6.842009121619205270e-02,-3.419012445346686357e-01,-1.017679578558539077e+00,-6.679548476765225784e-01,-1.110701660288205606e+00,-2.174884392170161329e-01,-6.590405504765054490e-01,-4.358274122764567160e-01,-8.082711699850451126e-01,-5.464778694482814725e-01,-2.168591556222393413e-02,1.207181010354979045e-01,-4.179966470479499346e-02,-1.678590055834998651e-01,6.187405036525893687e-01,6.745613178258272891e-01,7.688278499907652552e-02,2.585246948444480664e-01,-4.846780380502965224e-01,-1.232613074082823841e-02,-1.896886564548648166e-02,-4.398338061790962872e-01,-5.583487489689391570e-01,-1.582315609038283666e-01,-4.944589672606410358e-01,-5.879110819896286033e-01,3.966200841195364202e-01,4.571277715825296933e-03,-2.154347013063034333e-01,-4.700524921338739004e-01,7.775792103189609061e-02,-2.204896964637792223e-01,-8.039717412387686543e-03,-4.369909756777966003e-01,-4.252194302958132305e-02,-2.733833420024959215e-01,-2.192874116341653745e-01,-2.419529625103454817e-01,-4.716520143472898718e-01,-2.977405127056010903e-01,6.843113524531485581e-02,3.337988195366796140e-01,5.043441957210733628e-01,1.969565754344338449e-01,4.723771488906157445e-02,-3.608689905726659153e-01,-5.077197632948877715e-01,-2.700370994949739534e-01,-1.450815020833085556e-01,6.272224621035324965e-01,8.397207151218052390e-01,3.640146379151181777e-01,-1.714760304879917874e-01,-6.620540568636035239e-01,-5.667787277309607186e-01,1.901320333051813583e-01,-4.587184018550435893e-01,-5.677879099230612736e-01,-5.262968904718927643e-01,-6.661025046101934355e-02,3.311024347322323591e-02,5.724390993454341742e-02,7.982611406735091730e-01,-7.318398250932189875e-01,-3.208076480839350264e-01,-4.111217416906750577e-01,-2.737652787507142693e-01,-1.280241192761840396e-01,3.509753935771445232e-01,9.274456580752123980e-01,2.257983106650561234e-01,-4.572788023299437787e-01,3.091693920962581554e-01,-3.690726359781603128e-01,-5.987338846946083093e-01,-3.584968246417660764e-01,-3.430281397820977296e-01,-2.866432785603073019e-01
-2.810953918678309460e-01,-5.974620715665011073e-01,-2.338380729757657261e-01,-3.204481376650364921e-01,2.162258563593072724e-01,4.324349166525614518e-01,3.261487041988029856e-01,4.452351847397818529e-01,5.713193948151599200e-01,1.490532944834970230e-01,-7.569066998777904676e-01,-5.423140494131507561e-01,9.037137672458509519e-01,1.750772237102735662e-01,3.133094776431598061e-01,2.643513987528990916e-01,-2.287206670251737406e-01,-1.069776393013944227e-01,-5.395832778343840896e-01,-4.625750647291925199e-01,-5.440124782127303549e-01,4.336287291933086374e-01,3.367566545125024735e-01,9.025179685340205538e-01,1.619672898396783967e-01,1.819688152698137051e-01,2.659341098722369234e-01,-8.057771729365279523e-01,-6.333772945075468730e-01,-3.720845482137700166e-01,-4.914937084743652151e-02,-5.455071050872428717e-01,3.550366577683822800e-01,-9.541104888021661535e-04,-5.306088693513286714e-01,-6.844661928825157560e-01,-6.740851484696022133e-01,9.988098494423895690e-02,5.978456354367217562e-01,-6.959028103069674343e-01,-4.962479570603690604e-01,9.510984204163062949e-02,-6.641186738360801978e-02,-2.216460566712472324e-01,1.933450393558318048e-01,3.602820318428097135e-01,6.435806737632450147e-01,-1.233979534582131943e-01,6.297180138486406509e-02,1.500560139253961811e+00,5.966422578240854202e-01,2.153685814049509928e-01,1.633034390833680016e-01,-6.243586067977101584e-01,-5.610817082578166692e-01,-3.292007444567771057e-01,-9.632590432623341914e-02,-9.248197594665702459e-01,-5.791137248393710690e-01,-4.542282962766285882e-03,-5.059755697764081184e-01,-2.667276859404436595e-01,-5.645615243165656993e-01,2.665691737839538944e-01,3.877746285985926300e-01,-2.282681316664218474e-01,3.836663486217603558e-01,5.711340743107095053e-01,-1.821341435000651543e-01,4.344973667632020531e-01,2.032561576733446507e-01,-8.818109854825376681e-01,7.093037775169730441e-02,4.066625542762584700e-01,4.529353187903664146e-01,2.819016793129653919e-01,4.067030250017059090e-01,2.219995438681116040e-01,1.161662536474063062e-01,5.071911342368407016e-01,-1.285303001991096594e-01,-1.603929754165193400e-01,-3.705576952734000035e-02,5.215299124563164135e-01,3.251061371589959725e-02,-1.616050534156188989e-01,-8.750816255308239977e-02,2.908847304471453565e-01,-7.023018808418592107e-02,-1.704923416542850401e+00,-6.316210111472834177e-01,2.068342228332397392e-01,3.268423847885273403e-01,-9.407541107403136760e-01,-1.451939569241630923e-01,2.779641170385120374e-01,1.817700356229177694e-01,-2.535933771847476703e-01,-5.472998322628545020e-01,-5.813752473857677350e-01,-2.162917607896883698e-01,-2.140239252319296459e-01,-5.157602895075371618e-01,-1.089794053127680629e+00,6.963590005051173426e-01,-1.727565902551108853e-02,1.499328380592186427e-01,8.724384047223966709e-02,-1.168405570844792928e-02,6.727272438326814541e-01,3.404594835812930209e-01,2.795925592296273632e-02,7.077560912782436542e-02,-5.386712038202696728e-01,-2.945147738362836887e-02,-3.949539482977628690e-01,-5.870957450367353392e-01,-3.555011944847827898e-01,-5.718080023868122863e-01,-1.288262974620184298e-01,-7.247390473131685995e-03
2.978633446575575938e-01,1.174986255063061868e-01,-6.858111389109268208e-01,-3.873989298724251351e-01,4.449694828233632937e-01,4.580021519763337323e-02,1.211510744442921284e-01,-5.170247820447243514e-02,-7.453201339021456873e-01,3.900237641561549173e-02,4.118354051929034032e-01,-3.683934551532766499e-01,-8.854495939636447543e-01,-1.461426365139109340e-01,-1.271792804164167401e-01,5.102801813980810397e-02,4.289863046842404826e-01,2.920441575674404544e-01,-1.788074400220110161e-01,-2.420470743192770502e-01,-1.088494089579850194e-01,-1.311483906085808820e-03,2.246087206572697920e-02,-4.122384264799545117e-01,-9.638323300384975256e-02,7.414174927167888063e-01,4.195975874339188394e-01,-3.150980573321850442e-01,6.681753132360657155e-02,-2.285094298493905163e-01,-4.839090084166488559e-01,-2.787531173239162774e-01,9.946243399036830413e-02,-1.873659930442140853e-01,-8.834327087625702957e-01,1.459283828258730875e-01,-1.014531243755331658e-01,-1.901488722856664593e-01,-5.922222906656872121e-01,-5.844521510634034245e-01,2.750399785535630540e-02,1.077831329898128188e-01,1.132721093294605935e-01,-5.614114282651031518e-01,-9.211250381068275539e-01,-7.831755100699749894e-01,3.706922739892096752e-01,-4.026401018463196535e-01,-5.713687527523964027e-01,3.039170838352001081e-01,2.305664380056713647e-01,-1.045353470611876778e+00,-1.856786657401244822e-01,2.858817711580084464e-01,-3.487867375292910133e-01,5.773092240600026237e-01,-1.999372651709992871e-02,-6.458391073637933522e-01,-5.882420981805709381e-01,3.856784582615512269e-01,-2.376618863041776719e-02,-9.751729691097562602e-01,5.094502930698325584e-03,6.721463458340359853e-01,3.430440302956867527e-01,1.686915789009647559e-01,1.832309263029580082e-01,2.821149751012004200e-02,5.845828061353734728e-02,3.681433777251468809e-01,2.309478490559951080e-01,-2.232889997688002059e-01,-4.268212504376532879e-01,-3.543114984594468164e-01,6.387053043798271990e-01,9.794860546690998815e-01,4.374802788954912924e-01,2.793292265717983169e-01,2.377075997703592403e-01,-8.877639770069907510e-02,-1.297727033970041133e-01,-6.740458424396869042e-01,-8.964177926355979542e-01,-1.978458938873615680e-01,-2.974930109795436706e-01,-4.342900881066779073e-01,-5.037078646027551843e-01,-5.540147575052809525e-01,-7.965175773839008322e-01,-3.733914876524364601e-01,-1.508953414002352222e-02,-4.987500814013814399e-01,-9.881426595185309747e-01,-6.295971751712311493e-01,4.598253874192725216e-03,7.027864583444932978e-02,-6.088435695148455284e-01,-1.235244591991474378e-01,7.482664409676422768e-01,6.861170426095339336e-02,-2.674720016476462778e-02,6.706742689830946791e-01,1.103322352596715961e+00,4.332284955786473435e-01,7.410062076668948450e-01,5.890286554313199918e-01,-1.343281659137767481e-01,3.485046511907494149e-02,-1.783821325939597413e-01,5.055203444869496576e-02,-2.141694426570718846e-01,2.008414171269475579e-01,-1.010867311529324575e-01,-5.536717988418169561e-02,-3.679683571110964890e-01,-1.067611515825044988e+00,-5.308660252391715906e-01,-2.477192607317404149e-01,-2.224355028876979223e-01,-6.119301364114390074e-01,5.424383278908789796e-01
-1.204032619175502729e-02,-3.973232652451270108e-01,7.827859838934478690e-03,-4.894068237951861716e-02,3.948672410014544831e-01,4.092198775772465380e-01,5.168023978653703103e-03,-8.794818577440726148e-01,-2.602542157735852624e-01,-3.864234591809547759e-01,-8.701594017128968517e-01,-1.759703970995291078e-01,2.291141318523001735e-01,-3.105109186492836515e-01,-2.503748788651032897e-01,5.193197354893130946e-01,4.000721285746490219e-01,-2.444572405993288289e-01,-1.022490067564419819e-01,2.073444664397589843e-01,7.333728145146761745e-01,4.484587710021772922e-01,-5.312611140921497110e-02,-2.401604755254407586e-01,4.198949039048613385e-01,-3.019698629456508132e-01,-2.726931436294144362e-02,4.960762024358832400e-01,-2.901831284246742526e-01,6.049192654898027932e-02,1.627293646559834772e-01,6.607199552713477475e-01,4.830162606246539703e-01,1.924768311039699309e-01,-4.819144779947407975e-01,-3.589639233675820940e-01,-3.059643232245895517e-01,3.959275527752293411e-01,-3.640132290446285723e-01,-4.454680587902939970e-01,4.724680517141508496e-01,-4.419260620024839104e-01,-8.602682701431528800e-01,-5.897751022558239686e-01,-6.623658418188873576e-01,-3.135714683165647387e-01,-9.049600601680394263e-01,-3.420676103144433267e-01,-9.338246574880321171e-02,-3.251698534700288024e-01,1.902576684216780167e-01,6.932689135970975247e-01,2.730707069366453826e-02,3.632510606238683465e-02,2.247390395902993110e-01,3.047518793350222355e-01,2.390160036165311364e-01,2.550266480803317082e-01,1.587383831868107442e-01,-4.452654909157975349e-01,-4.363030612181163503e-01,-5.766500157050412356e-02,-2.021295302424776924e-02,-9.798864989367507550e-02,-2.326479258214566581e-01,-4.506366224120612884e-02,1.556617553471598414e-01,-1.639653541640795006e-02,1.807609336400189670e-01,-6.271423924724240928e-01,-3.378297178698398961e-01,-8.031013444465930906e-01,-3.553914629426614957e-01,-2.006902263004629594e-01,-1.185459017432369949e-01,-3.058399676936852662e-01,-4.857091229750747363e-01,-1.394552351750623920e-01,4.926779988401518984e-01,1.048622141696192028e-01,-7.037407242193923773e-01,3.615433696634369753e-01,-3.243163518574087578e-01,-4.392878346528624744e-01,4.059858192185081260e-01,8.636721654518428881e-01,6.583026477229522166e-01,-3.705134088398529535e-01,-1.659376867791466370e-01,3.782708531823890663e-01,8.491754090635462715e-01,1.683444097001762507e-01,-4.751879790967349915e-01,4.906906530049937910e-03,3.886932378741863592e-01,-3.873148001512328326e-02,-1.083607891345614443e-01,-2.869629825704766435e-01,-5.407515471768864490e-01,-6.863159232385224184e-02,-6.466130952570067203e-01,-7.105879283644037647e-01,-1.171614198211608227e-01,-2.459561853119841546e-01,-6.985010502102413643e-02,-8.965579752469739205e-02,-1.386182244600224767e-01,7.344962418157162387e-02,-7.213062777159582328e-01,-3.941001133585469995e-01,5.163380201149254667e-01,-3.125294483953904301e-01,-5.015565517699761555e-01,-2.227579207226964564e-01,-6.336411298264964520e-01,1.218889118359655355e-01,1.156136404582752408e-01,-1.569227709636694668e-01,-6.936434499474616183e-03,-2.657794815812353773e-01,-1.778545026052723299e-01
2.517841578893566523e-01,6.925342023286910065e-01,1.429768064349096424e+00,2.834595362528543605e-01,-7.006168472710287976e-01,-5.227327251600033531e-01,-4.175487735921864507e-01,-5.121780667741457904e-01,1.391507711164952608e-02,-1.641023500136665897e-02,-6.507133156383132500e-01,-5.645747554566276083e-01,-5.668596553990171705e-01,-3.494606249411438270e-01,-4.337791441330732245e-01,-7.160254199905704553e-01,1.370757953765776478e-02,7.117201593819455496e-01,3.964501463611008192e-01,-2.773974162276462430e-01,1.318229777572301753e-01,2.343704148684026545e-01,-1.604195505307333403e-01,-3.599622684965945174e-01,-2.052160229898696009e-01,2.254648756398257847e-01,2.901668154754828977e-01,3.441372178413269478e-01,-2.646929736948838013e-02,3.570857425213344039e-01,-6.664918980940527371e-01,-9.342496896995161615e-01,-2.929666086874615494e-01,-5.823136383039530933e-02,4.128513405792633151e-01,2.598635428974479522e-01,2.963652314938184373e-01,-2.551676870968146438e-01,-3.724861273900665903e-01,-2.585702979612919394e-01,5.096520225672691168e-02,1.298839702602363200e-01,-8.957288546440083099e-01,-3.052960727192194912e-01,-5.744226895539014111e-01,-1.956328002348390327e-01,-6.692918118438958563e-01,-5.891526527056069051e-01,-8.052009002009631600e-02,4.917580088503517577e-01,3.102819134808868506e-01,8.720064658384504286e-01,5.567244134042262926e-01,-8.338578881756154859e-02,-1.680159821933700781e-01,2.596091570002819204e-01,-3.891553474230053378e-01,-4.808659031754129037e-02,1.867336997114690256e-01,-2.750736058968706876e-01,-2.548487529731164325e-01,-1.007865181987364495e-01,2.701726856784975386e-02,-2.952878715752026983e-01,2.880434020072092927e-01,-1.622455826070114404e-01,-2.403804689677531137e-01,-1.482349171470610516e-01,2.361645831791350236e-01,-4.532402691322990340e-01,-3.213871182068366306e-01,-6.634285586875101615e-01,1.329514734805324061e-01,1.870156607921548975e-01,-1.328556947432476230e-02,2.409940655189295733e-01,-4.838926465221771167e-01,-1.111878152241246864e+00,-8.256806185274709331e-02,-5.807722490091302703e-01,3.301405745195801766e-01,-2.694622667011629599e-02,-2.944779711666331568e-01,3.014627142720049946e-01,2.322525183873188348e-01,-1.577942285891191232e-01,2.828202537359967295e-01,4.214508874754215872e-01,1.321795936011081474e-01,3.171865250896442334e-01,-2.242687721491285202e-01,-6.900043432141017563e-01,-8.034631348415867125e-01,-9.256485754002409527e-02,2.870070883302729969e-01,-4.798929805914016189e-01,-1.521571410861894680e-01,3.452370434327673987e-01,7.089018954974842801e-01,1.807691871616481927e-01,-2.918336184488419249e-01,-2.951978796705929109e-01,3.602956346095328305e-02,-7.349473578487670800e-01,-3.398223949124065113e-01,-8.231133099147754928e-01,-5.535633692930858052e-01,4.327748703546430153e-01,-2.998009432741388092e-01,3.144856329875350687e-01,3.392791888692788249e-01,4.813486133380039389e-01,1.796686154488892628e-01,4.019775892056784983e-01,2.955730247161897917e-01,-8.032150171601533106e-01,-6.578701743776202981e-01,1.864933702622009470e-01,-3.333236900464777580e-02,-4.145866262176352984e-02,-2.058240091103094027e-01
-3.027167188032951484e-01,-4.830449448768655597e-03,-2.271778322421269258e-01,-2.697237699007922762e-01,5.465696890678692910e-01,-1.280162340026701762e-01,-3.382299922392911218e-01,8.778883630369246904e-02,1.064266260550895904e+00,-5.091832877675634972e-01,-4.844542797504722831e-01,-2.013378704155896759e-01,-1.490058209356683316e-01,2.983785272862374827e-01,-6.527699415015618678e-01,-4.134505878651335564e-01,2.102652529220123013e-03,-1.342753240286135574e-01,1.557398120723222645e-01,-2.426722678439848235e-01,1.493789488126812393e-01,-4.257179447014184936e-01,-5.665730219035508552e-01,-1.876756940057015266e-01,-7.601135422495188809e-01,-3.068293806081389685e-01,4.117684479016506249e-02,-1.355625990248553181e-01,9.949307977436849804e-02,-7.832284439048652347e-01,1.819759348160069068e-01,-4.744185174215946321e-01,-5.625948360871828591e-01,-3.773388608594381854e-01,-6.612067048748828668e-01,-6.198393954888622437e-01,-3.649415071697105217e-01,-4.951934470851929171e-01,-4.420452632278362715e-01,8.371286624076178240e-02,-6.242148236292537344e-01,-3.670242069059458934e-01,2.692169359320675803e-01,7.329948912878139766e-02,-1.691879100616421605e-01,-4.443808239212694577e-02,7.641585984233567608e-02,6.832979509267181895e-01,3.181662746505660722e-01,2.933313792436835210e-01,-6.683881247094857203e-01,-8.592744387281513463e-01,-1.233192944704365607e-01,-5.977478853572902873e-01,-1.013314879580586303e-01,3.667326654766598359e-01,8.199095077097622031e-02,-2.367518032831995023e-01,6.283252638306860982e-01,5.974282048069678996e-01,-3.231721647840793965e-01,1.638522203347697326e-01,-1.044158090140361594e-01,-1.208928678681308461e-01,8.798433901173459415e-02,-1.662797096519358364e-01,-3.036428560998517476e-02,-3.114238549111637486e-02,3.868169711977822445e-01,-3.750579173949062373e-01,-3.326754266013168260e-01,6.209418971690316286e-02,3.329263698088163470e-01,3.465100878398000850e-01,1.334125445445529523e-01,-1.148406622777734531e+00,3.915433548157718491e-01,1.054016078063162221e+00,1.589813249877310153e-01,-9.006939065434709235e-01,-3.712812588315452245e-01,-1.808507423455377183e-01,-3.199434882293440974e-01,2.691141547974841841e-01,1.044695342226205970e+00,4.362393003341435982e-01,-1.054705449781190019e-01,-5.309390831242876141e-01,4.026066109977991525e-01,9.685351514120611460e-01,8.720301856790435568e-01,-1.316300266359761995e-01,-6.906271031072495070e-01,1.669569962084977988e-01,1.299488592954839428e-01,1.808996386181357108e-01,1.451611893919883545e-01,-4.846634384102305182e-01,5.340972853784006213e-01,-2.080306703627298193e-01,-2.476993692645631517e-01,2.442075745600134559e-02,4.124919388594927017e-01,-2.816545447251161960e-01,-6.549165286598455094e-01,-4.363454566201588336e-01,1.648028397466266004e-01,3.481787819737314771e-01,6.068030670891816358e-01,4.215432437061031878e-01,3.859428497679214254e-01,-3.981074109100641301e-01,-2.666923739894920264e-01,4.263984621896683702e-01,1.007398255602866222e+00,2.769732599196162992e-01,-9.657280731374324745e-01,-2.464571319763353419e-01,-8.217221161800380980e-01,-8.548295988043982385e-01,-7.411131147355247695e-01
4.896917691839373227e-02,6.497072676402156910e-01,-2.706905070336448893e-01,-4.355970639489253893e-01,-1.214162971638733657e+00,-5.468580233482877029e-01,3.090106298816502339e-01,5.292950601918943176e-01,5.205291285663107281e-01,5.723908348889254760e-02,-4.400417033782356713e-01,2.658933886405967506e-01,3.578417303918393633e-01,5.811060305669329962e-01,3.704799409153102241e-01,3.337611921191521724e-01,-4.576192517893045153e-01,-2.743345647419638267e-01,-1.807568835723537964e-02,-1.682377529892787604e-01,-4.063372791230360909e-02,1.380053173247369758e-01,-5.873416566116665960e-01,-4.423064346679426717e-01,-3.335817918371015156e-01,4.403688981044594497e-01,6.918157202836715536e-01,-3.024340310994095282e-01,5.336819233793255179e-01,-4.557000166488631709e-01,5.405300288375549655e-01,-7.128843336328763991e-01,-3.785758346813025699e-01,-1.987071914838997311e-01,-3.168271419934353128e-01,-9.771036271936205386e-01,-6.886704042443957396e-01,-2.567787354483199724e-01,-8.429441330479194860e-01,-1.169208814627512805e+00,-2.711729604273402927e-01,9.884327889331332440e-01,1.520741746547741857e-01,-3.716731001369142917e-01,-1.047662124318788024e+00,-1.179817586731577300e-01,3.375240503514064794e-01,-1.406014594581587174e-01,-5.782457547976840306e-01,-7.679063993929428067e-01,5.615830977145028213e-02,-4.191653074365866982e-01,-6.936153109195868360e-01,-2.057201853912520029e-01,-3.063182398937653872e-01,-4.159078369341212000e-01,-9.837336797497647778e-02,8.268076850933430144e-01,9.464522205495695673e-01,8.316239537021484773e-01,9.211728783366496254e-01,1.582705150501899360e-01,-4.933372140414679086e-01,3.696147320760809207e-01,5.377311451105971640e-01,-3.379850845741259602e-01,7.969750952258068954e-01,1.225935034415079200e-01,-4.691780607048977592e-01,2.207120836163289634e-01,-6.442002997729679992e-01,-7.173934048076201497e-01,6.165640130888984105e-01,3.104049800002817161e-01,-1.620627639136672793e-01,2.052772161466604184e-01,-3.953362860531420275e-01,-3.041384353701100940e-01,2.326419614005765801e-01,1.696958069398554758e-01,-4.092120543809660838e-01,-2.035401996748928688e-01,3.437684801938522550e-01,-2.327901498778157385e-01,-8.036268991183520560e-01,-7.606318517586055927e-01,-3.193893467014010529e-02,4.249549271149499763e-01,-5.268820577119910642e-02,-9.701689931883135110e-01,1.517693050448095382e-01,9.024231463226857486e-02,1.132319493546902756e-01,-3.182836726761685830e-01,-4.617051849680411935e-01,-5.928244905990280866e-01,3.060564725301676003e-02,2.808646472244659131e-01,-4.552241306952635458e-02,-4.650803102543453749e-01,2.711941038622652234e-01,6.605925801663359298e-01,-9.983568526901506757e-02,2.549848330955086784e-01,-1.069823817083878116e-02,4.084072961233594645e-01,-6.111505184725711803e-01,-5.245536065681370985e-01,-1.227458982044982383e+00,-9.632669324991562088e-02,6.530950086937853394e-01,-8.685144263474278703e-02,-5.971563279160553295e-01,-1.810420108974364894e-01,2.570018970178726894e-02,3.055357811682570257e-01,1.534937484714954392e-01,1.845831429400084656e-01,-3.282986679569360744e-01,2.273954316212898341e-01,1.427589378498951567e-01
-2.082726000829162594e-01,-9.510810536936953330e-01,-3.647600176123397264e-01,6.179959503560593648e-01,5.939953870036801531e-01,8.295426312087506027e-01,-1.684486889783348984e-01,-6.718105351045644547e-01,-9.902642032166102393e-01,-1.911999065416453980e-01,-5.127524632771969237e-01,7.738724168572250206e-02,1.085520187460913943e+00,3.676458775918683419e-01,-7.763195274885139607e-01,-7.480761683660437644e-02,-2.893578248795418695e-01,5.767323274038162889e-02,-5.539052133348745105e-02,1.034825448044265628e-01,1.996955020942245418e-01,4.683345262548589856e-03,1.129906091115503858e-01,-7.798654559248519025e-01,-3.545495895223501059e-01,-2.655198467276490559e-01,-5.236669916166325489e-01,-9.699718524565786870e-01,-2.660292414698250951e-01,-5.270048529730114728e-01,-3.840980629105811839e-01,-1.259643435120982868e-01,-1.137188454552019862e-01,-7.160109358614334674e-02,-4.845116157316505245e-01,1.740526551357416685e-01,5.352781837487543409e-02,3.582363246175420124e-01,2.378524670855177992e-01,2.957993081187901274e-01,7.290767692934842399e-03,-1.892063745786251028e-01,-2.317222566468722933e-01,-1.045178955199415199e-01,5.850073780575562044e-01,-1.983638454121064154e-01,-4.641806012416111460e-01,-8.738954407189806206e-01,-1.944335802588355033e-01,9.333713290037806143e-01,-1.931511682487937198e-01,-3.348860919227132360e-01,-1.075199357273223910e+00,4.937472415872979498e-02,6.164252366565073707e-03,6.548531652983353712e-01,2.623623271465888585e-01,-4.177862244349642151e-01,-7.044017834974030112e-01,-4.264452145177977660e-01,-1.029889597974048970e-01,-2.086048191967058429e-01,-2.009275586189609997e-02,-9.809799655344865477e-02,6.122974511460332198e-02,1.442629743312691115e-01,-2.939711086852173638e-01,-1.109189528661875590e+00,-7.326954414979029995e-01,3.872988338755912335e-02,-2.703487708533564016e-01,-1.180971034125291252e+00,-3.593864064468967889e-01,4.753340576529911932e-01,1.582108734580807696e-01,-1.249445219756612158e+00,1.403851667771587597e-01,4.588245680859172060e-01,7.527984206832564196e-01,1.072346130442070500e+00,3.197354185373799118e-01,8.204604093339905313e-02,1.717102280166399597e-01,3.314477218424667360e-01,1.034943948166900107e-01,4.322499007993443193e-03,-6.608047225053599316e-01,-2.251600142523357828e-01,-3.156266387206512203e-01,-1.859469479918140766e-01,-1.519771358899783299e-02,4.801509590727398025e-01,3.562302448134148092e-01,6.821847830740137564e-01,8.245869426167367067e-01,-3.633174438618632096e-01,2.255362331289249567e-01,-2.742995096721566051e-01,-2.184341492243034588e-01,-6.139305174152924760e-01,-1.722075665469222916e-01,-4.030842591548424586e-02,1.985346471295721671e-01,-3.062210467569130845e-01,-6.486793589357409129e-01,-1.301604488230835299e-01,1.171687026251428815e-01,1.305178894307160165e-01,-7.104021361119012591e-03,-4.523617313749110913e-01,-2.051254971690842088e-01,6.935697191535475925e-01,5.313422726460571566e-01,1.714692931080185057e-01,2.196510518173325210e-01,-4.026667708966821801e-01,-4.688700734874985156e-03,1.696806462874802801e-01,3.276728088616926438e-01,4.569190673501417055e-01,-3.142018580559381435e-01
-7.067272970767127238e-02,8.151482889649948049e-01,-1.242401981956908347e-01,-1.389644653403785401e-01,-6.446945082253652259e-01,-4.299989855892243362e-01,-2.678387049656062446e-01,-7.327200100965350904e-01,-9.374961410735342948e-01,9.000093967124886407e-02,3.865850925549192407e-01,4.824225967945267902e-03,-7.325321459187899009e-01,-6.346097725181484295e-01,2.319248401271990501e-01,1.100322773540088894e+00,3.165656185023840163e-01,1.942823365854948747e-01,-1.883280702688601982e-01,-5.452139952634218467e-01,-3.692064455220027130e-01,-2.585103832310988725e-01,-4.988666674379304000e-01,-2.429837408651984720e-01,-7.085843768062152215e-01,-7.185314056794507576e-02,2.113924804011702019e-01,-3.270708627385794931e-01,-5.915828619671852362e-01,-1.271619572796699460e-01,-2.050289292443889799e-01,3.223057899973602591e-02,-4.755979621325475692e-01,-3.122887836050206589e-01,-3.266758620605497709e-01,1.237576066656308205e-01,-1.804929418835427568e-01,1.608814923825746881e-04,4.173774082559620902e-01,1.892959690526662547e-02,-5.748411963592255924e-01,2.045170136084375478e-01,-2.384446944285573133e-01,-9.527549222733856793e-02,1.773709952884576155e-02,-7.250902538900733107e-01,4.096608963766257272e-01,1.727466429826563510e-01,-2.034569343546198950e-01,3.511279003974195345e-01,-5.540548606238751006e-01,-1.882434860747785876e-01,-8.288173101760989980e-02,-3.890851131695163834e-01,-1.340848330536537070e-01,-5.435238071920706071e-01,-5.144692421393856074e-01,-5.929474871452847795e-01,-3.356993312641874394e-01,-4.160107497276612221e-01,4.701980765889457459e-01,1.287139795339462989e+00,8.641659731115954868e-01,6.348336667581030435e-01,3.157383097409746653e-01,4.478057873058435279e-01,1.008209208972307563e-01,1.423659553185761262e-01,2.917027485369972917e-01,-9.598622470262041517e-01,1.667523122687741000e-01,-5.576945873186135022e-02,2.662684650557919919e-01,5.940109991371070874e-01,-2.919509429376236920e-01,-4.861993768677479455e-01,-4.001824510572125626e-01,-6.511918504651696971e-01,-1.657016335400219031e-01,-1.086739325125351430e+00,-3.249665737623400052e-02,-1.123380651925466461e-01,-2.821371116940247711e-02,-4.103637881134817866e-01,-3.225942804816977483e-01,-3.717730737687334752e-01,2.175109519350157394e-01,3.586578952957563127e-01,-1.639730622946741767e-01,-3.305759154592167737e-01,-6.861693068679476371e-01,6.308026894032819909e-02,5.115170204901995366e-01,-3.761386370306435967e-01,-6.760214048015138477e-01,-5.205098760682278503e-01,-6.479544354700189634e-01,-3.485955053137064774e-01,-5.263942206316534200e-01,2.441316809451529041e-02,-6.606985895512762497e-02,6.795094197560189175e-02,-4.969182114697385209e-03,2.031938816391039848e-01,8.453915486288047232e-01,3.963097711538260404e-01,1.761225685485998463e-02,3.512327862607071416e-01,1.994566354410641507e-01,-4.254221984538695267e-01,7.504885492407389891e-02,7.538597062198261201e-01,2.802140613353861776e-01,6.544852461625329243e-02,4.664092043274668531e-01,-6.086383043081992905e-02,-1.119451916422039561e+00,2.887854982546308458e-01,2.654248007403717594e-02,9.373211130437864025e-01,9.881891882457620457e-02
-3.898313383423739342e-01,-4.860847544342006832e-01,-4.126737873441927440e-01,-2.282837791797264274e-02,3.936254284242942658e-01,2.439769402512385055e-01,3.983731678014132971e-01,2.888040285607835211e-01,-2.568657045235353542e-01,-5.564289967194521180e-01,-3.237070808280949064e-01,-8.315854807604818877e-01,-3.105894331637366612e-01,7.164887819491666532e-01,4.400455391348698786e-01,1.445392447685313331e-01,2.517355412698806250e-01,-5.271774370446696834e-01,-4.129069020869179374e-01,-1.155108320190336990e-01,1.800955186904760474e-01,-2.483793021426632386e-01,-1.053908524128375768e-01,1.527567791728192959e-01,-4.906306299333122456e-01,2.693948001292521127e-02,1.654150695205434396e-01,-3.946991589829027536e-01,6.051467450207541621e-01,2.378226769564503462e-01,-1.471860149511808880e-01,1.784341519315799790e-02,-7.793746609131031455e-01,2.443652736160458958e-02,-3.335473434510794616e-02,-1.280502059455691788e-01,1.849203970292984112e-01,5.146366992427076374e-04,-1.956306433951698620e-01,-3.748050697348114801e-01,-5.036644803201564269e-01,-9.471525165781843336e-01,-9.209676805425193180e-02,1.299046489900503309e-01,3.616107578851452398e-01,-2.524779031132705076e-01,-5.750629333216236705e-02,3.845120236828276084e-01,4.140470915162265397e-01,-6.022552494633450770e-01,2.918047885226437987e-01,1.012422164805408364e+00,5.842626698312323175e-01,-4.332271085162819335e-01,2.832993673687894676e-01,5.489823322845772680e-01,-5.661507284512349303e-01,-3.525778151645561076e-01,-5.842362289475873105e-01,-2.904830242126918982e-01,-7.158405818878693649e-01,-6.899910483775573145e-01,-1.074474225225080515e+00,-2.619192179817783073e-01,3.836052691014671390e-01,2.276025815406702013e-01,4.693421023650441726e-02,-1.457243514216391422e-01,4.538419541277520508e-02,9.338406719640969522e-02,-4.243575040902051176e-01,-6.533901304923075415e-01,-6.630566109141465825e-01,7.181111577754389040e-03,1.165761470027017577e+00,-1.351442604045314244e-01,1.458531300483945081e-01,-2.166814135219382043e-01,2.105913585088937945e-01,-4.789345027493802087e-02,-1.912481929137772596e-01,1.744201807376759042e-05,3.431649491649353401e-01,7.942276360209820085e-01,3.853010081170952783e-01,-4.784067922493396852e-01,1.234737254878668505e-01,3.996434160816471348e-02,2.579527459057727734e-01,3.585831405033258713e-04,-1.124747843975223288e-02,-2.436819064663563184e-01,-1.565663490357648013e-02,2.793098970635503053e-01,-1.571558789877524134e-02,2.154735412015851281e-01,6.312004636808030700e-01,-4.286798753846947085e-01,-7.452597222035814983e-01,-1.301819537024068996e-01,3.822457273890353946e-01,4.233360630372237643e-01,3.490527425705289982e-02,5.308182083602224210e-01,-7.630333781115762604e-02,1.798485601278233537e-01,4.891957895770701614e-01,1.264724599455093086e-02,2.106812996028678830e-01,2.376172516990636766e-02,-4.795717021317166262e-01,-1.967052261904694010e-01,-3.867006710737302400e-01,-3.670865318738378291e-01,-2.841912035716171944e-02,-6.034875884078469421e-02,1.464007628227128877e-01,-6.023955889002211572e-01,-2.086006243452306064e-01,-8.992768578295671222e-01,-2.798575794286275453e-01
-4.501153411030296980e-01,-1.487068799553659393e-01,6.960071959198838032e-01,-7.218600871335558722e-01,-4.422896217919097817e-01,4.731967052457322076e-01,-4.016380216511210577e-01,-5.327324916502989005e-01,-1.437345599095709137e+00,-5.925209796470940482e-01,-1.176314115665517412e-01,4.040313851866193517e-01,-6.905162990635449471e-02,1.199990297703756648e+00,1.537009788798858190e-01,1.934321274882078168e-01,-9.805656320325029096e-01,2.266222700089441100e-01,-9.767028420842933656e-01,-1.634290487553920201e-01,-1.890299555549011246e-01,1.774670530124572709e-01,5.320932885622213782e-01,3.754650947410547168e-01,4.307655197593591723e-01,9.881994343962062499e-02,1.610505402606146053e-01,-1.288241599449020114e-01,-6.528585346310974424e-01,-5.507654942155643107e-01,-7.287493961538645815e-01,-1.852040776640659914e-01,-3.808084250319482278e-01,8.275107708211545954e-02,4.995418607898392815e-03,6.457162767376731782e-01,-5.505015506838025763e-01,-7.982784164104746172e-02,6.176256205525133547e-01,5.762072525840451764e-02,7.977818002018562948e-01,6.057629972238691707e-01,8.244819481084913679e-03,-3.655900194932408254e-01,-3.080946332756039352e-01,-8.923346131933568293e-01,8.856869857458141149e-02,1.136141194903311086e-01,-9.545339961669355722e-01,-3.099331808414567679e-01,-4.905267217035238492e-01,-4.987775133562299401e-01,4.161250805362260406e-03,4.792070936322361252e-01,1.060778940976965012e+00,8.842161394365665172e-01,-1.461570253129490793e-01,-8.502754980246514105e-01,-8.088090208837472872e-01,4.673769586042763047e-01,-2.480940630935680666e-02,-2.662308153096774599e-01,-1.195055069825821992e+00,-1.830628004412773735e-01,5.955509903575257891e-01,-1.280859768220064532e-01,2.459814232726317829e-01,2.996474560158171041e-01,-2.084625999472748681e-01,-1.983164418890675795e-01,2.436083261508363296e-01,2.932830041269781085e-01,9.112959389533551446e-01,2.853868830883254937e-01,2.924218722507224144e-01,1.239680079467180424e-01,-3.048460962958771808e-02,-2.840760533317535641e-01,-6.447846102126361112e-01,3.593357512935015374e-01,-3.104820344407261887e-02,1.143925173674646342e-03,-2.600374594639814907e-01,-2.433307907293718320e-01,-3.917963319137027778e-01,-8.798212117115034037e-01,-6.892752367398941038e-01,1.593802956545206997e-02,-6.535639343101920518e-02,3.911712838674848980e-01,-5.625681110340523955e-02,2.016174106873707406e-01,-5.514159725509131249e-01,-3.209676897119639327e-01,-8.618649523618482355e-01,-1.530615367136042737e+00,6.529427571154886034e-02,3.151766388265542784e-01,9.259485149308003260e-01,5.627594805293161251e-01,-3.812872667996560216e-01,-8.775687653261894372e-01,4.473472738238346569e-01,1.266062328901966350e+00,-7.589038465164089919e-02,-3.327489608535230681e-01,1.205729473332747548e-01,5.693563658532092148e-02,-6.335546260516488060e-01,2.247987607247848019e-01,2.189059394032685513e-01,-1.280846481841048101e+00,7.551609312011847708e-02,-2.784188218354900490e-01,1.312046337616762093e-01,1.282346351721380846e-02,1.341250276624548765e-01,-4.158928506720237055e-03,1.000135566436888057e+00,4.005615522001286788e-01,-2.817243734545433198e-01
-4.302233844275393793e-01,1.175499249049100125e-03,-5.238844146897033704e-01,-3.913191437180547072e-01,-6.776336642120940612e-02,-8.393294198570925291e-01,3.228598834337942924e-01,-5.276065880720979262e-01,-1.288934977005294635e-01,-2.262412523623528737e-01,3.571744905070169118e-02,1.158960994970600566e+00,4.990054921771819307e-01,-4.976491842829449119e-01,-3.742267432751193446e-01,2.430470327848529011e-01,-5.509842650433414146e-01,-4.516348603621733182e-01,5.230025911407424344e-01,5.511498678420376773e-01,-3.511158412242967319e-01,2.466890738134598290e-02,3.277158134989353044e-01,2.502268521613328911e-01,4.722519086975978664e-01,2.071284856416403253e-01,-3.363889762965167618e-01,-2.078643979942304265e-01,2.153009283351027259e-01,2.204114104102109228e-01,-2.374310190446132229e-01,1.232511715724225604e-01,-5.276902870582131366e-02,-2.006568993071428941e-01,-4.140333862711621515e-01,-6.854789967491124736e-02,-5.802466638056217318e-01,1.972896123877408703e-01,-1.311795442001386092e-01,1.782163354259688748e-01,-6.821264724986939587e-01,-9.721921617775630686e-01,-5.376033359991087002e-01,-5.529431677562672842e-01,-2.636650290444502165e-01,6.487698754608393070e-01,4.589787120774556639e-01,-5.364406364991655130e-01,-3.651347332412032687e-01,-3.243995824530289396e-02,3.400145471600061198e-01,9.915112367657361037e-02,-3.431565429296501435e-01,-4.760548099886491857e-01,-8.732301471558012729e-02,2.388020283303615432e-01,4.980218777703817046e-01,9.892810738861018693e-01,-5.952982180559086671e-03,-4.847678037823895392e-01,-7.985389361758898907e-01,-4.823975952859265171e-01,-7.672764375598659647e-01,7.282821810826245468e-01,3.950746799787932528e-01,-4.021873294214555750e-01,-2.141589511332007145e-01,7.961144877170975298e-02,-2.949543923967696268e-01,-1.392537062245988722e+00,-4.802567980239343948e-01,6.877412987905540120e-02,1.269815139221455724e-01,1.749751110165232992e-01,-2.346553691062725211e-01,-3.437528944986665835e-01,3.358618292226849822e-01,-1.517710633998873848e-01,-6.148154660968716545e-01,5.420128180972869775e-02,3.382207878757947928e-01,-1.461784145874467367e-01,-2.138294248004939113e-01,-2.871839678059301404e-01,-3.351825582184946861e-01,3.471199166948357728e-01,5.895441098287735465e-02,2.797293391017308672e-01,-4.165149404100481068e-01,-3.900144034960487116e-01,-3.687705032993450760e-01,2.716514477822780105e-01,2.169321736313370094e-02,-5.330857672596589492e-01,6.418118692378692591e-01,8.008165478813961125e-01,6.148792490820002010e-01,2.153788157908201606e-01,2.162283701504018329e-01,5.252076562721285508e-02,4.828426265604309209e-01,4.541434790852795222e-01,8.917477199654964479e-03,-8.844855556910342642e-01,9.081113364871094829e-02,7.261651241656924549e-01,2.922859977946626331e-01,-1.128043970960723286e+00,-1.238829319405276630e+00,2.304882077845053501e-01,1.402013016115873922e-01,-6.812774195586999149e-01,-3.308561082802142783e-01,3.212932539518262853e-01,4.455951926250590889e-01,3.913106216589593567e-01,5.672896045826232303e-01,-8.390656997802750650e-02,-5.381503474562753242e-01,-2.147014372555598738e-01,-4.306113491737731391e-01
5.717372891877212093e-02,-5.912136470620982243e-01,-9.681582538334698729e-01,-3.423571761148695991e-01,-6.993366823267964660e-01,-5.284533240995902270e-01,3.309479512410597457e-01,7.490894675848924766e-01,5.608669148288855100e-01,-4.956227596678879355e-01,2.825923643509745120e-01,-3.765566807272749394e-01,-8.338341676231707522e-01,-4.990425279877856446e-01,5.570521136681202412e-01,2.394005209398876455e-01,4.890847045088275169e-01,-1.332176182765916761e-01,-1.037156676425235569e+00,6.598204787964618845e-01,-2.900653865431299105e-01,4.249899758634299585e-01,-1.019495459325999054e+00,-1.314443384672087621e-02,2.066726184620611695e-01,2.293758001027017268e-01,4.556236104390547215e-02,-8.653481590036252169e-02,2.506765171003222381e-01,1.970958506439476343e-01,-2.196579318689589888e-01,-8.061488931340299313e-01,-5.270435748612201099e-01,-7.621026794542883342e-01,-6.493975600455194064e-01,2.281226420104351393e-01,9.351971602324157806e-02,3.904371646899330583e-01,-5.427934821610473914e-01,-3.960023612036920881e-01,3.201861617580981645e-01,1.662997532848292381e-01,8.159045946227906354e-01,6.423206020462650656e-01,6.919748792547076865e-01,-1.927431530667070292e-01,-8.556681271163631974e-01,-8.199026505777304852e-01,-1.791713393747565997e-01,5.757915420558404329e-02,1.543813653570596731e-02,-1.626014243400117354e-02,2.615272846829236331e-01,4.252100084465358920e-01,2.777145802307633415e-01,8.661645577174710564e-02,6.911318879538107529e-01,-2.494346658945684192e-01,-1.901756355737785689e-02,-2.682718302586147852e-01,-3.965000936306278256e-01,6.385835486155057306e-02,1.859597012255933268e-01,-2.516564707765781561e-01,1.741262137489120176e-01,-3.053784495176369296e-01,-5.374299513470506273e-01,3.265517735309936276e-01,5.421377191899233727e-01,-6.075268268151219342e-01,-1.071472109449211674e+00,4.944493688885029381e-02,-3.455465385981594251e-01,-6.292890963107938829e-02,-4.065496698353238125e-01,1.044836712720508334e-02,8.431825544340086909e-01,3.971505047426814872e-01,-1.884468585045223632e-01,3.827216187126453173e-01,1.567577092867709632e-01,1.082557691269727396e-01,-5.310241253944168044e-02,-4.000286358337523107e-01,-1.304210069686874696e-01,-7.558600036945876122e-01,2.883595755954178608e-01,8.928562002605777703e-01,-1.687202699324975019e-01,-2.670210248769191996e-01,-5.186060471480945511e-01,-7.958561557962959832e-01,4.787470912993657124e-01,1.311972926325863931e+00,3.412025700150311258e-01,3.007265263450470405e-02,2.474107758728031903e-01,6.070448281334661633e-01,1.446162594463089486e-02,3.308140873355474021e-01,-1.876576024661304187e-01,-2.051946367262985071e-01,-1.666929063981944237e-01,7.913629754334892130e-01,1.992442945981215963e-01,-2.807188525602627993e-01,-3.547582789760904132e-01,-3.523249687383446238e-01,3.071125816441694911e-01,-5.374783519418288025e-01,-4.670952458808696472e-01,5.381751956203320031e-01,6.911392349737519591e-01,2.586710195223463349e-01,2.759796205122364565e-01,-1.066452336949368584e+00,-5.451897865570858315e-01,-3.197474054206831395e-01,-1.099258624999438050e+00,-9.881112219594768709e-01,-8.016832338234707311e-01
2.941799078489630848e-01,-7.504482195420274226e-02,6.379195636827350580e-01,-6.291316399662398584e-02,2.571828187750818673e-01,-5.486988541543543763e-01,-2.269165686795318049e-01,1.491955077126815021e-01,2.130954949144555077e-01,-8.855191165407808040e-02,-1.150616416586024704e-01,6.119938850529241803e-01,3.504615761268092267e-01,-2.799965226172571042e-01,2.974726358989784533e-02,-8.006864343244272098e-01,-8.970355080954767191e-01,-6.410083196239012571e-01,-5.473105931313380218e-02,-1.618398084066695608e-01,-2.319108299593626299e-01,5.801675679378867079e-01,-3.495407340911437233e-01,-3.760591114581466471e-02,-3.348820008271374826e-01,-1.954831737279154324e-01,1.389483685430580595e-01,-9.506534436646961739e-01,-5.578710968302414974e-01,-3.900096721314572634e-01,-4.861917228439683880e-01,3.156845052369889326e-01,9.713355632424526265e-01,-6.386975364065197724e-02,-1.667878896304192393e-01,-1.191394392151840370e-01,-7.780941317840892602e-01,-2.955521034925705504e-01,6.181611634362214891e-02,-3.410458093398075485e-01,-7.147740015954174853e-01,-7.374156183270512699e-01,-4.646966820174968649e-01,-2.062461279035014694e-02,1.015966460679378125e+00,1.074285646526395577e-01,4.126964236826669019e-01,1.975535030869194908e-01,-5.076352290526672112e-02,3.206281938026014355e-01,-1.648632137200527203e-01,2.611866507069394716e-01,2.426964702633475912e-01,1.125265298292938282e-01,-7.204710747878053656e-01,-1.093803850142306550e-01,8.689231852046327975e-02,-3.109466345047272040e-01,4.435914349514013394e-02,-3.245730479732542029e-01,-5.234743400220664977e-01,5.607924014696318293e-01,1.051809858415173465e-01,-1.444138196651371595e-02,1.857414417069895851e-01,-3.327234832041536111e-02,-4.134097606552196713e-01,-3.212976063454358600e-01,5.400068830576282286e-01,3.922909395824525358e-01,2.262062895917602567e-01,2.210021326654016960e-01,3.658432901766994760e-02,-1.526138313450216000e+00,-8.344998485159882406e-01,-7.876668257189467504e-01,2.562270288843024324e-01,1.181942066143320536e-01,-5.701229138042481770e-01,1.224104722016080005e-01,2.265550048982601095e-01,-7.108652021546938427e-01,-4.412482661675287687e-01,-3.094232041037988101e-01,-4.307982554904494360e-02,-2.822805144996513027e-01,3.994342728378679208e-01,6.204512895568501385e-01,7.680079902743976172e-02,3.328461070318862736e-01,3.008920869658176511e-01,2.697235221371487857e-01,2.673696065465371308e-01,7.120598114926498523e-01,4.850337555130037059e-01,1.947910582893642162e-01,1.929440107965242346e-01,-4.928625814812090389e-01,-2.087459595197856399e-01,3.940571003747029288e-01,4.761625810207177900e-01,5.642754854707590084e-01,5.855650300646261242e-01,4.356812668345200895e-02,2.557938347897253939e-01,-2.064120027631995147e-01,7.476059870533599550e-02,-8.505445346865728729e-01,-5.962790368612892467e-01,2.210248896025690801e-01,-6.272097205696824940e-01,-2.744265943609114911e-01,2.450537379030984231e-02,3.971085211195580222e-01,-6.306770760133264542e-01,-1.680144477510657486e-01,-8.084775687596176263e-01,-1.713113202815143288e-01,-4.600035511973308844e-01,3.669983580427199632e-01,1.875195883352636372e-01
-2.589286438765578957e-01,-3.626934591691138299e-01,-5.300228388374786936e-01,-4.114159604492039213e-01,-7.589950791230272165e-01,-1.946886251033811410e-01,-1.447050202297191501e-01,-3.909119006281103204e-01,-4.385085105820836771e-01,-7.690408617502664246e-01,5.083723046464895257e-01,4.299374157791040207e-02,1.779620103954160093e-01,3.586170233177684019e-01,-8.344549599236645854e-01,-8.609031928553029234e-01,-6.208464014068081349e-01,-9.883048883844097743e-02,-4.526819977784566906e-01,2.757026464219379247e-01,-3.193056098241773832e-01,4.335507095538677219e-02,4.860277117584337336e-01,-9.472642128589971178e-02,-4.591914712997863801e-01,1.015896975427778466e-02,3.028833075834680422e-01,3.988219466156087134e-01,-2.022961976817575780e-01,-1.379805822859952791e+00,-1.148267459849783151e-01,-4.710810063576276741e-01,-2.620884619908889213e-01,3.234069973100662243e-01,2.799601498474105776e-01,2.682136248794746505e-02,3.221034665765799554e-01,-5.704626955627681850e-01,-4.091269308273475236e-01,-6.575403451719875891e-02,-9.209136448834467359e-01,-1.150444579616731966e+00,-1.755862168924425537e-01,4.036384481134987490e-01,4.866896000120622401e-01,-1.598329879257297803e-01,9.100178310748558985e-01,7.800152095656592843e-01,-4.326350565748873778e-01,2.683287010522312777e-01,1.128621967736693956e-03,1.999610376043788607e-01,3.414917388773454077e-01,9.543586912849366666e-02,-1.982613685214931754e-01,-3.785958805284770912e-01,6.187881488695946147e-02,5.304940840244213307e-01,5.462660609518277255e-01,2.072879136018678792e-01,-3.907676965612009168e-01,2.405086178202739122e-01,5.664189108326623812e-01,1.913071865806105498e-01,-6.826967969353188170e-01,1.106198361942659497e-01,1.529464061208645476e-01,-4.771841538700916097e-01,4.427868889582985829e-02,-8.658131676990638015e-02,1.799821006097863593e-02,-4.068382083624823981e-02,-3.601617701539043259e-01,-5.127002174755967978e-01,6.480711298590376979e-01,3.217429952665504245e-01,2.163173356314044005e-01,-5.119367892323392066e-01,-6.860072471736695654e-01,-5.504165765867685689e-01,-1.728120149882060863e-01,-2.390737522515826163e-01,-6.881147671011894618e-01,-7.587988428533215535e-01,-4.574308202285153890e-01,5.019210157929324678e-01,-3.523148675523770090e-01,-4.762230211789746370e-01,-3.348044363745596996e-01,-3.013193448076121328e-01,-4.246671177086985272e-01,-4.141544222241244633e-01,-8.654976799506228224e-02,6.540426350812271472e-02,2.093063082150277976e-01,5.935604658900102137e-01,3.397471963444533838e-01,6.439561065496331171e-02,3.408522578311221074e-01,2.395173115545042308e-01,9.915274124890693930e-01,2.495387760945166344e-01,-7.558630944856025158e-01,5.500816380472794975e-01,3.947066877348975322e-01,-5.876246447636335885e-02,-2.310662142286202397e-02,1.347298734101047002e-01,3.390646095978938623e-01,5.352517108315016370e-02,4.241375933214486249e-01,3.770980190331551518e-01,2.035314881515582486e-01,-5.926851262990534552e-01,-4.700976657635081435e-01,2.494284611201178781e-01,3.378674607896124948e-01,4.658259236439428741e-01,5.094178426142750293e-01,-3.516688679235149273e-01,-3.076512577540324589e-01
-3.710362200533536270e-01,-1.209348472108134898e+00,-9.791932495905427691e-01,-4.142193036814372231e-01,-5.069955236327454429e-02,-1.182122635518927822e+00,-3.379841234466224309e-01,-5.361842595027550562e-01,-1.098409332629359358e+00,-4.901016103642403254e-01,1.726358710779425931e-01,-8.861483096442885898e-01,-8.099398040315212155e-01,1.438823733134532348e-03,7.389785392837915357e-01,-1.543987530297245558e-01,-6.514898199712466642e-01,-2.140693371977879789e-01,7.211573253630079172e-01,1.005869150131740025e-01,-2.171906389271268112e-01,-5.034744467426126580e-01,1.054170367513735385e-01,-4.322858275999873490e-01,-6.663585197449628517e-01,-9.298299180152119758e-02,1.682469302119657117e-01,1.531057944625223433e-01,4.787543171214543314e-01,5.172153203810578859e-01,-6.478561196697599778e-01,1.019151951033452075e-01,1.229464772284312168e-01,1.538395680317654335e-01,4.909253893547216863e-01,1.736097038216783128e-01,6.964931157228684833e-02,-1.758134066884621538e-01,-1.345085933325967063e-02,1.139894841961790056e-01,4.028211877811618269e-01,6.524832177575325964e-01,5.014754973333487298e-01,-5.927461133507776481e-01,1.336957209898063104e-01,-3.927166653363956539e-01,-2.371691168573962158e-02,1.713711516923796530e-01,-5.756764454747549387e-01,6.285432050060200948e-02,-3.740584370855768448e-01,3.121649585108277614e-01,-5.957971021561259128e-01,-1.495806385058341681e-01,-1.333877219245762635e-01,-8.111275206558694606e-01,2.599537438172236370e-01,1.053777586118102239e+00,5.040344313180963320e-01,-4.473966939351523703e-02,5.693834654755277613e-01,-9.999089146815819118e-02,-4.707110481341615360e-01,-2.157468362074722867e-01,-1.908062136541501808e-01,-2.145648626455096131e-01,-3.555294280894306103e-01,-3.012136282619009564e-01,-9.939685749049247399e-01,-3.279438184886193097e-01,1.599128397271138147e-01,-6.477465562520960674e-02,7.329274751057323067e-01,6.633609696201994144e-01,2.843314169115326306e-01,-4.792514800863775792e-01,1.191735987929872594e-04,6.000438312584434053e-01,1.145793821662200035e-01,-6.556921509362341194e-01,-9.120863795289120279e-01,-2.529513744093159766e-01,3.703877676413407927e-01,4.040210393858771898e-01,-3.768047329545964330e-01,2.940572994143965113e-01,-5.141946884112478244e-01,-4.959640934210733931e-01,-2.484582098918115545e-01,-2.367982963435894539e-01,-1.278076539126810247e-02,8.895504935414346726e-01,-1.757324364254176652e-01,-4.894556651580201923e-01,-2.501844845384503802e-01,5.217355195515253063e-01,6.654453008170554407e-01,-4.006628392977631403e-01,-5.768746549576859728e-01,-1.096448552952996175e-01,-2.402719594364353672e-01,-6.386785462989419404e-01,-3.633523125240534224e-01,5.989900221916644174e-02,9.662104039198625427e-02,8.055447455562968206e-02,2.792940211673356279e-02,-1.487302502546953842e-01,1.587474906992260293e-01,-6.191487640249760532e-02,-7.560984217860479417e-02,-8.271509876417561247e-02,-1.468807367765074048e-02,-8.786213731603288724e-02,-1.651297799535444144e-01,3.470811967707841394e-01,7.040992124105720507e-01,7.247455027710257847e-01,5.599755708931789672e-02,7.056105910848967655e-01,9.634171370937132106e-03
-5.847937876357737208e-01,4.448313119138845861e-01,6.664587810140110147e-01,1.869720027145111985e-01,3.782553761816180304e-01,-1.992928455448208791e-01,8.156763429864047343e-02,-2.343870699368621469e-01,-6.719042287394171309e-01,-6.117409395773404368e-01,2.241562274932204779e-01,9.778621457013678131e-02,-5.702247237448246353e-02,-1.792416333785114557e-01,-6.457560709618324069e-01,-3.427047251267290734e-02,-4.697780089691883099e-01,-6.396602409492232466e-01,-6.476097973198778890e-01,6.277742050980192334e-02,-2.336914590549838133e-01,1.683058790568603136e-01,2.403107354146307439e-01,-2.240585267950278084e-02,-4.025657315772350198e-01,-5.409323740888826171e-01,-2.382740991193562086e-01,5.755122935355081459e-01,1.011876791088919120e-01,-7.001254011522375920e-02,-1.862981228687427548e-01,-9.617728640535430640e-02,9.657117714671199504e-01,9.084659445221020535e-01,-8.549490061294628962e-02,-3.481262604054300991e-01,-3.813813181958050080e-01,-5.707948118702278473e-01,-2.898152673160682771e-02,1.200452176544484634e-01,5.651013513530763754e-01,4.642964480861948573e-01,4.626224589342800564e-01,4.857148066314568857e-01,-6.115324996517611938e-02,4.363660415347285770e-01,6.950183661575283223e-01,2.447350889043145225e-02,-2.049504102484694945e-01,-3.952595711976405468e-01,-4.111667774641161177e-01,-5.900884090655037495e-01,2.126022288987057807e-01,-8.844618732622480661e-02,6.904513945044454815e-02,6.498917399408825346e-02,-2.874565746537816602e-01,-5.941954566503276219e-02,4.569870575222160225e-01,2.684690274131002474e-01,1.293570179583479474e-01,1.802316969107026767e-01,3.062722618917502193e-01,-7.323374489225185080e-01,-2.725329255840757137e-01,-4.297031546752455577e-02,-3.802919583802065739e-01,-3.073320291933414050e-01,3.775461936599923130e-01,3.500918771981814115e-01,3.663301382781977145e-01,2.329349263438444326e-02,1.121672378529200570e-01,-1.118949467544501974e+00,4.529274396434408712e-02,-9.579069999865275076e-02,4.679122489317890515e-02,-1.858482951907082167e-02,-6.896055775711058544e-01,4.366418222105442060e-01,4.796742435322137177e-01,3.015223287852670242e-01,-5.558628836061511869e-02,6.994547820749039135e-02,-2.808936584546588011e-01,-1.128364572204473282e-01,-2.295850097124144673e-01,-6.086490826683552818e-02,-1.880793339992247737e-01,3.358121929339058509e-01,2.604494188588044046e-01,-5.653748346488520760e-01,-5.813396019720953323e-01,7.254276382836349901e-02,-3.187530984448806448e-01,1.435471239251598641e-01,-7.788391386509518899e-01,-1.129177725736584037e+00,-2.359318965381866640e-01,1.016649787238693009e-01,1.586733096436386825e-01,2.724046614720557549e-02,-2.298024006373080297e-01,6.604018255855044206e-01,3.003578418333926470e-01,-4.564613001191676345e-01,2.805971001493154718e-02,3.631661936542747715e-01,6.498647477748078494e-01,3.508267549086004911e-01,-5.956249437815277492e-01,2.980658433657339401e-01,-2.964310297261934513e-01,-3.582759698312740770e-01,-1.006199658978051970e+00,-8.903407249994053085e-01,-6.921105782123749828e-01,-3.248284351179725471e-01,-7.311970557380275126e-01,-1.042153875682050757e+00,-6.819864232407071847e-02
-4.181885315067547237e-01,1.559508582073469429e-01,-2.089398642001255857e-01,-5.225529442510336020e-01,-4.227165561851325415e-01,-2.178144084703746985e-01,-3.003753368575625693e-01,-8.529232961341095542e-01,-1.998546192342671168e-01,7.049519647026583624e-02,-7.496564071221373249e-01,-1.197617391329620640e-01,3.773818916192300255e-01,5.202886329917145725e-01,-3.144833836934873145e-02,-5.940596111590993322e-01,-8.290035181267683129e-01,2.113734359101201998e-01,-2.464889407083216410e-01,1.841845742885899473e-01,6.965049268376326264e-02,-3.288947174385004057e-01,-3.916346088361584710e-01,5.858989630971923601e-01,3.716862213780870450e-01,-3.694471597044516331e-01,-7.275780154201585415e-01,-8.853559087276454687e-01,-9.061655648495523518e-01,-6.084921344606510907e-01,-7.865431122979246181e-01,-2.814297480963696141e-01,-5.146043111018048233e-01,-2.827407369239578472e-01,-5.581700357472736407e-01,-1.189304915525239148e-01,3.516547049261521396e-01,-5.064449254357881181e-01,1.612231189473200821e-01,3.713073502651226265e-01,-2.892574813529040778e-01,-1.947168782710435031e-01,-9.853098726733927615e-02,-5.321822572901221404e-01,-1.575531727256059000e-02,2.772522553353107266e-01,-2.030417623515448286e-02,5.811849086036832146e-01,4.193415348446872803e-01,-9.572159655671187706e-02,-2.734219637550633006e-02,-3.077951780192388354e-01,-3.574831293619035733e-01,-3.962974481432242624e-01,-5.453066605695797153e-02,-8.168372065360901546e-02,-1.052999311957799750e-01,-7.070957506810254811e-01,-2.862141438368189239e-01,-2.550887799075705065e-01,-4.675749491044284833e-01,-6.541828958274803485e-01,-1.245410366318044360e-01,-6.278640350597222142e-01,-8.480388788639721120e-01,-1.354467730783642278e-02,-2.893662857288052392e-01,1.252599522158023004e-01,2.102364211418055739e-01,6.120306454973668819e-03,1.198326657641127224e-01,-6.289488682481941817e-01,-1.676810587082312176e-01,-1.797098450612661658e-01,-4.793854089542449737e-01,5.519270911323189699e-01,-1.283676942754908012e-01,-7.977467474941823955e-02,-2.759827684342181300e-02,-1.313733981667228063e-03,4.541290051420406870e-01,-3.990654490324211379e-01,-7.399668637620530065e-01,9.973219484905615495e-02,5.249076674531654163e-01,-3.470023902708465058e-01,5.142763116053298278e-01,3.007450144234659062e-01,-7.277350209239144552e-02,7.075533856160102220e-01,3.331301078633451818e-01,-3.834728009078023914e-01,-9.904503347911802758e-02,3.069487233222488176e-01,-4.346332546191593593e-01,-1.911699818506668036e-01,9.812849082099936449e-02,1.046168247899252446e+00,5.930709472790393066e-01,-2.721209877379214895e-02,3.036574801013646741e-01,-1.065702294148471868e-01,4.207333536523543138e-01,2.369432561251358094e-01,-1.811779268444792257e-01,9.108682883537077002e-01,-3.414736716866120791e-01,-7.287482440147309282e-01,8.673234678614920590e-01,1.700012838801562287e-01,1.343583460203756907e-01,-2.928418516908671415e-02,3.289089461580807505e-01,6.565780224383341857e-01,-1.393322713020307968e-01,-1.053753561794906896e-01,7.652399001486375196e-01,-1.053881192718634785e-01,1.719425390350175220e-01,1.790012760937270131e-01,-3.850976895970722319e-02
2.700337680220128989e-01,-2.591675022028606112e-01,3.227401291720072285e-02,-3.555538011249536057e-01,-3.810668331499225125e-01,-1.666787691374966851e-01,-6.807889855950646218e-01,-6.369123567524000995e-01,-8.102672362066694056e-01,-7.512326327456639863e-01,-4.220734894084686162e-01,-1.163669388218507156e-01,8.854119786760321353e-02,3.649462517802384287e-01,-4.838632871327845919e-01,5.378520325551885417e-01,4.869673348603990592e-01,5.922757489997764434e-03,-1.320658722650235317e-01,-6.120633446044229098e-01,-3.206714924167052283e-01,4.074714701976429598e-01,4.894720200154351608e-01,9.256230165015234546e-01,4.478280450366476512e-02,4.279080624485410989e-02,-1.502165833339864642e-01,-1.491362298619441362e-01,-2.696667297646664421e-02,-2.493610236532652069e-01,-1.379714577571540812e-01,7.465566491523470960e-01,8.513903257896323629e-01,2.962218091361054628e-01,1.185643657011012930e-01,6.688855485984719629e-02,4.744688559605485245e-02,5.984912921924887552e-01,1.603928477166485268e-03,1.331318551252258509e-01,6.140783314622023925e-02,5.934624747136368894e-01,-1.995010969049741678e-01,-9.619466615500153750e-02,4.171418391310195983e-01,6.362047922153537538e-01,5.408911497880083408e-01,-8.679898752516217453e-01,-2.949173641129098633e-01,5.109518073249427195e-01,5.691753859882313638e-01,5.186866412561907426e-03,-2.698441961283983004e-02,4.413586306866222608e-02,-5.169176295825015366e-01,-1.758955662392450159e-02,-4.802000323463647552e-02,-6.780532260268966327e-02,-6.365525629945193442e-01,-1.063968273073806481e+00,8.381802131061279193e-02,-1.021054652377114402e-01,9.284797318254831011e-02,-5.512781413604732617e-01,-2.793175949954648796e-01,-1.621505357699294381e-01,5.124569582672233725e-02,5.883852063900805313e-02,-6.646489890819718971e-01,-7.138814242199915672e-01,-1.343890956493294930e-01,-3.787551340869541039e-01,3.817587649551865137e-01,-2.102991235034552125e-02,-4.696975793957599010e-01,-4.773237100170907854e-01,-3.003625136343770485e-01,-7.271973511946260293e-01,3.494368796742802763e-01,-4.419579852311523172e-01,1.241824727646763382e-01,1.326330310831878023e-01,-2.734577452834270339e-01,-9.253689747551835376e-01,-9.481801360713709714e-01,1.212794668741937337e-01,2.737320056286350334e-01,-1.952078917538952185e-01,-4.191930211811346202e-02,-4.912984307979682552e-01,2.293237908679202075e-01,-4.172200899405401620e-01,-2.381917082519912354e-01,-1.632835990334378651e-01,7.272448612396362755e-01,-7.445562559153731663e-02,-2.729597496546792290e-01,1.029964615430124242e-01,1.581384425256200932e-01,-4.502361993296212228e-01,7.208328296128176105e-02,1.322076767666468533e-01,-6.013164459139700435e-01,-8.017788294170415941e-01,-3.151952049508195963e-01,4.110077970390442759e-01,2.505765499565842380e-01,-2.451666186055243835e-01,-1.997638528954599063e-02,1.650595024852929138e-01,7.205376224956583364e-01,8.953090056730699242e-01,-1.089283500218927170e-01,-2.564544002336168749e-01,-1.897576162928780730e-01,-7.935449249120755111e-01,-4.076360632375448101e-01,2.725477208781106886e-01,1.162216369020752788e-01,-5.019812268415743128e-01,-4.333987816385850289e-01
2.725400139009732658e-01,8.074130792499603082e-01,-4.019585073294730804e-01,-2.896425839110942646e-01,4.040600987680529887e-01,-6.476475033886830435e-02,-6.185433998534616284e-01,-5.281150079421236265e-01,1.039892316387128535e+00,6.211258816333402599e-01,2.468521280468455592e-01,-4.516165390476080677e-01,-5.244132101484625386e-01,-3.009413928164485497e-01,3.425890609628055028e-01,1.679228860533200918e-02,-9.199049488188496548e-01,2.422643616517376752e-01,-5.754181256057039340e-02,2.958883312386786923e-01,3.965903843137368878e-01,1.980688075915715274e-01,4.083521334210150067e-01,-1.081804931012463923e-02,-9.990093347369034815e-02,-2.850632609338457080e-01,8.720981680363654176e-02,-4.066791509983760933e-01,-2.250939754217329836e-01,-6.473068704398766103e-03,5.267861352038546441e-01,-9.059265215284115769e-01,-6.789169505053869180e-01,-3.663052251764489231e-01,1.648767116568705393e-01,-9.066275205812986127e-02,-6.163926999126458917e-01,1.310254715333475928e-01,1.720273915779654272e-01,-4.722543848617348772e-01,-1.288122145892259436e-02,-5.836604992810879855e-01,-1.750696552372341674e+00,-5.454384272359784624e-01,-6.704392309553929286e-01,-6.646421413886558494e-01,-2.928587043812766466e-01,-2.983036128594104275e-01,-8.265946737865312289e-05,-8.165431911292794220e-01,2.126633706705303994e-01,6.098879676934502170e-01,-3.135176173423287471e-01,1.822192841653381412e-01,-1.745447200717259451e-01,-4.279719618341156218e-01,3.140818508745205073e-01,-3.406373238169170814e-01,9.492974322742218085e-01,4.167730608190801933e-02,3.523648334608860400e-01,9.073406907196102100e-01,4.444438384604041947e-01,-3.386853956151672507e-01,-2.060439095880488014e-01,-2.232896037168164149e-01,-3.060429675180718553e-02,-3.850931121667890977e-01,-6.331344208875133717e-01,-4.590867211721164076e-02,1.662157000053492983e-01,2.684325004450736629e-01,-1.586173574503841888e-01,-6.802450741012363578e-01,-1.289702587006695822e-01,-7.575370802100253043e-01,-2.303331831201256286e-01,2.140067594369297055e-01,-1.463047174918192805e-01,3.561441491063844778e-01,3.489614052273463107e-01,3.763516317106289089e-01,-4.398794589306158354e-02,2.225801106361299520e-01,5.452955153440421920e-01,4.754268247965739991e-01,-1.824504441752572981e-01,2.415190627971502135e-01,-2.031466591194117932e-01,-2.934550826119626810e-01,-1.000746214331683648e-01,3.001340742688126673e-01,4.259102370369008961e-01,1.768455260596763778e-01,-3.865868376915741478e-01,-2.001871042361155761e-01,1.835197626078275135e-01,-5.264045293072805443e-01,-4.419721233614254396e-01,-7.426338714294786758e-01,-7.685986714506036488e-02,-5.128441732263698816e-01,-3.600268767267292280e-01,9.960564580340823815e-01,-1.688525681025936642e-01,-2.045321074308508735e-01,1.281651016558516432e+00,3.218949365959829501e-01,-3.114997172959750316e-01,-6.199119802945454033e-02,-5.170601643310757112e-01,-2.991629925744660468e-01,4.229457013934777646e-03,-3.784792174581389501e-01,-7.013755407115848106e-01,4.469409390209223010e-01,-7.547426568517935641e-02,2.475802703191110621e-01,2.800704501848520420e-02,4.747818858447496182e-01,-1.166208077084609496e+00
1.818238071481002305e-01,-4.742685091042378454e-01,-5.265735960518580505e-01,-3.273670920424781028e-01,-3.224386890467264011e-01,-8.740542737457296374e-01,-2.594614871406715206e-01,2.342378402925887060e-01,6.531122285379873382e-01,1.044833460253540292e-01,-4.960826934594901871e-01,-5.670425871275346363e-01,-8.126000095829496450e-01,5.884411004298460979e-01,2.105757167672598351e-01,-9.975469508036384492e-02,-5.894391937650000912e-01,-6.014541582206298642e-01,-7.407045602437319909e-01,4.098034326903893243e-01,-2.109940253225842111e-01,-3.652540564948834612e-01,-7.501414912370418797e-02,-9.007332700615576504e-02,-4.433732346778294225e-02,-3.004845645149637617e-02,1.739360889957971834e-01,-1.430143904518747788e-01,-4.637275313849999470e-01,-1.705510763513668204e-01,-6.525239328088925338e-03,-5.517264614496695252e-01,1.293782020759000340e-01,1.782090510069809508e-01,5.074512448013599464e-01,2.217068001202862626e-01,-3.480334094998587258e-01,-1.391781046616835937e-01,4.553874843406000572e-01,3.824147455293094300e-01,2.312700051048751093e-01,1.347054169219147612e-01,-6.455766923523047485e-01,-2.900628180049185656e-01,-1.484383369682559795e-01,-1.772950174375934607e-01,-4.695904173331799658e-01,5.090014911285060117e-01,-4.046213536470662508e-01,-2.912838634288771877e-01,1.287792524201906465e-02,-1.040139572273897778e-01,-2.712275603480848729e-01,1.131463913859072079e-01,5.625796595341447937e-01,-5.034160503672968634e-01,3.105920511418678864e-01,-1.034716454642407718e-01,-1.990507986579308775e-01,-7.002876342567844192e-01,-2.773368406244489659e-01,-7.783453853584158810e-02,-2.222527867346986430e-01,-2.012062540382002218e-01,-7.953554198204236814e-01,-2.192431842155616872e-01,1.176337651338139750e-01,7.409467240983517167e-01,4.943965444305535861e-01,4.590465157096882964e-01,-1.000398280557956987e-02,-2.438349948735599737e-01,3.274285568084101539e-01,-3.301234411110055000e-01,-6.080285708899764163e-01,4.248610212049027113e-01,6.550110372626215260e-02,9.023680865185881861e-02,-1.909946832061973077e-01,4.080887829093537977e-01,2.520513669068307205e-01,-2.280309403971994553e-02,6.999901612773979931e-01,7.175217180515396365e-01,4.936962905853295447e-02,7.336849747571574931e-02,1.230644061980118026e-01,3.640094531217384355e-01,-3.997231966541658910e-01,-2.444256241163794974e-01,-1.726528503853676788e-01,-3.870245517036412508e-01,-1.658118018512192426e-01,2.833360852346854530e-01,2.251311292458899327e-01,-7.161721670489869240e-02,-3.255012969615462826e-01,-4.971270345040010308e-01,-4.594860353439490785e-02,4.176754551493616074e-01,2.771617600147512905e-01,-1.062681602968809313e+00,-1.117844077110926149e+00,-5.662635629504195744e-01,-2.141652625606549898e-01,-7.802250353907842495e-01,8.968653652693434064e-02,2.564863072734748783e-01,-6.717069657844931298e-03,2.004946128860036481e-01,1.424464973449053595e-01,-5.474815062348239447e-01,2.789508107874680287e-01,-3.614671905023301157e-01,-2.704577421674152493e-01,7.235918884207807877e-02,7.940828752010317682e-02,-6.121628523298799918e-01,1.828148648949950716e-01,1.126894285839571547e-01,1.983773634664121877e-01
1.504282383004227897e-01,-3.714776871559967719e-01,2.360730185859450658e-01,-4.119661167309618399e-01,1.844700635249967025e-01,3.456423138390451455e-01,-5.169842344431632535e-03,-2.344241230065819553e-02,-2.850942511045929662e-01,3.662087449990135690e-01,2.581990313220660083e-01,1.354026139757048830e-01,-6.181398249708909276e-01,-1.038476541215573451e-01,7.122533393999990192e-01,-6.135082308976967311e-03,1.286183049934390699e-01,7.133054360988536624e-01,7.109325166633156945e-02,-1.791408953936640680e-02,-1.080004226671719553e-01,2.282819789001424016e-01,4.224179279240153351e-01,-1.193827265686770236e-02,-2.427404116182867444e-01,-4.116293804426625624e-01,3.822558976135164155e-01,-1.723286805752288209e-01,-1.288568743578064890e-01,2.611361914603489986e-01,9.767253866712719557e-01,3.707327310248221819e-01,-4.587664724311029674e-01,4.287884495953483976e-01,8.051533236133435745e-01,-8.421821988195039854e-02,-3.022349030721429020e-01,-1.102027629877838089e-01,2.721809106564395120e-01,3.064733223657636341e-01,-2.314163270241382520e-01,-5.341761478994624945e-02,-1.486845993778022346e-01,2.749454278806841567e-01,-1.453445755338892420e-01,-9.430320459164618363e-01,-5.183158256737648850e-01,5.467676786367346997e-01,-1.113593817840058259e-01,-1.382820421368228213e-02,-9.111712299289383143e-02,2.320665471155073933e-01,-5.484905047523993549e-01,1.307691908665238878e-01,-6.279451975368871564e-01,-7.439928420802116582e-01,-6.191872786017791341e-01,4.779206355911140847e-01,-1.837778117337710848e-01,-1.992087316863264124e-01,2.363018874798765157e-01,2.171535748894800819e-03,-9.289418030586517050e-01,-1.556348634931300490e-01,1.530296845621243462e-01,-3.427045041217513521e-02,-5.775150267391503389e-01,1.627092497938515403e-01,4.139177802788258087e-01,-1.885669923904282064e-01,-1.399226504293654971e-01,5.062618812374253263e-01,-3.954407161695679962e-01,7.831621455447155267e-01,5.776904774692083189e-01,7.151005550521490894e-01,3.784286038165389776e-01,7.661210135815411937e-02,6.066184670545560209e-01,7.256344694266403383e-01,6.533190417618611745e-01,3.344665424425143918e-01,1.867448899230058357e-01,-3.069578861831344027e-02,-6.275250638661955538e-01,-6.919120171601672586e-01,-6.905610088999664109e-01,1.181447966794038212e-01,1.108742899891748679e-01,-5.657599444862305704e-01,-5.196730149768625795e-01,-1.094413847435689702e+00,1.557908454244809060e-01,-3.245199104132472784e-02,-4.017936260491284939e-01,-3.266090208954416374e-01,-1.008206703573103047e+00,-4.162658111958784102e-01,-2.822065460085956268e-01,1.895124760640163331e-01,2.638866197904655708e-01,-3.075744945401600039e-01,-1.217580994831530372e+00,-4.655112101489993215e-01,8.865779991259896409e-02,-4.633283223674941609e-01,-6.142030341065941590e-01,3.689169430599880117e-01,-1.919475090951492657e-01,-6.184410602752391517e-01,-4.207973820859908232e-01,-6.262898396221440178e-01,-4.857267181257811650e-01,-4.858744839532936344e-01,-3.076279375451301257e-01,-2.896647311707431591e-03,-6.704063410706390114e-01,2.336224276744762463e-01,4.265378507996408358e-02,-2.822932824438388888e-01,-7.356369479431111857e-01
-5.789895408038875368e-01,6.363809759697867940e-02,6.182359507810399890e-01,3.019920734295845066e-01,3.618476216568028425e-01,-3.894534270974812640e-01,-4.557314134424669261e-01,1.443016226382009548e-01,5.820948978296042187e-01,5.054828340165881118e-01,5.735173549824384986e-01,-3.285792361321715482e-02,-7.317115679367949266e-01,-6.849599809379864901e-01,-1.969814917380629526e-01,2.824477706482800277e-01,1.127678080938848172e-02,-1.561410804635797178e-01,-2.331853493214820217e-01,-4.132934970100659022e-01,-4.320550517637016807e-01,1.918991247596161520e-01,-3.729587355968534690e-02,-1.761035675629772923e-01,-5.304880738761738046e-01,-3.346642521808781967e-01,-1.594940838862749996e-02,9.758094760920023314e-02,7.776781604956259919e-01,5.280997413587090739e-01,3.036762032072402584e-01,2.977739016270543604e-01,-3.915775262395333467e-01,-2.668091449809540383e-01,-4.351657400262349817e-01,-1.437457192309000709e-01,3.595805379435038085e-02,3.862401729508110337e-01,3.060241199280500646e-01,-6.859166160309343452e-02,1.424599610838066244e-01,-9.204844397941606970e-02,6.807319714849034975e-01,5.889733140003159395e-01,1.660760254542983927e-01,6.321691003359749539e-01,-6.877378241120474245e-02,4.825803443045649788e-01,3.944480584392721090e-01,1.123302734071698478e-01,2.110054593065290585e-01,-6.817199169247102619e-02,4.698907325923689648e-01,4.817338014045674521e-01,2.737098760638035366e-01,-1.648415304908198709e-01,-1.283928116846276557e-01,3.748254809885889771e-02,-5.476091439269787919e-01,-1.499737771937065811e-01,-1.286694944789572581e-01,3.864303568134388467e-01,-8.546711568202558507e-01,-7.933439641188574365e-01,4.900611610412944352e-01,6.309177656076749019e-02,-5.417773544061471602e-01,-5.065077416759478091e-01,-1.228562560760497746e+00,-5.473927153644194687e-01,-1.534911290678021845e-01,3.101193177759553610e-01,5.919177814799911896e-01,6.947228659996879108e-01,5.623318104523444827e-01,-1.069486806845792781e+00,-1.299537013688138565e+00,-1.072997819120947272e+00,2.976353973174098999e-01,1.804385123534306135e-01,1.312026290639646819e-01,-6.781026517027288758e-01,-3.842898485759789762e-01,-5.955706755883826142e-01,3.608938240549845466e-01,2.543005732449009626e-01,-6.073452540895203366e-01,-7.309960258781104114e-01,-2.154511514989964072e-01,-6.749414331284813162e-01,2.279233450839819874e-01,-2.666725345353200827e-01,-6.115768841493998131e-01,-2.770416104012800584e-01,6.546625233823540058e-02,-5.501533440609641945e-03,-7.741988913793445004e-01,-9.319918207442473568e-01,-3.467788745627752856e-01,-5.347628467497179683e-01,1.185695750588085413e-02,-3.168576899711924577e-01,3.049327158049917053e-01,6.737516214217217358e-01,-4.260102257404224102e-01,-6.283523844511229584e-01,3.343698336073577249e-01,1.887775380968932659e-01,-6.699399725992867261e-01,-5.850186146931796172e-01,-7.325287110227562959e-02,9.303787146177178169e-02,2.130123080790169085e-02,3.541226986629471968e-02,6.271862097040963313e-01,3.607454555351585213e-01,1.306358632799391531e-02,-5.581042874700274936e-01,2.816145000942278306e-02,-5.243112124199731383e-01,-5.993128131859540852e-01
-5.022103873595257229e-01,-6.464551352651216609e-01,-4.987880405051344779e-01,-5.396269748837402291e-01,-8.696835596911541011e-02,3.158825851471318003e-01,-3.249675391156148230e-01,3.175505271043154720e-01,-1.564429940191095492e-01,-3.320871431246014138e-01,-6.391607272097128423e-01,-5.672367800908151986e-02,-1.847739192224257532e-01,7.714024368065856840e-02,3.182989283273733871e-01,4.641009999889000315e-01,1.048595145423834030e+00,2.033489989494685277e-02,-1.331784191640489612e-01,8.133111542989987508e-02,4.665350983750574804e-02,-1.675209625870050303e-02,-1.293176078897519121e-01,-2.856355790757660884e-01,-3.691859772985505161e-01,2.152621071842189260e-01,1.640319500090446914e-01,1.131353493774924467e-02,-3.651001634664671758e-01,1.950078359658593274e-01,-1.103454622271211188e-02,-2.697397655227672941e-01,7.388810864701078618e-01,-2.536289332632518101e-01,1.416334436526842377e-01,1.313712700005096046e-01,6.717062352180027535e-03,-6.111320396313020265e-01,-3.570500749412729435e-01,-9.007057484506374445e-01,-6.185220254093333203e-01,-4.706073862013603892e-01,3.030849205759842402e-01,2.059486847480883898e-01,4.927761790349362014e-01,-3.253719824724539689e-01,-4.922534584348789433e-01,-7.222139472772910462e-01,-2.439716048140725541e-02,-1.533142096511063424e-01,7.729654492897665430e-02,-8.624786695861301755e-01,-2.945663958117351600e-01,5.457584104751689313e-01,8.858302762313203793e-01,4.279138016123118504e-01,-7.675831838694947840e-02,-1.144136746420267442e-01,2.648307571893934176e-01,5.770123256769010833e-01,-7.524747691870389277e-01,-2.298832303589198045e-01,1.535203610308542299e-01,-1.702934691493167563e-01,2.489404819510554756e-01,-4.694092543409769669e-01,-1.380276225356764641e-01,1.211228875091436008e-01,5.932584210822919868e-01,3.172462812401456445e-01,-3.118729635225330754e-01,1.314289902340329275e-01,-1.034805558872640585e+00,-3.272503616966501716e-02,4.935950925920984944e-01,1.626018023399377899e-01,3.337242154518319515e-01,-1.134101225392362688e-01,-1.439388906494435405e-01,-8.679236384450675912e-01,-4.414188866358955132e-01,-2.126442243426446832e-01,3.849301845913163933e-01,-3.316758490106280211e-01,3.199382523930351385e-01,6.402058381208647342e-01,5.987021844009218219e-01,-2.915195647254944511e-01,1.598762604752063804e-02,3.142403929327592937e-01,-1.152102446469884661e-01,-3.855308053407116020e-01,-2.161593990845813162e-01,-3.714095751989934246e-01,-6.764348006193021678e-01,-7.957685399059045706e-01,-6.984055673076624560e-01,2.561967381322187709e-01,-3.861974852347099807e-01,-4.789412519948387653e-02,-4.066285437257972230e-02,-2.216125192666665994e-02,-3.034099360465354889e-01,-5.277077371772657122e-01,-8.704375963547782424e-01,-4.988533292179226364e-01,-6.372163283233075459e-01,-3.458248140161525042e-01,-1.689305967025639746e-02,2.610841141601972226e-01,-3.524717871918464085e-01,7.759387460054294194e-02,-3.283836391332062843e-01,5.343563267299200614e-01,7.919926856456988018e-01,9.442075307266972750e-01,7.942357631228263992e-01,3.995049280484750942e-01,2.776603435963172911e-02,7.267443084144956100e-02,7.247397927179786981e-02
1.592685209919693368e-01,-5.260016103095589701e-02,-2.779391854849657117e-01,1.154154027142275246e-01,-2.540819497486755396e-01,1.718123283456942652e-01,9.850892254562035322e-02,-5.719748198177077025e-01,2.807346136145277837e-01,-2.373499202264718055e-01,1.050419436338389800e-01,-2.008173270998369064e-01,-7.390822678728515838e-01,-4.738171793995380465e-01,4.370265556363661097e-01,-2.908840287277437708e-01,-3.724021890681870617e-01,-8.253347076567654206e-01,1.168209187303119873e-01,-1.354292643228550697e-01,-1.506827300260521196e-01,-4.981674179052711371e-01,-1.782980209118774015e-02,-5.727221687320246390e-01,-2.168511752315321339e-01,-1.511164274871752977e-01,2.086523857790086034e-01,-1.346432799255107560e-01,-9.318341267337816314e-01,-7.788876406078392156e-01,1.422773332754385597e-02,-2.036309350865914136e-01,3.238986121833985488e-01,5.979623131736800934e-01,7.047196957816715956e-01,2.465395197961053608e-01,-4.418275530148412233e-01,-4.538796759503325173e-01,-4.616481280358886718e-01,3.164475702217438013e-01,-3.972779867655389929e-01,-6.821592766940156594e-01,-5.352513866286640054e-02,1.253442823834516884e-01,3.915053005743487913e-01,8.103668156172319503e-02,-5.426389712965115075e-01,1.696669452489021901e-02,4.432269205933591638e-01,-2.991303218893148763e-01,-5.793564571143949848e-01,-4.406310829239344362e-01,-3.353796556579261012e-01,-2.584979035612871567e-01,2.182943767066977125e-01,8.016329682866414341e-01,7.085716646788080275e-02,4.554718692422921045e-01,1.044894981031064124e-01,-5.051215578834124253e-02,-8.510787032143149466e-02,7.085990127501293201e-02,2.745629930606947045e-01,5.259204466787658072e-01,-6.504341534427058313e-01,-5.208206112067630400e-01,-4.757978289441880393e-01,-5.110546169288153751e-01,5.009607915377577853e-02,8.060203486431332109e-01,-1.652924921254549928e-01,-3.667358778588835633e-01,1.563138877525381831e-01,1.114558260611033136e+00,2.692578646058484959e-01,-4.378073763220958758e-01,2.411711572302568107e-01,2.692487458980346582e-01,1.018811190144288670e+00,7.508020978591822825e-01,1.700754207527412631e-01,-8.282586406791553335e-01,2.271730512467030061e-01,4.867735836770214347e-02,-8.082345310510571368e-01,-1.918360201969664669e-01,-5.239673998031103563e-01,-2.694881778729886213e-01,-1.365868700145441428e-01,1.761189862578649568e-01,-7.812210287344328874e-03,-9.934218356672847028e-01,-5.324165233850616241e-01,5.960874396016508925e-01,-3.582861827756765871e-01,-7.044389824301963143e-01,8.306131357846845420e-01,1.335308598119833157e-01,-1.684622288090603659e-01,8.082178436063733873e-01,-2.970951856497350968e-02,1.540424312642419691e-01,2.416946522781078244e-01,-1.757517137081474404e-02,1.433915236063376397e-01,-5.893687764246251515e-01,-5.620880368362651813e-01,2.202747797058092483e-01,-2.812442707357373783e-01,-1.552420927604968304e-01,-3.400049448954104436e-01,-5.736246566369287425e-01,-6.335478657614103115e-01,-2.178728117901215511e-01,-2.004432987895730656e-01,4.627590766478290041e-01,1.105363480749258498e+00,-1.488001175212291458e-02,-6.157568519894967007e-01,-5.957093051984826415e-01,2.766661598583596282e-01
1.203238581631957127e-01,-4.990226266396781754e-03,-2.268762190510321408e-01,-4.232302348615683552e-01,-7.573437532985966003e-02,5.728667794472538238e-02,-4.442462864812909973e-01,-2.115900333332579042e-01,-7.365735950312040092e-01,-4.222826333221204043e-01,-4.704949946553495521e-01,-4.196054141353290912e-01,-6.011876863021137218e-01,-1.746743467352379897e-01,-2.258254606962760147e-01,4.496567305852932073e-01,5.336895292668143442e-01,-4.975356921568441781e-01,-4.281976950923948033e-01,-4.673922143730522838e-01,2.667536974529771676e-01,1.593300811371378689e-01,-4.957720453841928943e-01,1.094115489827585663e-01,8.373244817575729512e-03,-2.501874341837662663e-01,4.778405400435566802e-02,-5.196311790514347440e-01,1.888250763728509252e-01,-3.516230905793910066e-02,3.742559790018363253e-01,7.319146220490316823e-01,3.203400849865149502e-01,5.380492964485256158e-01,9.645498086539579241e-02,-8.699147823703116955e-02,6.956678579202821289e-02,-2.643273705985365041e-01,-6.111020462915993656e-01,-5.233097834374971224e-01,5.649766559757033769e-03,-4.158092586019927761e-02,4.184221678859286614e-02,-3.569145852685305931e-01,-2.080792248965586955e-01,-5.272587516233580018e-01,5.593530148826714177e-01,3.637841410131221198e-01,-2.381014089214662788e-01,-3.362127427716774530e-01,-3.595968753416370345e-01,-5.124575815459938566e-01,-7.817673678127234904e-01,3.494268697059493278e-01,6.554594035069049029e-01,3.329345145626064206e-01,6.961797356843529849e-01,6.318794649087833282e-01,9.595966099369317437e-01,3.316995780635084157e-01,-2.570452753131839407e-01,-7.070130809945711636e-01,-8.554207636149810390e-02,2.811644981072168870e-01,1.049198359096450983e-02,-3.706950474046207256e-01,-3.449711919205882826e-01,-1.961804656286800230e-01,-1.431729330217907381e-01,-7.232917235738274275e-01,-1.367148679770602004e-01,4.301667719464301043e-01,-2.694683365907265538e-01,-8.074499604911765660e-01,-1.406363307793228323e-01,-1.581684441444748124e-01,-3.682314513340022577e-01,2.512177222735288984e-01,7.257100395675822879e-01,1.011064984805600586e+00,6.850003899746156533e-01,4.952399920132023459e-01,-2.371668987916676630e-02,-1.063837906269792383e-01,5.392237925873945015e-01,3.718929964534684607e-01,1.291660670240989406e-01,3.333099060971650984e-01,-2.675693028001762674e-01,-8.893192597720860348e-01,-2.015304807118839525e-01,1.022965208642891310e+00,2.788096610533518094e-01,-1.388940032042124684e-01,5.799282751786015710e-01,2.719055106758953566e-01,-3.674150639209526614e-02,-3.894115200644109875e-01,-4.571020743815073506e-01,-7.673682376469752320e-02,-2.647199161496330277e-01,-5.471530446337931064e-01,4.327766633987424894e-01,-9.168337278896201981e-02,-7.090744475393674362e-01,-1.447011178756817118e-01,3.867379912972894462e-02,-1.036987856532855190e+00,-7.277982129934479349e-01,7.164546203470223418e-01,-2.686940169309369464e-02,-8.654521205943547235e-01,-3.011970113648811398e-01,-2.243757518242226467e-01,2.803530166508870214e-01,-5.065573704840479335e-02,-8.388259149937534742e-01,-6.711062349391889725e-01,-6.151645300220491830e-01,8.001345164895211359e-02,1.284899263144249348e-01
-3.975012364526662179e-01,2.180376225504662979e-01,-1.312689797522605506e+00,-6.972541772670706184e-01,-5.060628284357565621e-01,-7.355262237580675877e-02,6.502502186218700464e-01,5.275402585556417945e-01,8.403724701285513188e-01,1.880930220996118452e-01,-1.721296636150532466e-01,6.480108607143439947e-01,-2.067269711880772298e-01,1.361720562552846828e-03,2.620998002390674819e-01,1.691466358623920641e-01,-3.721272298129555400e-01,1.584903855588100374e-01,-4.784396507737225801e-01,-5.185247025070982563e-01,-2.445759864846623333e-01,-6.015558093910222670e-01,-4.410894585789616462e-01,2.597545350930577923e-01,6.667442749599988838e-01,3.309666571050880468e-01,3.893324487069099032e-02,2.684681059361697028e-02,-1.478280866859459086e-01,-3.409488846924627614e-01,-8.239448745403751828e-02,-3.229804974261999972e-01,-2.137830514143325422e-01,-7.859294893134060045e-01,-8.666076878097992431e-01,3.895209498501144840e-01,6.255161512758596887e-01,-1.505577710025488292e-01,-6.909567872060260948e-03,3.467249072882885308e-01,1.225643779953947465e+00,6.277263419973730940e-01,-2.389541076279945997e-01,-3.107882019478748203e-01,-1.387098070860046661e-01,2.715227037009447231e-01,-6.823442573360727348e-01,2.781184534523888918e-01,5.386305361343235454e-01,-4.211468601849039928e-01,-4.630795000998598199e-01,-6.314708236397857943e-01,-8.312678699790823078e-01,-6.615366712945354166e-01,-4.753247365042648220e-01,1.727605291933442255e-01,-2.035150027278580798e-01,3.267128055684227483e-01,1.838951782641858879e-01,-2.817900576408057245e-01,2.103193652453689277e-01,-3.318994519318359537e-01,3.562268849757895817e-01,5.728975889921167353e-01,-9.461921067206073566e-02,-1.455144801163963941e-01,1.010035146169050851e-01,-1.835641817377149931e-01,-4.578714326082028996e-01,3.925918621949533449e-01,-2.460750693094429231e-01,-1.307375000859428704e-01,6.852802830803251810e-01,2.601590414896001041e-02,-6.885249346415543981e-01,-7.618819444680301478e-01,-4.253334262649735575e-01,-3.801053105487555150e-01,-2.231561093646201865e-01,3.766015592698794823e-01,6.107493981482176038e-01,-3.015279605839928934e-01,3.231427176597904960e-02,1.294170480661225309e-01,-7.076456706387656004e-01,-2.973579119107094271e-01,-3.118232345808905626e-01,1.659969517421316931e-01,-2.313359954197900803e-01,1.111698210487395005e-01,-4.638607724317809766e-01,5.579720178954222787e-01,3.239011802993926881e-01,2.403987426721809761e-02,5.403317028357621510e-01,-4.146028074023722088e-01,-4.975770192284563742e-01,-9.544781635810742904e-01,-7.595286512555613490e-01,-2.101539499949743039e-01,3.595680921419178167e-02,-1.427924996014573109e-02,-5.738204005278552122e-01,7.530267621926479693e-01,6.121556406680255247e-01,3.886518143778477374e-01,2.408833054280520303e-01,3.312805354200093477e-01,1.617897646477977069e-01,-4.812298435984215805e-01,-9.571811233164264632e-01,-6.376181925071992829e-02,3.903954477612953805e-02,2.026897946253555793e-01,-6.812628001696322544e-01,-4.714714234506222068e-01,3.912996513502834950e-01,-2.619142871400545469e-01,-3.690842871095005862e-01,-3.137664344555876617e-01,-1.439615502542667402e-01
-3.683854656636547098e-01,-2.682093459657295398e-01,-1.791761937548415062e-01,2.958504003533283244e-01,-4.460338566430496754e-01,-1.995938397472324655e-01,-8.582616335085818671e-02,2.612239507122439408e-02,3.648506324639765319e-01,1.563833318689741014e-01,3.846892159919435561e-01,-1.012983278013465938e-01,-5.203297724978532823e-01,-5.643648436053992912e-01,-6.061740305259362138e-01,-6.954711068753134384e-01,-2.593144769716075326e-01,-2.418015864507368773e-01,2.512519750994620660e-01,1.385537438987379522e-01,3.037807407434870988e-01,-4.263663219414268735e-01,-3.553243028353275657e-01,-1.747564094858256867e-01,-5.207605978217748621e-01,-5.461676546635410578e-02,-1.614645953275353207e-01,3.648797672216521626e-01,2.698668174379148521e-01,-6.449136861616887595e-01,-2.860312354080407071e-01,-6.029490907683776602e-01,1.099787152866529422e-01,-2.189507594188295214e-01,1.621860317628508741e-01,-6.785653351667345068e-02,2.645239955533510434e-01,5.284964776127877295e-01,2.165165145312053230e-01,-5.951914137808408389e-01,-1.145800971582491723e+00,-5.924615734369443887e-01,-2.045638324882461112e-01,4.838984128191934665e-03,-7.334697756048599304e-01,7.267262666490229561e-01,6.724904917647298030e-02,4.857087985985156231e-01,6.204469514227346494e-01,6.397735032642661857e-01,1.998498126686593934e-01,2.782791012128953412e-01,-1.235694975143580149e-01,-8.361923709022645035e-01,1.188279567801056730e-01,5.165681244772159925e-02,8.507682976967246846e-01,2.276479898972324778e-01,-2.672593947273404491e-01,4.046996882077327773e-01,5.593179393051246340e-01,4.743900663778061882e-02,-2.446600622675100256e-01,-3.327337918630210445e-01,6.171932870442985164e-02,-3.359564992896530988e-01,-1.692709459836709215e-02,-2.995203790192062579e-02,-2.095822817799914140e-01,-3.643818138563371667e-01,1.005384300708021122e-01,5.160034151968717619e-01,2.944490728813675684e-02,-6.045159352001613362e-01,6.227935772452443397e-02,-5.754948020245684859e-01,-1.680313610660480739e-01,-4.970854738751241675e-02,-7.605338879674063135e-02,-4.695361321188501469e-01,-3.065828311696836561e-01,3.390862611706360052e-01,3.752392344987846018e-01,-4.627309604423604505e-01,-9.187177648273261443e-01,-1.013913463688505656e+00,-5.509597243434212199e-01,-7.068981797641301634e-01,-1.787107981566911363e-01,4.400897110724467098e-01,7.284056892989870802e-01,5.295303777302074605e-03,-4.404586167442085531e-01,1.978732017627050921e-01,-3.746815095378971255e-02,-1.320052657470770774e-01,-4.046176747365657356e-01,-2.000861695539098983e-01,2.656933420903354048e-01,2.994459716937554195e-01,-6.022161834308374928e-01,-6.146677588742162079e-01,-6.925651764639716435e-01,-1.488024331377145459e-01,-3.689511946199445225e-01,1.157655867743482947e+00,3.809176423513371268e-01,-6.554315375718314796e-01,-2.634835180639147900e-01,-8.035051724849628929e-02,-3.308263847000053048e-01,-3.677297238667127655e-01,5.926750890972637409e-01,4.216793923266164978e-01,-8.484860860161076435e-01,-2.266801114257007699e-01,-9.011621750833553879e-02,-2.779573416048548573e-01,8.201242784568703037e-01,1.265965368744196518e+00,2.530327503150253676e-02
-1.186970295034480011e-01,2.199956219426636717e-01,1.961335368184655703e-01,-5.576050470416602650e-02,8.356377278767561645e-01,-6.634183278175127541e-01,-2.792776843627311489e-01,2.476289922312627234e-02,-2.066807193399160802e-01,-5.828128425771598176e-01,-7.241476337920736694e-02,-8.297424457269832188e-02,-1.648254066232755499e-01,1.567935856662463212e-01,-9.561318380767137859e-02,-3.085532818219961504e-01,-2.048026665091146892e-01,-6.819296839782426622e-02,-2.517958125135908998e-01,-3.633739960192821083e-01,-6.975357656472849222e-01,-2.798042615694730159e-02,4.069404917212740558e-01,5.888971448815032428e-01,6.356529816898983665e-01,6.086679403557861967e-01,2.417623525481113200e-01,1.056504078136234481e+00,5.096268803200723063e-01,1.444625184329598466e-01,-2.688950694060613378e-01,-4.241335698911360280e-02,-1.323271205015339735e-01,7.143764657365195281e-02,-8.723848463538569353e-01,-7.636979977603222114e-01,-2.114803810005395357e-01,-4.869312540038077119e-01,-6.658732074234555709e-01,-7.310004373088234420e-02,-4.272651952871893699e-01,-7.526789806392207849e-01,2.338779091705071589e-01,-3.284172991479214487e-02,-6.395195017832240314e-01,-4.443580351454654020e-01,-1.408057882028282415e-01,1.467033237141192048e-01,2.372573647962446068e-03,3.231025260258605369e-01,4.761065736082815136e-01,7.044825332499722592e-02,3.240331024644754754e-01,7.652192650015839925e-01,1.235644641045565428e-01,-4.196257599778997482e-01,-1.037486347669541731e+00,-1.618684229034887401e-01,-3.150081055911088113e-01,-1.121874888918689139e-01,-6.302086871305955240e-01,-8.273596794438550228e-01,-3.362171234450377910e-01,3.113116274339762790e-01,-4.797839940855807561e-01,-4.298061892806827045e-01,7.403079075158173206e-01,-6.302957915918393494e-01,-1.077498571380796744e+00,2.833512241114605201e-01,-3.882906517086389675e-01,-1.180778611786449245e-01,5.264699508905258396e-01,1.190515993475132484e-01,-3.300917451436818223e-02,1.903241723315236278e-01,-4.233344284985269823e-01,1.547790043173922769e-01,5.688115033497133377e-02,3.549440081968662647e-02,-7.973069285122516003e-01,-5.104562742669583875e-01,1.180716072550959672e-01,6.023455786587465777e-02,-6.548729843806723183e-01,-9.532270854934898896e-02,5.774958120296533881e-01,-2.108494412268431817e-01,-1.461208015209324307e-01,-3.415231426301820195e-01,9.963396718922737927e-01,6.274287738524874092e-01,2.506347926415241623e-01,-1.225697739640314365e+00,-2.178121648807110899e-01,-1.149440820810589126e-01,-8.451974166031888114e-01,-8.925145432436812909e-01,-4.151911126991379430e-01,8.228805173321940281e-02,1.779929662916461541e-01,9.157136679801125556e-02,-1.716788668588436484e-01,5.233754471366055538e-01,-7.786423195191088942e-01,-1.878758271490786336e-01,3.022278466207859449e-01,5.189714322153693438e-01,-2.091573098539628306e-01,2.585346470061928859e-01,9.904743230207820881e-01,-8.922226633803541449e-05,-4.236957257589343273e-01,-3.117616301752741403e-01,2.625048473825800643e-01,-1.940904519782360449e-01,2.368202772473206319e-01,3.122909957263581004e-01,2.257487866964012421e-02,3.026049629035443278e-01,1.268725092842838513e-02
3.600558958318525460e-01,3.627213240616998791e-01,1.138172238710595918e+00,2.569432553388928397e-01,-4.744095440040325684e-01,3.846022635446587068e-01,8.524697480000479818e-03,-2.660087478086782253e-01,-3.097332167113209245e-01,-2.493295780987775934e-01,-1.829561511561728360e-01,-3.557180246870562113e-01,-5.268902128578556443e-01,-3.290133535623874783e-01,2.786282244535748798e-01,1.830366223192912700e-01,-3.870097303226303631e-01,-8.378515178590395518e-01,-8.365121746052155416e-01,-1.029920103077984483e-01,-2.500893676267053611e-01,1.480172512930834627e-01,3.599030584101818864e-01,-2.778769478227247625e-01,6.247580924212103176e-02,2.227477773700490549e-01,-5.144928849773069413e-01,-2.896774286574166357e-01,2.167805724671173773e-01,3.798918889458109960e-01,9.008493221876521240e-01,5.812312749282807500e-01,5.148470861191132286e-01,-1.848024659655803092e-01,-4.151040713961375861e-01,-4.803931840671387121e-01,-3.405521961191873004e-01,-4.856316656213061078e-01,-4.016320422014853508e-01,3.387376736431552127e-01,2.117121150885890868e-01,2.001409205210587794e-01,-1.725179729299558540e-01,1.408722705227513916e-01,4.560178197766968228e-02,-3.948284439261229295e-01,-5.219153826312723510e-01,-2.033078089180695158e-01,-1.129200152906789434e+00,-6.460730679402406640e-01,-2.299443853021283513e-01,-1.569355508572533309e-01,1.315471089464229359e-01,2.191880673961263959e-01,8.790123459339731493e-01,-5.445508312524965921e-01,3.343412992392836847e-01,2.446618292828509345e-01,-2.486574888764653268e-01,2.660349152035674791e-01,2.142464962127936801e-01,2.126897982246071239e-01,3.834413185320240114e-01,1.387351124369072819e-01,6.154782984926119305e-01,2.721989875379524082e-01,1.527115282275683938e-01,3.628140264227603939e-01,-5.058456071715615732e-01,-5.142879887443181364e-01,-4.391439065343211157e-01,-1.940134130141856206e-01,-3.301697842308466413e-01,-8.198891690757241779e-01,-8.345533406073244453e-01,2.709834625249010753e-01,-6.032941274927537956e-01,-7.218309255233704702e-01,-3.120123253283943465e-01,-2.788210329533351017e-01,-7.007913887208482295e-01,-1.798493594676946195e-01,3.514567972194327927e-01,2.086109284208834125e-01,-6.877346941574655759e-01,-4.309677688070481238e-01,-3.145779278107045385e-01,3.428816346743302490e-01,-7.809812000706148338e-02,-2.634267382982004302e-02,-4.722334930602106184e-01,-7.951768080952963391e-01,-3.862093500519602207e-01,-9.917021568110475638e-01,4.457023310423573192e-02,4.496157322952965552e-01,2.203452467007677440e-01,9.413205998620270964e-01,7.101098472699318709e-01,5.555996717264758411e-01,-4.733062243669302616e-01,-6.672776313766108913e-01,-3.126011530938830885e-01,-4.655056012424171330e-01,-3.231719917695683453e-01,-1.229315239246243197e+00,7.098393859363215652e-01,3.914777896055310347e-01,2.634679366075408646e-01,2.601012193003924278e-01,1.725006235898874085e-01,-5.747429671132315843e-01,-1.837380795486858454e-01,1.636319653986041123e-01,2.319216847967835171e-01,-9.918459640465586424e-02,-1.128682222750867353e-01,-4.530592352026122649e-01,-2.795462921685984425e-01,-2.007439605230844637e-01,-1.050859971538418425e-01
1.605694732835660776e-01,-4.163305128689336332e-01,-1.892246441167153570e-01,-6.303553683486286252e-02,-3.099187354547928153e-01,-2.611866261545587875e-01,4.399964320996628264e-01,-5.402456396499605296e-01,-1.625284560705455295e-01,-1.636386485685902004e-01,2.959578957883579609e-01,9.590694935615055039e-01,4.573858517814199942e-01,-5.984023775661101441e-01,-1.371683197406696531e+00,1.380664244169739485e-01,2.258088947087450171e-01,-3.155762444327479543e-01,-6.584894565004076883e-01,-5.179799322620947111e-01,2.783695584512627108e-01,4.876670238784282518e-01,3.657740984304582721e-01,3.406925522967069742e-01,4.677083207961442723e-01,6.222448149368273729e-01,1.105143173683663382e-01,-5.026223377235128353e-01,-4.526527731981466740e-01,2.420021943553651023e-01,2.972851643870310853e-02,3.339728705226607253e-01,7.263212442473258867e-02,1.362761167430777687e-01,6.986699663995273868e-01,8.131782905456703681e-01,2.959490443686931815e-01,2.780079606796447833e-01,4.662391792258374634e-01,-3.409864854635635267e-01,5.213791416974491444e-01,2.432112115714822054e-01,4.202524534084888796e-01,-2.472251423514007229e-01,-3.510138770866775837e-01,1.317791930511016951e-01,-3.376995517269386626e-01,-3.878463297767196227e-01,-5.677851230342190192e-01,-3.574230920779508103e-01,-5.431702805180667060e-01,-8.301000759694926456e-01,-4.002721835445867127e-01,-9.023676959712289003e-01,1.400913290045598669e-01,-6.136254167184894692e-01,-1.213484534806313020e+00,-3.309420034197156357e-01,5.710085267319923163e-01,4.902558929317207270e-01,4.846945138719812030e-01,1.278717017994049465e+00,-2.868139366206341467e-01,-6.889917650282304518e-01,-2.947702546416385849e-01,1.232203507321119884e-01,-2.217581062275259529e-01,4.078902751116088021e-01,3.379656378644192438e-01,-1.857922760850382049e-01,-2.245529423758072796e-01,4.025727446345248040e-02,1.144550471372624417e-01,-2.603254973877258682e-01,-5.302805968033497130e-01,-4.469012167469127439e-01,-4.565001567382249714e-01,4.046905697169055904e-01,-1.045425562522503293e+00,-4.864035251657730097e-01,-2.821254232347683022e-01,3.624976121982840388e-02,4.006613318551831004e-01,2.392027127942033815e-01,-4.568592376557159551e-01,3.300233562029680767e-02,1.878000123231760576e-01,3.923798994086923758e-02,1.597118933395116069e-01,1.159379335375506082e-01,1.463569051241228880e-01,7.098124852238746341e-01,2.029152795849769875e-01,-1.887002260397999120e-01,-3.429204927908696132e-01,-2.505657263194471795e-01,-8.308866805435524139e-01,3.342715722199540163e-01,-1.059454325868698504e-01,-3.237524443934507445e-01,-2.784565251805558583e-01,-3.596955813751347986e-01,-3.092510161203954056e-01,-3.935185787032665639e-01,-2.541441118692688295e-01,-3.557190561717641364e-01,-8.248015984534154965e-01,-3.057922158533729062e-01,2.922188569260447122e-01,-4.016612858546577125e-01,-3.930963702403354465e-01,-4.101056474228491622e-01,-8.814770064694115170e-01,-4.177325319988659524e-01,-5.556573829295350375e-01,-1.032134175609734417e+00,1.424508925190723641e-01,4.237862720256940774e-02,-5.838351418181012692e-02,2.304918163765409256e-01,1.570670633041767739e-01
