4.583998022747917678e-01,6.415830693851490851e-01,7.958759653055398620e-02,-6.883708713965336345e-02,2.913115890410336584e-01,-2.662585624008638741e-01,1.847979942840076006e-03,-8.596423629604654781e-02,-2.709032249435316606e-02,5.846304218384972273e-01,3.906629485793387535e-01,5.457394169301638120e-01,-3.622296803251661562e-02,1.826920178012317320e-01,4.288419086783023526e-01,4.251416215719912572e-01,3.575883852120516071e-01,1.771473489640048860e-01,-2.149777876649094366e-01,3.974048864725407970e-01,3.957008653593330205e-01,4.290135478945941022e-02,-2.866833214902488325e-01,-1.594481135730572152e-01,-9.411309868414707847e-02,-3.683774329485238197e-01,-5.926528078881618811e-01,-1.344275015912666238e-01,-1.942385447599592474e-01,2.100353565751878204e-01,-3.536442914741647625e-01,-4.975153275315290502e-01,4.915190829325244426e-01,-1.868607177260215024e-01,-1.790978568053683273e-01,1.051482433055814583e-02,-1.036764365885751715e-01,-4.408310503813158698e-01,-2.669721658994596639e-02,4.155510589708652502e-01,3.747452182851528923e-01,-2.557672609238912931e-01,2.907631789649158249e-01,-2.608242093018731667e-01,-3.392261998011652513e-01,-8.301550101528408498e-02,5.257546956741481203e-01,-4.562956611853501432e-01,3.603696900536396686e-01,-3.015748185378673285e-01,-3.941173879541025604e-01,-6.214876616259388253e-01,4.185820639163387313e-01,1.312756624735142985e-01,7.320826367408566071e-01,-2.920570119811578547e-01,-2.966345355335853196e-01,1.669085301064546223e-01,-3.513266772460297421e-02,1.539267135967069822e-01,3.435654381443586369e-01,8.156831999332869731e-02,2.192883704291423985e-01,2.138459112854531885e-01,-2.988755024010717465e-01,-6.288377821618602870e-02,-1.147672837078780178e-02,9.127018234907075325e-03,3.635882208125474913e-01,-1.539300631003731046e-01,3.588111515890160530e-02,3.899659998657383775e-01,-6.671307508542859144e-02,-4.204856731403332493e-01,-3.786953405116398885e-01,-4.579285744734261088e-01,1.649506503651838873e-01,1.868278746064782059e-01,-8.014295892129050247e-02,2.555605031913705805e-01,4.591063799025225101e-01,-1.040457150378168300e-01,-2.936909915490434342e-01,2.834158541464948944e-01,-3.672579204231141148e-01,-9.374697023391054262e-02,-1.517505916112142639e-01,-1.014746532308982152e-01,9.271624191959790262e-02,-1.263467581166231868e-01,-3.745603020232692315e-01,-2.980061945609543406e-01,-2.095035135503035550e-01,-1.195332381641634606e-01,-5.752636717283590717e-02,-2.686103190385499273e-01,6.400018407516947505e-01,3.060121193128133299e-02,-3.032543580441538281e-02,1.381566404936821445e-02,-4.900880225550880431e-01,-2.357017198489457788e-01,-5.465871909074629942e-01,-3.525810115696680347e-01,1.296338604370250169e-01,2.193341011246416616e-01,-3.634705233330935426e-01,2.013587761660330933e-01,-5.538431189457783121e-01
-1.460769970243158689e-02,1.963860049419824949e-01,4.408488201788549610e-01,-6.050957396170845159e-01,1.437906615385739773e-01,-4.293680039071924859e-01,-4.750927487537616734e-01,-4.935429451310400228e-01,6.183220885999085592e-01,5.129060901166161424e-01,-2.595790083825781913e-01,5.948768353212463555e-01,-6.293481319884597358e-01,-1.640949405026125574e-01,2.034043359712670862e-01,1.904755259212859431e-01,-5.279456326326734672e-01,9.474979723461813830e-01,4.841165814050720773e-01,8.201464235419106408e-02,1.192261345430137426e-01,-2.388786626699251348e-01,4.918986346326600367e-01,-1.158695263666140035e-01,-8.864172682618760846e-02,-8.760272405889009406e-02,-1.366404350595495365e-01,-1.642423930155680334e-01,-5.662800307607803729e-01,6.349844295122576421e-01,-7.258885801809606964e-01,3.000408917648677565e-01,-1.367994901834745369e-01,2.086113864778443572e-01,1.208304868373860225e-01,-1.249530246937505112e-01,-3.106539521215224697e-01,-1.918810440775786941e-01,-2.216160155004841537e-01,1.800811774401017973e-01,-1.071734614282451314e-01,4.485625242505620891e-01,-7.041006739689071869e-01,-3.214074741684259662e-01,2.149300221839377592e-02,1.842622937391642790e-01,-9.372580067495761558e-02,-3.006945058114812164e-01,2.924026401371188633e-01,-2.114674642521981868e-02,2.490692581820869722e-01,-3.921561745196343041e-01,9.232206146303291172e-01,-4.031691712039643660e-02,1.002386304014984519e+00,1.464583838125216031e-01,1.358924675176590158e-01,6.012454541461658142e-01,-5.163725421614127065e-01,1.396753988608035180e-01,3.012678588760758225e-01,-1.341428495641399099e-01,9.224593254711204171e-01,5.150956251858765933e-01,6.315775346967100745e-01,-7.437869360289165455e-01,-3.034848042842218652e-01,3.814084363339557693e-01,4.461825309357125846e-01,-2.287316846665078118e-01,1.885669127600322070e-01,2.242276257164434738e-01,3.201170168707306862e-01,5.484387464816592450e-01,-5.067813818122929304e-01,3.672719576608037689e-02,3.019743495901214825e-01,4.467313418378961870e-02,6.377500597152960249e-02,-3.284147336047198440e-01,-2.159459274754849667e-01,4.418683662037542481e-01,-2.830901144029913108e-01,-6.871912848456700473e-01,3.287970246296365549e-03,4.443888729289700856e-02,-1.786360602540164599e-01,6.618981100962860464e-02,2.127473757550675804e-01,-3.841467511274742064e-01,-3.868324851784379348e-01,-3.646386623793976822e-01,-6.112431220766618711e-01,-4.664336572224696553e-01,-8.086865662302148428e-01,-3.428090466156411553e-01,-2.288752154733572075e-01,-3.009807851030880110e-01,2.205254055249376011e-01,1.510632772909961119e-01,-1.712006657849208385e-02,-2.056562699694168828e-01,-7.355480557709549450e-01,3.278189024051230693e-01,-1.022617737733878096e+00,6.469436537985373548e-01,5.077262336876596782e-01,1.062018641334420976e-02,5.224806365580334511e-01
-5.186094322548913116e-01,-5.106351685018882813e-01,4.732011183475024474e-01,-8.515145395685518037e-02,-1.265465774682686118e-01,1.921129551640948785e-01,-3.435773224771235257e-01,8.160596219230151216e-02,-1.648058242545731022e-01,2.938266008077308200e-01,2.411899956849417326e-01,-1.139762204617573160e-01,-3.793249001968143630e-01,4.192130399783087769e-01,-3.672000750869681140e-01,-5.556765796983721001e-02,-4.694093098620886195e-01,1.450223634341129886e+00,-2.370565344152588128e-01,-8.138063786115126708e-02,-3.890706716243942931e-01,2.243720938200218507e-01,-3.267209508537585738e-02,1.465902477713723340e-01,2.489594087089071206e-01,-6.547284367331287491e-01,-2.869574036445721177e-01,1.053254787491468697e-01,2.819894848500676954e-01,8.090051219541150029e-01,1.605024233266633682e-01,-1.256688913371364902e-01,8.011377772974918043e-01,7.226642212054948389e-02,-4.000994816378784513e-01,1.747237188577390743e-01,-7.071073063832592487e-01,4.297767025044333528e-02,2.527267930510010974e-01,4.501812855064849517e-01,4.679200044260303087e-02,1.531765016205384189e-01,-7.833452071608502931e-02,-6.430481818172396613e-01,4.384104588307179973e-01,1.907878300452569564e-01,2.031721183166050049e-01,-2.303340130929377172e-01,-2.589278709516276700e-02,-2.215094106007395314e-01,4.087434718583282667e-01,-6.928703934449221835e-01,-2.035104707672020508e-01,2.210046880889430243e-01,1.082476270652305672e+00,3.776438511348338967e-01,2.833362100859175281e-01,-1.046999984594937150e+00,-1.977451451273378180e-01,-3.017408067738597821e-01,4.467463660806236803e-01,7.500585763799155758e-01,1.064148476524745535e+00,-3.858984019589201814e-02,7.418729281792650898e-01,1.161082946166251961e-01,-4.534809806915810482e-01,-4.239227035527376453e-01,-3.421582400898722232e-01,-4.452670111960573829e-01,-1.464742700376683304e-01,1.855756673821171432e-01,-5.646603589175671623e-01,-4.058501027931763483e-01,-3.688838588383787642e-01,4.905733095778805342e-02,1.079519678573415409e-01,-6.292689299098792599e-01,2.456126900720638495e-01,7.500104320493637955e-01,-2.425818477001590312e-01,1.753402051353817881e-01,1.601390733735018335e-01,-4.283119789307389125e-01,-6.555724579470326163e-02,-2.760250903937837025e-03,5.419125017634968122e-02,-3.412842536975851937e-01,-7.417801411890816154e-02,-8.116729049162016985e-01,2.685271140378393123e-02,-4.320422278920830750e-01,1.818758174897959767e-01,2.690584969866314236e-01,4.732741758584776415e-01,1.791251558442686631e-01,-7.233426576988064571e-01,8.286012424670737841e-01,-7.103089581925689511e-02,4.025876969183425635e-01,6.098510837944607493e-02,-3.758613574108220501e-01,-3.707521512538340946e-01,3.699905629666394580e-01,4.776845140337176998e-01,1.348177031552735550e-01,5.864081679329061769e-01,-3.574063970580003691e-01,-4.618410159829953315e-02
-3.648020712028168799e-01,-3.053906881652818650e-01,2.231153745006536349e-01,-7.071618965136040602e-01,-9.536304920486414483e-02,4.072871901670884198e-01,3.802384463899335931e-01,-3.891445217406565571e-01,2.208254138283674214e-02,-2.990761800262122794e-01,-5.749379703078192488e-02,3.455111089360974885e-01,-3.495829006474850398e-01,2.905631288624025560e-02,4.023040806422094051e-01,2.533023250814133154e-01,-1.333157009790794656e-01,5.229543179839716283e-01,4.337423609115579892e-01,2.911174647250737157e-01,4.280909986274508139e-01,2.982805475644053142e-02,1.830377224310755502e-01,5.612597987066552108e-01,1.190274040327421595e-01,9.572076863496946364e-02,-6.044111253393921190e-01,-3.622501879354836363e-02,-2.768946416344944539e-01,-3.808655351038995884e-01,-3.679968445332351124e-01,-2.746034856572600602e-01,5.759416202710750943e-01,4.645152416853081528e-02,1.585663780445335236e-01,-4.581809362645957173e-01,3.809388048560909401e-01,-4.077094514468959652e-01,-1.685112835129412012e-01,-1.482275493329716642e-01,4.434105337837269123e-01,8.396354961885396651e-02,-2.572095815550757281e-01,-5.650639315921340139e-02,-5.766662783606096854e-01,-1.398283247472542346e-01,1.408074949514686036e-01,5.709098622704352755e-01,4.448407064615740869e-01,5.275080675264908203e-01,6.419941528118178198e-01,-4.312745399527447843e-01,6.417963043054167316e-02,-6.480996218176102337e-03,4.818738923807623642e-03,9.095794436877353839e-02,2.130854125999997739e-01,-7.097229346089980462e-01,1.849164599371813100e-01,2.175086553467845685e-01,3.933738477530698829e-01,-9.689048406156745841e-02,-2.692830711500745489e-01,-1.539908273301325847e-01,4.093276795637849630e-01,3.722711505220634431e-01,-1.006178920373001634e-01,-5.402301339994388663e-01,4.613287449538233109e-01,2.199076702143418494e-01,3.457038563034086076e-01,-9.989816748987455364e-02,3.443920227652174093e-01,7.226413621618527072e-02,1.214940424750344944e-01,2.338226233445115099e-01,2.989508442169593327e-01,-1.329576946531515480e-01,-3.097740724441406801e-01,-2.214399123998699592e-01,9.293129565130427150e-02,3.153558087243615304e-01,-2.727972899865074852e-01,-3.868871182394393871e-01,-9.654880796721615477e-02,2.575064296522071028e-01,1.628101797265147643e-01,3.532064262233742258e-01,3.409841732156868588e-01,8.525115129229658695e-02,-1.612963532838334324e-01,1.462867951378250542e-01,1.041300948495038799e-02,3.474493281542456735e-01,-7.489166236739447716e-03,-2.140138936241069434e-01,-4.869694162512929192e-01,1.759775561684695788e-01,7.439540949885644627e-01,-4.258996719728950220e-01,2.416845015568309385e-01,-8.096281878566550239e-01,-7.135878674197092542e-01,-3.392305838898533876e-01,5.913204608189850386e-01,-3.400982443618201234e-01,-1.384468102170822168e-01,-1.108448730619769063e-01,6.136564137286072418e-01
-3.197388712881613082e-01,-3.510781682902384682e-01,-6.095935151593642187e-01,-1.040822289605362050e+00,-8.971574503806679646e-01,-1.930022923743978658e-01,-5.332787350436863916e-01,-2.931864248007953755e-01,2.360080615764001688e-01,2.910992422219793041e-01,-9.856896927650068418e-01,2.042305877097721394e-04,2.007502914950806128e-01,-5.822757113236743942e-01,-3.663984778244185891e-01,4.253044392462538292e-01,-6.945067604172249220e-01,6.439971599333326191e-01,-3.503805824760860554e-01,4.408688006284298133e-01,4.126774325505869895e-02,-3.517192478893878954e-02,7.517103287336643347e-02,-3.544176670068182600e-01,3.679152603619068040e-01,2.933569954788530776e-01,-3.136914623483879616e-01,3.211190606747691412e-01,-1.753755278492096781e-01,-9.293985921115293092e-01,1.936543101755937857e-01,1.585001599496438027e-02,7.139072189655221168e-01,-3.124120511326151095e-01,-1.195637956925177520e-01,-4.067776198403775800e-01,8.960181110438906193e-01,-7.289299918505028897e-01,4.777840944175368865e-01,5.739738869485163653e-01,3.087718997778772165e-02,4.510160411079507381e-01,-2.944833776257514343e-02,-1.174046917909401661e-01,7.297635636977897189e-01,6.876987212341701960e-01,-7.276215195990037854e-01,-6.401346080042178421e-01,2.019086834110651874e-01,6.200238185904441979e-01,2.478332735507783324e-01,2.504457791048545490e-01,2.777515566529356050e-01,8.486141626382845971e-01,-1.230094350327922831e-01,-5.262190270013152871e-01,-5.190883413944447078e-01,2.465698365582476848e-01,7.490861701857846056e-01,-8.695159793118065195e-02,1.120339166564526256e-01,3.990318493917470732e-01,-5.534788154522331943e-02,-3.161196957079724923e-01,-1.223523586713167743e-01,3.703794035871010859e-01,1.636043958611054505e-01,1.515814718673969830e-01,-1.667239024509657441e-01,1.895054115326741950e-01,2.909289747301738172e-02,3.874421178489206863e-01,5.136810003893290677e-01,1.948800424971730560e-01,9.942955403229719602e-01,3.982049042008532491e-01,3.618609644733966624e-01,-4.017064944108360014e-01,5.466936570924441074e-02,7.740875585756905597e-01,-2.294941750853042497e-03,3.177715790669161100e-01,-3.247228951100518124e-01,5.618642439451406734e-01,2.620027186764742888e-01,1.890843529749219321e-01,-6.595954387192849433e-01,9.771320165653504808e-02,7.175336196883698170e-01,1.622839105601400420e-02,6.160001631143142975e-02,-2.862213431366508742e-01,2.282421512110756889e-01,-3.284800236040092414e-01,2.613881107805712256e-01,-1.352782772792961996e-01,-1.768844052127643007e-01,1.915984985844683686e-01,4.823706905016075797e-01,5.166622269640789300e-01,-3.497133284356688798e-01,-7.752767517573402323e-01,-1.491662978278947005e-01,-4.130626197565340219e-01,-4.048055554787854948e-01,-5.283087274617791484e-01,5.532388908234979752e-01,1.581696789834402261e-01,2.906385303547700527e-01
-3.446122900293576707e-01,3.569301839455746219e-03,-3.647530044833848240e-01,1.814913641820990265e-03,6.161963848230188334e-02,-2.161388061956517892e-01,-4.851440710816459778e-02,-4.125432013777199924e-01,-1.371328852912291618e-01,3.775203687803467822e-01,4.951128665520185268e-01,-1.528463626990134161e-01,1.012316773415497112e-01,-3.376983351383997523e-01,-2.658318501814380119e-01,2.100240002322295574e-01,-4.638061391058109217e-01,-2.776477865256429256e-01,3.007031411659614739e-01,-2.161361573143325554e-01,3.839409503125799650e-01,-1.870433544827419248e-01,3.621359274317968446e-01,1.338870769617552803e-01,-2.597061991252995385e-03,4.956572243476422557e-01,-1.405303796225055024e-01,2.002674774710059002e-01,6.953129304551620704e-01,3.976378953989132686e-02,3.556885982774156733e-04,-3.170498145169540760e-01,-1.311923741819735756e-01,8.709145749241531398e-01,5.882913284960085420e-02,4.379979332635213218e-01,2.677891225958565699e-02,-4.265732787666733916e-01,5.116436172722222953e-01,2.420186983420623827e-01,-8.120420275162673618e-03,-1.052415485007210938e-01,4.766719302458408136e-01,5.034548695990017642e-01,3.595350938917623584e-01,4.610964332018094303e-02,-4.070166917502830994e-01,-1.419866899014221029e-01,-1.286078544393024770e-01,2.009971705355450000e-01,-7.521017286511609556e-02,7.474405699286805760e-01,1.252087147989190408e-01,1.979250902882990215e-01,-3.921537243712422405e-01,-5.162768546666778313e-01,-3.142926857464586332e-01,8.329411558482302524e-02,7.268272726798825634e-01,2.857265506342231420e-01,7.060826882795075976e-01,4.481844763463473796e-02,-5.479582622062778574e-01,-3.748940876140723355e-01,-7.779938571165651018e-01,3.395890938667092684e-01,-4.399622450260613771e-02,-2.440445588598428306e-01,-5.731132464156335482e-02,4.022876769407852243e-02,-6.453566082289668993e-01,-9.928033971428677773e-02,-6.071782836095513947e-01,-9.761078465430954310e-02,7.641002598305137727e-01,6.693495851627516702e-01,-1.999537736913463426e-01,-2.677062755430434371e-01,-1.165587517589450894e-01,-3.867790980983160654e-01,4.473184900968827510e-02,4.876715714974210747e-01,-1.250541481808248034e-01,-1.520271970080815660e-01,-2.771735185016865888e-01,-1.048601017866573545e-02,6.205901704632167393e-01,7.563109727199412990e-01,9.020598976907941158e-02,-1.234329076935316849e-01,-1.214992153335743147e-01,-2.357260004996009073e-02,5.070007726317435903e-01,7.999184128094116719e-02,-3.334110526591140822e-01,-1.723822168036858449e-01,3.885266891802474087e-01,1.513350667067167865e-01,1.699848228842236186e-01,4.920180448776377280e-01,-2.038027602081136369e-01,2.254722470926373012e-01,-4.957839067621264140e-02,-3.277673096847683598e-01,2.247558057258020603e-01,6.393281473591579944e-01,-2.350142434309913375e-01,-1.305988893029161602e-01,5.261057258918704349e-01
-1.574712897962848857e-01,4.136977077936000446e-01,-3.334080584184935248e-01,2.879702156457290552e-01,8.831429948851940437e-02,2.996616927992720031e-02,7.659282756786618407e-01,-5.999961766388239859e-01,-1.634592183863525505e-01,-2.609403043753718565e-01,4.126348026636714739e-01,-2.816800598133734762e-02,9.473574042189132627e-02,-1.151954191501613906e-01,-3.468262680291498423e-01,5.184957073155391782e-01,-7.363532359212872080e-01,-6.507056491459078940e-01,-9.310811109336289415e-02,-1.172266748511970325e-01,-8.779783719275760512e-02,3.381772646132362170e-01,6.310130714972357335e-01,-2.448990141529804876e-01,-2.167730264425656028e-01,4.447408347367724779e-03,2.867372203594818481e-01,6.391746317399671362e-01,-3.022771735129876070e-01,-2.593892578784122716e-01,4.245263331624720693e-01,-5.474393525783176340e-02,-4.420501632404040815e-01,-4.765673788836581881e-01,3.850128408456234275e-01,9.931319567373969592e-02,-1.397517432707802154e-01,3.495956658269679385e-01,-5.097295118062534769e-01,-2.481272159130860633e-01,4.236550216168832872e-01,-1.634094034000035944e-01,1.830335622015648589e-01,-6.171606154817433493e-02,-4.420331303978967258e-02,5.165568967491321883e-01,9.531611800901555742e-02,-3.795839788286887728e-01,-2.460201461638782672e-01,2.771678873384019193e-01,-3.794536896762171763e-01,8.889607404750914099e-02,2.374347634983713373e-01,6.634626098494517121e-01,-1.271426907152419794e-01,-8.412733134138629387e-02,-5.322918032575243430e-01,9.063327749511745912e-02,1.969529206596592752e-01,-9.895147027469611278e-02,1.559731392979278597e-01,-4.471774788768728692e-01,4.268223196755588367e-01,-3.503321403549228275e-02,2.670635462635215784e-01,-8.794179793678759405e-02,5.535723407405112456e-02,-3.975648495941841443e-01,3.348763811118344452e-02,-1.065131378387736694e-01,-1.894063289616621515e-01,8.466423697887114075e-02,-5.064809374002708919e-01,1.812134026267850362e-01,-1.816680646006890443e-01,-8.927798451428606286e-02,3.898678744178359912e-01,-5.438241389699026429e-03,5.717224767630098015e-01,-2.474277100068213997e-01,-5.332190817452581166e-01,-7.866915580667022123e-02,-1.167428297267214393e-01,-2.223013056796211417e-01,4.405524138286804336e-01,1.925345030750156075e-02,-1.564633036423053736e-01,-2.354233641900100801e-02,1.545804030787916727e-01,5.100519214475555119e-01,-9.222513134979848370e-03,3.781317502299482713e-01,-2.745029011456529000e-01,-8.879340334005964008e-02,-4.436141273880696012e-01,6.028454953888553458e-01,5.980156041245515697e-01,-4.906020676876896580e-01,1.851607645661018930e-01,5.212608848163802211e-01,2.884420285509678439e-01,1.050063969128723768e-01,-3.616085191081210293e-01,8.038465542472325587e-02,4.863645701890685347e-01,2.148291229338690142e-02,4.835965828558588114e-02,-2.859903581940805850e-01,-1.232311170066620193e-01
2.719797425839544647e-01,7.125314790792937059e-01,7.072636207476479253e-01,-4.146243735240393580e-01,5.372024101546973851e-01,3.922218378729390720e-01,-5.621288057505038349e-01,2.399261036889845378e-01,-3.261989866606625488e-01,-2.363684204769580521e-01,3.807257941444116001e-01,4.733525807542296460e-01,2.370964993668241705e-01,1.813475025365997584e-01,-5.706742320597858464e-01,1.639557828271332729e-01,-3.864829860526726724e-01,-3.790014346836651643e-02,-2.333099483314732547e-01,-4.564786058136479086e-01,8.321600933534403222e-01,-1.395952221998923992e-01,3.591927743712022836e-01,-1.182097671841379344e-01,-5.531705854822331903e-01,8.602475371647148872e-02,4.360929724524379436e-01,-1.940692999323622714e-01,2.690618411246201158e-01,-9.940966111476101652e-02,5.035317085596104913e-01,3.894510599574663723e-01,-4.524143257175324284e-01,-6.707513211209827075e-02,1.696923929324605507e-01,-9.107275700114311201e-01,-6.984857865269864519e-01,9.415082927658467715e-02,2.573967370923445006e-02,-3.528305314222911493e-01,-1.030519406667613214e-01,4.454682144107998121e-01,-5.097278695747510247e-01,7.095084910317137408e-03,-2.097478918871644726e-01,-1.833050356610196330e-01,2.569578078473007676e-01,-5.569423286208269319e-02,4.526450125202009511e-01,7.411230295028768678e-02,-6.002244870801460783e-03,-2.751031004504183586e-01,8.982817776679380417e-02,-4.065362750901954092e-01,-3.542081352929604132e-01,-7.246851792359224054e-02,7.144766208168834565e-02,-2.706247091935704563e-01,-1.136063709441121061e-01,-1.722710197035813920e-02,-5.027347270896272979e-01,-5.649571867443685669e-01,-7.186615119665194784e-02,-5.262140140381019182e-02,2.223259714317043778e-01,1.738186876129610703e-01,5.139309445745252614e-01,-2.997345822866316345e-01,-2.220378499788134286e-01,-1.583148791561525826e-01,2.884945422980287333e-01,-7.902147911682990689e-01,-4.702605742195591354e-01,2.508068365603350336e-01,-3.589607351269385460e-01,-5.104783186354120428e-01,-1.343423151622858136e-01,-4.329059010542933295e-01,2.626249444288785706e-01,-1.197684902205982116e-01,-1.748878170991440273e-01,2.937777366893501441e-01,4.132933858342468514e-01,4.159342579819199637e-01,5.859986366459954965e-01,3.758245997648450576e-01,-1.043086611584421453e-01,3.357975146733846450e-01,-5.211497415975215874e-01,2.601570351616175336e-01,-5.997245000559900951e-01,9.542529410550041336e-01,6.190659699542102601e-01,-5.820080654699236744e-01,-4.728422048955071566e-01,-7.077446621828310525e-01,-5.783078432006982794e-01,2.578209004821957820e-02,6.239995184406302853e-01,6.593648735943085093e-01,-1.301929086537104152e-02,4.826149714149446934e-01,-3.355044426398477442e-01,-9.476951234571898697e-01,2.821705102121012110e-01,3.014265567921815547e-01,3.761915657966153348e-01,1.135754697602086027e+00,7.678897053921999172e-01
-1.261158707797098988e-01,1.957378074846883587e-01,1.146458503303968493e-02,2.321600423116144674e-01,7.785463277590852493e-02,-3.348793531161221582e-01,1.482016810196458700e-01,4.237671284545461714e-01,-4.344524685900865157e-01,4.636369611363633236e-02,8.686567280446018113e-01,1.128090718210351673e+00,6.228144996217117590e-01,-2.187699493975555354e-01,3.339758423895173856e-01,-1.126129230379476209e-01,-1.588303369440595414e-01,-3.385311483741345606e-01,5.577054285889397889e-01,7.561257604342835892e-02,7.471148258112711438e-02,8.874372706314604189e-03,2.415301204199157281e-01,3.055570630220669215e-01,5.500365481125190081e-01,9.734760109019319207e-02,5.032853250156975600e-01,-4.694776247572994832e-01,3.327869622304172048e-01,-1.984441479364395799e-01,-5.172542059061691760e-02,6.330509585348437218e-01,7.823179747713746024e-02,-3.897791947017937852e-01,1.756161237334491476e-01,-2.734829131448438533e-01,6.767145802026020007e-02,3.110268792395697313e-01,5.362562541491634471e-01,2.418716523625148440e-01,1.594370659103377386e-01,5.276524627296654835e-01,-5.347280444367984165e-02,-1.829745884739626682e-01,2.168139715834563330e-01,-3.997190692285614716e-02,-7.185069986083669757e-02,6.689560484705818766e-01,3.838144970493799213e-01,1.196749944168283286e-01,4.935507579050435467e-01,2.307979496106928596e-01,3.681928034353780244e-01,-6.803541142077841331e-01,-4.573066453552513400e-01,-2.940198843581482979e-01,-4.529442971895339953e-01,6.037332033433940870e-01,-3.147534214880091247e-02,3.094373256529701077e-01,1.006202563682848244e-01,-2.350889323718422241e-01,-9.052468259627264313e-01,1.447042738505938397e-01,3.571307590775812391e-01,-6.080878074204123379e-02,2.322856268925280743e-01,-9.370963607731881695e-02,-9.637193272551350387e-02,1.002880444979582730e+00,1.571092185828508805e-02,-4.557939989920596902e-01,-3.820656300196325073e-01,-3.988122533450154106e-01,-3.193975537117881291e-01,3.768421682440930565e-01,-8.733957587937195288e-02,1.326049403975931296e-01,4.927848899398613036e-01,8.324405873713865145e-02,-2.782676410261202826e-01,-6.868293820482995748e-02,-4.225358176078412020e-01,-6.318118541135440136e-01,5.515114635631213069e-01,3.255380309306551423e-01,1.598968914771859151e-01,6.185563065125055937e-01,9.428516601861711699e-01,-9.731575907372409795e-02,-9.213483289530717268e-01,-3.808946596218215630e-01,-6.910285570722057846e-02,-2.767237234808446744e-01,-2.561192342291838120e-01,4.169957669965336788e-01,-4.237198004788648165e-01,2.118670948888295436e-01,-1.704641740793655658e-01,-2.683420264900930885e-01,-4.245181089900269544e-01,-3.548759335791445979e-01,7.629758390398026779e-02,8.351105650345806708e-02,6.259690084849918179e-01,-1.120634956831566414e-01,-3.163243325960155006e-02,3.713891586070802719e-01,2.964503949105332659e-01
6.078668115460471588e-01,3.907494643059585271e-01,-2.503648406826796680e-01,-1.223239834707884471e-01,-6.102546526498869861e-01,-1.173192562998316868e+00,-4.967892794156597569e-01,1.071518044819233240e-01,-1.743916578089630132e-01,2.740626133626027361e-01,6.330013630481536868e-01,4.492366958526800014e-01,3.369252659984344200e-01,8.495163927626515898e-02,-2.198379866162994967e-01,4.520036531706853739e-02,-2.167644157029983698e-01,-4.843586269944635259e-01,2.022032057207500122e-01,9.497963958362833081e-02,3.894679916797270242e-02,3.018284771705406211e-01,-3.271989008391899129e-02,-1.019223347907394911e-01,7.304583852491824958e-02,1.049148748529395714e-01,-5.049319935915700386e-01,3.408884363135252782e-01,1.801991022927075803e-01,-1.664282193230356699e-01,1.981941569724435526e-01,1.027114505767162955e-01,-5.426547360067159875e-01,-8.467409763930923428e-02,5.144647078030855081e-01,2.825409256373407896e-01,-2.488352203765814563e-01,6.964786180394819670e-01,5.217155841345379880e-02,-2.188575856911486317e-01,4.502943512605415144e-01,-9.121522126088023319e-02,-3.028600699296186624e-02,2.951593009083454677e-01,2.032891819751015960e-01,6.095002513842614489e-01,4.514775465386304532e-02,-5.628469592164395685e-01,6.119706528216767305e-01,1.750013105497265908e-01,5.302017905408812348e-01,1.113081342640766247e-01,-5.276813583255444140e-01,-5.759021646745795392e-02,-5.982007476124533152e-02,2.824391745378910801e-01,1.769069774173750720e-01,3.156978969314981898e-01,-8.728108593048422570e-02,8.352394685473864266e-02,1.384163647007174425e-01,-5.350283898814386929e-02,-2.849641320991066484e-01,2.286841293751425835e-02,7.279600161350421872e-02,-4.536932475139780485e-01,-6.767594586817952118e-01,6.994817796027997803e-01,-5.680021168368891427e-02,3.703328120665487222e-01,-9.573824416316091546e-02,1.394752821388577646e-01,-3.362325165409825733e-01,2.200271391409141242e-01,9.230286081444784296e-02,-2.156850759101325010e-01,-1.569398597456141131e-01,6.902729931793634144e-01,4.978203641747884489e-02,-2.989370190858783305e-01,1.818841674896119753e-01,-4.166204934697449458e-01,-2.334782216082971207e-01,2.327972595842843218e-01,3.682047083921621278e-01,-4.099044341616251419e-01,-1.223819571099040993e-01,-1.889620088458405511e-01,2.864232162272296531e-02,-3.452491516818567141e-01,3.777639496503498728e-01,2.714297624042160129e-01,8.648311570008535010e-02,8.655074659231699885e-02,-3.444688312661033924e-01,-4.827034410158789757e-01,2.346777550681633517e-01,-1.416918342569732925e-01,6.395566744578703999e-02,-2.547039401957356675e-01,2.616702638730383952e-03,8.138424209680987509e-02,-6.919058351769964699e-02,-3.433648017059429125e-01,-8.440615257408086436e-03,-1.820661258163109308e-01,-3.473149285003080955e-01,-1.504629443678843215e-01,2.065454983866869473e-03
1.376220398166697889e-01,4.957514141923207718e-01,-3.712153941278735214e-01,5.591954841997576198e-01,-3.117833756605520312e-01,-3.403139265179480066e-01,6.336201614553352290e-02,1.938343970727131049e-01,-2.635657972112692149e-01,2.662879000272818653e-01,-6.710919281868589492e-02,2.429173790237161012e-01,-4.937791146933728781e-02,-1.957857374100546999e-01,1.210973746447268906e-01,-2.199547329731010303e-01,4.346534086976611699e-01,-9.535556686055696174e-02,3.192241012365467090e-01,-2.490278597440001573e-01,4.507680372304582184e-01,6.889375355480683583e-01,7.863304410818944268e-02,-3.853165016947412425e-01,-6.946470832317037658e-01,-2.811602996887261341e-01,-1.920350812109679617e-01,3.275202023013145530e-02,4.813206473710482380e-01,-4.592957246541756050e-02,5.497024892155664144e-01,-2.357914614294047417e-01,-8.332561429278142473e-01,-1.056483050910295846e-02,3.751127995967769302e-02,-1.674822840803134871e-01,1.956398091280349971e-01,4.075036536210208671e-01,3.691797020724349454e-01,-5.500865969294761459e-01,-2.665875882283593734e-01,4.451955951974485848e-02,-8.512663601684278269e-01,-1.767315816462721456e-01,-4.427499937474217995e-01,9.391251604873825098e-02,-1.972379070539947640e-02,-7.006027911383373719e-02,-7.231359185174339455e-02,7.050611350425868284e-01,-5.636410844413043408e-01,3.715317145835297930e-01,2.427346508657218793e-01,-2.698399653590836111e-01,-1.980427692818843288e-01,-1.748139970835095158e-04,1.719183487439430447e-01,1.125852675935621605e-01,4.683044496050293160e-01,-6.163729183683113177e-01,5.911918727501844772e-01,1.964222242382780148e-01,7.696807621079733604e-03,-1.006854823417721451e-01,6.624152769621117764e-01,-3.610508112076740717e-01,-4.214945834532276558e-01,-5.353776480768054347e-01,-4.133576516470334750e-01,2.502408408629900882e-01,-2.038404437300490174e-02,-2.649320900260772604e-01,-1.254852778227960874e-01,-1.342466620355833862e-01,-4.814260803004998257e-01,3.225024209302745914e-01,-3.126007527164260252e-02,-5.331658864350059535e-01,4.693176848091653031e-01,-2.839592287659579162e-01,5.061853231310536883e-01,3.415129928883285926e-01,4.293743802136301690e-02,8.730982944818701987e-04,-2.667863462765777127e-01,-3.643341497963374365e-01,5.190584042712038659e-01,2.301086280276420926e-01,-2.196079306834689548e-01,3.736299992713321139e-01,4.821911520346925939e-01,1.460132611895554045e-01,-4.618645441849176247e-01,3.919596250459611575e-01,2.312924181255032741e-02,3.250492240378111686e-01,2.968067338192212912e-01,-2.722935271252021616e-01,4.200204341226621563e-01,5.644538830755457814e-01,-9.925093112638626314e-02,-2.341068239590312072e-01,1.791417559008587346e-01,-4.895713818620150981e-01,1.027856997000923672e-01,-1.147323852989502235e+00,-1.066349470095515339e-01,-2.857117768694111826e-01,-5.929519405969885942e-02
2.870611877380712662e-01,3.910218252794901983e-01,-1.963780045699201615e-01,-1.316979304882738511e+00,7.583095309498452674e-02,-2.998436919389191324e-01,4.407641138490138721e-01,1.364750644927915091e-01,5.514341400011241179e-01,4.036590484335630391e-01,2.568842524040401351e-02,-1.744939362745986933e-01,-1.464838013287533547e-01,-5.024884393568983532e-01,-8.641475608927330632e-02,-1.994259705026808216e-01,5.487144603591241898e-01,1.551633133506175599e-01,2.709715844223591352e-01,-6.482573883912312596e-01,-1.510850429983190690e-01,6.530555553786046019e-01,-1.629115543838272617e-01,-3.036877377729422720e-02,4.918682459827723452e-01,1.549328868559600447e-01,6.028097349390595244e-02,6.738711771276155726e-01,-1.410323877271264237e-01,-3.521998045457944149e-01,2.370552733700141135e-01,-1.273659574657156068e-01,-4.320282778308799920e-01,-2.001645661983526836e-01,6.845269849366929504e-01,-3.238611084315116684e-01,-3.812180009129543384e-02,-4.988808840688008228e-01,-2.482395242098044130e-01,5.775758496863057090e-01,2.728174052553328788e-01,3.651270765598834678e-01,4.299191609211141379e-02,3.479973437634089617e-01,3.818423213924169723e-01,-4.665279705312426750e-01,-8.987772186358104765e-02,-3.959459976671749204e-01,5.659275757269489893e-02,1.019993330497455941e-01,1.095096628118293891e+00,9.582847617458117861e-01,1.173709673826461714e-01,-1.402608876159293361e-01,-5.726165536029438341e-01,-8.222222876248834744e-01,-5.660251747663218591e-01,6.199975342868468964e-01,6.738675805711189515e-01,4.305137846391459133e-01,5.170587167495254155e-01,7.933392952918726371e-01,-2.274190287463144777e-01,-5.724274793710834031e-01,-1.826560051980678501e-01,-3.386789358895819224e-01,1.985876230777801899e-01,8.480792396486364071e-01,4.621002206759754483e-01,-2.497655686468261763e-02,-2.565636954920521018e-01,-1.057678528097294679e+00,-2.798204639495865953e-01,7.288318460467499982e-01,-7.023530973668015154e-01,5.617033603285160881e-01,2.718537157257273629e-01,-1.558662849987218213e-01,4.744192278215005887e-01,-4.992267903892751435e-01,2.856890999193022473e-01,-1.665490918392657227e-01,-3.382022058136576192e-01,-1.009734060057970451e-01,-2.421167354662698001e-01,3.976059279773932476e-01,9.118557239695201933e-01,-8.556119322924327086e-02,-6.387896168785897055e-01,-7.598386242081944797e-01,-6.027999147010928982e-02,-2.819405171227203355e-01,-6.846561732044237347e-01,-1.885641544792421298e-01,7.552162357510524560e-01,-2.050131023903835337e-01,8.230530938981787115e-01,3.485729517058334115e-01,-2.411094213033400935e-01,2.259900964510244692e-01,2.159787598747593129e-01,8.862345475146011717e-03,2.842114368031769395e-02,-2.485317530020602350e-01,6.861121361327505719e-01,4.141854710181827048e-01,1.920350721452799281e-01,-3.302113382962230670e-01,2.555324734365377673e-02
2.194866105821996205e-01,1.238360805704790263e-01,-6.925335654487337900e-01,1.176324299408230273e-02,1.091968453221133645e-01,3.813651018874354981e-01,-5.165839047462867928e-01,-3.768844411133405736e-01,-1.312997904031426299e-01,5.363188215015199933e-01,-1.654477536637340429e-01,-8.750787797506889287e-01,-1.197115356723725266e-01,2.162964145246140391e-01,3.096722578218448207e-01,-6.838141377588244363e-02,-4.655879357674203578e-01,1.386410789360569273e-01,-8.988165691193611417e-01,-4.299584824705771774e-02,-3.494157924206114929e-01,-2.976476879933993153e-02,2.716789254951405483e-02,4.039745687076718439e-01,-1.791499992625192328e-01,2.862973739938635270e-02,-1.740248477149460293e-01,-8.932089685756229580e-02,-1.566872005593266531e-02,-5.228996986636063049e-01,5.391270046194188703e-01,-1.453868086395506409e-01,2.790492746593202233e-01,-3.108818411262860917e-02,-2.490177243739227220e-01,-5.263311149053347959e-01,2.100689816762834061e-01,-9.642134294449062892e-01,-8.228660057124039806e-01,3.089375247662767832e-01,-4.021648804086735418e-01,4.872295893072807749e-01,2.237086328280680769e-01,-3.570277450448831186e-02,7.356098820682435147e-01,-1.480499950489388983e-01,-2.142040905810967955e-01,-5.008562368787442542e-01,-7.147894732765115444e-01,-6.773682946522154025e-02,-3.179973177414270880e-01,8.343919864715964030e-01,-4.769053080576434733e-01,6.607107285484872250e-01,-6.803100545729627857e-01,-7.743264072899326556e-02,-4.174024989735021507e-02,-2.252059630071682750e-01,-3.743100990683450036e-01,-5.114097092021565594e-01,-2.008737473616683741e-02,6.420506929424595333e-01,1.025561696514128707e-01,-5.183559532930556157e-01,1.079447383668086062e-02,1.897724481535991992e-01,4.016185501803509195e-01,3.784893726315348705e-01,1.995816695735698199e-01,5.166696912662814556e-02,-6.470737196046877360e-01,-3.077783391500071158e-02,-5.028759301642717894e-01,3.785490123167685739e-01,5.434031165978918665e-01,4.256216504381363785e-01,1.344934161015533952e-02,4.936881964423039393e-01,3.340450958532352188e-01,-1.026849357968203508e-01,-1.914875785230877869e-01,-6.926374696400001973e-02,-3.310028554716785282e-02,2.205869304563077005e-01,-2.199610413041387380e-01,-1.463983819047409152e-01,7.044413148680795933e-01,-3.629514645429876007e-01,-1.973240022655720349e-01,1.636773483249812089e-02,1.806317519002483274e-01,-4.240914100397105008e-02,3.532011942719111564e-01,-1.686735922823005829e-01,3.896753104847702209e-01,-3.780311916191904098e-01,2.468208955185102471e-01,-2.168165525536351890e-01,1.115592991788190158e-01,1.224475475243106820e-01,-2.291427879935332423e-01,2.780445504243961863e-01,3.340907735554395908e-01,-1.046736050854502331e-01,5.050194331266267822e-01,-3.881148589942391008e-02,-9.777439378622754251e-02,-3.351987957276238994e-01,3.616713438249175017e-01
-2.782404960852042503e-02,1.155120909936598328e-01,5.566949545622342788e-01,4.118132224350320482e-03,7.474764716626260963e-01,1.836244465527984149e-01,-2.523296658016060956e-01,-7.128052247590874746e-01,-2.544388968829830455e-01,-9.497700738337847004e-02,-1.465855204656729971e-01,-2.188719837935615420e-01,-2.017531138432380466e-01,4.106022183652788260e-01,5.814839613486657566e-01,1.765553914718861195e-01,-2.796839082623987505e-01,-6.754087106416757358e-01,-5.298495758184459392e-01,-3.274880476188076761e-01,-5.105877832425258500e-01,2.323057943944736581e-01,4.102546942808841801e-01,3.490179135884436540e-02,2.612892947948548539e-01,1.327367570932793395e-01,-2.883599826805620103e-01,-6.496516486814945049e-03,-4.378758751586197540e-01,5.737523520873571981e-01,-1.070969296687644401e-01,1.806426391392537967e-01,-2.367458469378479757e-01,-6.323052684910870913e-02,4.334356831986702074e-01,3.772874306724089966e-01,1.384621243832437065e-01,-5.897498726972408983e-02,-4.819559649397903711e-01,-1.691175269120335223e-01,-6.683900091646551855e-01,-2.724019912763716023e-01,9.727536396280465902e-02,-1.691108655931413685e-01,-6.123125238272261739e-02,2.197670991549248165e-01,-6.075112514503697714e-01,9.573203425742958517e-02,-8.133181635282810129e-02,-1.198475011560849873e-01,8.958921481300878564e-02,1.165987332272796530e-02,-4.583892146550664348e-01,-4.389162852997816056e-01,1.473642678607054168e-01,3.253809091715124252e-02,-3.981843875520449383e-01,1.672122292024372514e-01,-1.513015486490793260e-01,-2.148756293658119487e-01,2.802545689032109877e-01,3.851133212947956217e-03,1.662205268966956417e-01,-3.823216212057042873e-01,5.347546261997618844e-01,6.088771038354348075e-01,3.700157744676205174e-01,4.515260658768182472e-02,4.142275298291958063e-01,5.803838852955351957e-01,1.022367968307196645e-01,-2.725602941566246384e-01,-3.613874233764601263e-01,-3.692696704079684311e-01,6.872135954430346194e-01,-4.507797014158732574e-01,5.290903957619427223e-01,2.744558959239406515e-01,2.506993855049114307e-03,-5.323092511736389199e-01,6.306785526149180088e-01,-7.523172782404574654e-01,4.265481980027866493e-01,-6.493012859410077220e-02,2.604162278388699736e-01,-1.986472514082351648e-01,-2.895215716014402640e-01,-1.942333499161570387e-01,-5.027008429224744113e-01,-7.793056400927245164e-01,1.226797858104591464e-03,3.337078448063856562e-01,-3.984257711815771680e-02,-2.248432184159632891e-02,-2.267201137214117646e-01,-1.538607192772456222e-01,-3.556363967559328376e-01,1.855247533628655576e-01,-1.843932401074039884e-01,6.518784392500802660e-01,8.600006318110131609e-01,6.932530658322473283e-01,-4.116483765952262397e-01,3.835437806328065857e-01,4.323508977975839551e-01,-2.366603303705531319e-02,1.365752675519128212e-01,2.844312893802231068e-01,-6.909176031865023326e-02
-8.984397882646029398e-02,1.613675064235565726e-01,6.021814230304471938e-01,7.130273135201722345e-01,-6.964314300715926942e-01,-6.120840981864672514e-01,4.134691891669334818e-01,-6.726465117865249033e-02,-5.328426411602497914e-02,-8.520744324602435027e-01,-3.343674878601546330e-01,6.884982763554481355e-01,-1.957220368547763212e-01,-3.420022003241539599e-01,-4.567048863084250954e-01,-2.608904746226876070e-01,-7.486996597850317792e-02,2.644204239254949740e-01,-3.520469925258963850e-01,1.840249473204075281e-01,-1.340216839162786111e-01,-4.661415234201765623e-01,-3.126042286659463931e-01,-3.313737637504846067e-01,2.258271529407395242e-02,3.575861508496367414e-01,1.424119422380216438e-01,3.516446089421496057e-01,-6.733725259744054448e-01,-4.082245329880601070e-01,-3.436422711093976567e-01,-2.694341601586460744e-01,-4.876827269203745652e-01,-5.267016930657443252e-01,5.924280124371427564e-02,3.786197869483385325e-01,7.818147366359089467e-01,5.468975937620173394e-02,2.254040085396464277e-01,7.873221401865944380e-02,-3.886320952068648138e-01,-6.602878829915856951e-01,9.134121479502298191e-02,9.621842057507586921e-01,3.367262141972752754e-01,9.357590867593091888e-01,1.011747693655916880e+00,-2.353167373235972581e-01,-3.976570439282839931e-01,-4.770335754561682018e-01,-8.668087657345383557e-01,-5.338888495368464548e-01,-1.008164638801877927e-01,-6.003869550696366852e-01,-3.516423210738859328e-01,-2.433464756310753097e-01,2.488599414988499348e-01,-3.944077960615794964e-01,-3.651589605938231758e-02,3.401446388307888258e-01,-8.346586294504907411e-01,-4.390257240528031568e-01,-3.625955888098407742e-01,-2.336092526964341498e-01,7.335610849298369596e-01,-2.521570197614106945e-01,6.968995728360025677e-01,-3.176592060308369714e-01,4.793783880458231672e-01,6.547383776099516828e-01,-2.423570405612604228e-01,1.670410812081216112e-02,-1.591973582758306194e-02,5.593428698283579026e-01,5.664072610385857409e-01,-2.751314892442744964e-01,-1.583059360584902209e-01,-1.875598793324300684e-01,3.609133163394016020e-01,-1.080971113671991973e-01,3.019698634972678986e-01,-2.885925559748583891e-01,5.971483303555229910e-02,1.207711831015301912e-01,6.088254532729016066e-01,-8.519569036130308221e-03,-6.683378046690453544e-01,1.502901710350594555e-01,-3.900386320635726989e-01,4.376553938959892864e-02,1.845397116088965672e-01,9.161301000197176192e-01,3.639266690944256699e-01,-5.318252532737499649e-01,-2.863981275420867112e-01,5.600591559942776770e-02,-2.094373908484722657e-01,5.496767189633564588e-01,-8.326924134437023450e-02,-3.797675376404908154e-01,-5.195091442570790030e-02,3.602559703638398281e-01,2.378601405602227825e-01,-3.342999871810206081e-01,9.051229203382758770e-02,3.262196906771289706e-01,-4.105870279849566651e-01,1.033888871189074105e-01,-1.411201175255998586e-01
-6.995180618451821708e-01,-3.861237168245026385e-01,-1.297234887715598695e-01,-8.147514187992580537e-01,-3.855214377120527169e-01,1.423142986382288366e-01,2.596641827883944958e-02,-5.306060442932745980e-02,-9.313107481891245987e-02,-2.076598206245537370e-01,-1.815794702208783362e-01,-2.549969034719430927e-01,-6.822200723770871500e-02,5.783513315982559411e-02,-1.997180571923891923e-01,-2.107811216054396586e-01,6.107191808694806268e-01,-1.100925021344374560e-01,2.230678828898218224e-01,-3.173707433336296346e-01,4.164601849483988427e-02,-1.823837574799248573e-01,1.111560934160844422e-01,-4.908729297047827456e-01,3.838718538677688419e-01,3.090292898536716945e-02,-1.533962257516518768e-01,-1.372770090551318767e-01,-7.385863405816432969e-01,2.359671069397497878e-01,1.780835654015415492e-01,-1.689591855830687162e-01,1.992411610464779326e-01,-5.608644017684848437e-01,6.037241161799739020e-01,4.990942809189605200e-01,-2.228437199064952912e-01,2.297840937935536065e-01,-4.287032346410691863e-01,-4.877860556998734887e-01,1.794745285444106775e-01,-5.413263730923431050e-01,9.813087663386910187e-02,3.835424746314187172e-01,4.697809022202922152e-02,7.552370067359148731e-01,-3.967064748906194427e-01,3.455385506286592998e-03,-2.806543149047737162e-01,-1.645339579069833302e-01,1.087813922280179979e-01,6.319070292775125219e-01,-5.405579184147364380e-01,5.230841382046094168e-01,2.579422671997070871e-01,-6.429504582945651248e-02,-5.647390416185839035e-01,-3.040616139174863175e-01,-5.833193688428238433e-02,-2.354307081335230700e-01,6.306863709023846631e-02,-6.977266934279958699e-01,-1.371068968875425176e-01,6.274881109359817799e-01,-5.733993853023008347e-01,5.850729789286995830e-01,6.542770710871982365e-01,3.992251456181389879e-01,5.634568061275201795e-02,1.931605608177172917e-01,-3.606214201180800438e-02,-2.473406393594558550e-01,1.492260800039115626e-02,4.681310537661365068e-01,4.424508661503439577e-01,-2.596335580105173513e-01,1.571612864125133124e-01,-5.558674838185839739e-01,6.477877112630980871e-01,-5.023772284198975424e-02,5.102937283820727643e-01,1.587397513905850210e-01,5.980992482099453111e-01,1.637898586074391094e-01,-3.571453251248744576e-01,-8.882220097690957106e-02,6.363204179716650533e-01,-3.353170423920578402e-01,-1.826672411490274511e-02,5.414394941137977701e-01,7.864132072038010346e-01,3.806653173028026749e-01,-2.418262804018879789e-02,-2.383763776772812593e-01,-2.302203867626824614e-03,6.975040019407519054e-01,-1.356402170015941766e-01,3.907774171390910323e-01,6.688520959312269643e-01,-4.648077177156718920e-02,-3.701645380361027193e-01,3.552444599649491608e-02,-9.871903586335415426e-01,3.386489489795160845e-02,4.126441542965144649e-01,2.782719206243450816e-01,-5.536368642232664117e-01,3.086719694336020892e-01,-4.534516670762827051e-01
-2.515708661269457913e-01,-1.296495522126167865e-01,2.211415094916562019e-01,3.631063399630668487e-01,3.605826326130313619e-01,5.963119055276450836e-02,-2.426057756715187808e-01,2.059145007217287604e-01,3.930276703686623740e-01,6.212933407096857263e-02,-3.556235387333687159e-01,2.022214458021366901e-01,8.817653589565476180e-01,8.922510642078008980e-02,5.643805374365042093e-02,2.525250879048597866e-02,-6.644411900532848358e-02,-6.535353038327154640e-02,3.818387215151651526e-02,4.474541368605214342e-01,5.408480509630345656e-01,4.925120134895878410e-01,-2.470215809339405821e-01,8.787392510111406985e-01,-8.400317774565183027e-02,-1.516343435082529723e-01,3.408026830666035512e-01,-6.194611302678223463e-01,-1.743556895540364637e-01,-2.898533094382220732e-01,5.406377919897770168e-01,6.864158578013243028e-01,2.209965001308986446e-02,5.874044928697035317e-01,6.791208949314844201e-01,4.137325645423467479e-01,4.236342064362235149e-01,-3.122893213275747606e-02,-6.593454125073980321e-02,2.874939517378739540e-01,7.457171283417936003e-01,3.631553543352981639e-01,3.488555737436431214e-01,3.007158348524686664e-01,3.455206235735893694e-01,3.722750460004163320e-01,-2.221067851466038412e-01,1.509899806544962864e-01,-2.812420058269262876e-02,-1.442108968331348717e-01,2.215683506869735586e-01,3.860771405497746001e-01,9.029612618363029586e-02,-1.558104485054415678e-01,6.616526521160814855e-01,1.671199389107159983e-01,-1.996787074988660149e-01,2.117067175665208328e-02,-1.492917505921366461e-01,4.966747223952041601e-01,-2.481386936449999359e-01,3.817505496857975245e-01,-2.182916731577444203e-01,3.731891086089174636e-01,-7.672870663419530946e-01,-4.783385417779945081e-01,1.840509922963316780e-01,5.143161504123052730e-01,-7.622029857079030968e-02,4.076593204253946001e-01,4.387717983862486348e-01,6.944964484789889481e-01,1.644585418334908178e-01,3.281870356792975230e-01,-4.832667788605605752e-01,5.353545808746938972e-01,-1.933266713905868184e-01,3.299665656744115161e-01,2.911588642787811265e-01,-3.231472251471027568e-01,5.174555130707911843e-01,-2.567208196553801836e-01,2.184279801016972000e-01,7.248856475743390426e-01,6.241010146522200930e-02,-2.124409202944967934e-01,4.563575188788843162e-01,1.190048710237961854e-01,2.714765418251204321e-01,7.273629532447317692e-01,2.810807456738623755e-01,-1.155980764782905679e-01,4.063566419791359574e-01,-4.710842839829661871e-02,-6.275259517161511924e-02,9.257325379028453760e-01,-3.274366139073644488e-01,2.353892896735257645e-01,-3.590428466549964170e-01,-2.826293231004958217e-01,3.510749952632590265e-01,-5.145887995181913643e-01,-4.457427959142908347e-01,1.475882118369985507e-01,-2.326477804974910191e-01,-6.164430874164263802e-02,1.005049672329747373e-01,-2.319155244312689768e-01,1.377815788354193605e-01
-1.139747420353241433e-02,-7.932315570488804868e-01,-5.561051726740043888e-01,-4.184235286558664613e-01,7.438105746060834633e-01,1.822781552537267313e-01,-5.484671704719176061e-02,3.946914556669729457e-01,3.057306846925415544e-01,3.818442040106397317e-01,-4.930132540390221862e-01,2.549734047401248649e-01,-1.193622422660298166e-01,2.163390607433852142e-01,5.754533486042832102e-01,-2.135776671037734609e-01,6.427909598368439781e-01,8.009826706036062005e-02,2.429784899536376053e-01,1.035353514427787003e-01,-3.704666081661190935e-01,-6.912986067967713359e-03,2.131755264632668179e-01,-3.477470107911029840e-01,-3.072252079425745186e-01,6.225345313012452531e-01,-1.280292278405288364e-01,5.674334123390580714e-02,-1.413736015801869139e-01,1.968328127549588691e-01,-8.185866187197644861e-02,-1.160779875584130316e-01,2.245667947240916063e-01,4.927305390335384172e-01,2.637505131736007646e-01,-5.516000843433395140e-01,2.726424176614723471e-01,5.113517808636828255e-01,4.759563495118042664e-01,-1.614563492061430461e-01,5.902636994240972879e-01,7.570594102815944026e-01,3.329790997903419592e-01,-4.694953012608596987e-01,1.591449513441806074e-01,1.973851310316537822e-01,-7.724808940873584273e-02,-1.200481155343813278e-01,-1.011611075839747853e-01,1.015524890466564939e-01,1.015099908033445936e-01,-2.332972572028662595e-01,-1.871968474444634933e-01,-3.239180111485458480e-01,3.886831646826726105e-01,5.090166962848247101e-02,-3.417197908155219510e-01,-7.192260488044702749e-01,-3.435376045178624715e-01,3.803606930520269658e-01,-3.699925751661574669e-01,-1.846934796535859846e-01,-1.863674366313645137e-01,-3.520585641688410150e-01,-6.937380655227264326e-01,-7.793653354194205463e-01,1.903512529718684176e-01,-3.214018716406695786e-01,2.573085216142400600e-01,2.809160362275968104e-01,3.349311401496782303e-01,2.150476909565239847e-01,2.363408477057415691e-01,-3.084809062643904531e-01,2.806955133649971859e-02,2.197482741380098747e-01,-2.920549447710427127e-01,5.085828859007075486e-01,2.733882906984455921e-02,-3.801359115337543670e-01,2.086700725207670803e-01,4.565252675042857922e-01,-2.203445753933989115e-01,-1.130598181085321341e-01,-5.815037686472527279e-01,1.874568031553704439e-01,-4.167130246450687081e-01,1.207832323197244317e-01,2.248239708380159463e-01,-1.692919366006317983e-01,7.435617516207213562e-01,-4.536643620178942293e-01,-6.735736988192994046e-01,-1.042858906751305409e-01,2.134694281196081456e-01,-3.758020788907345811e-01,-5.637200022919190978e-01,-3.248789443760952134e-02,6.909640631572758207e-02,3.040290421836754908e-01,-1.764697020514820747e-01,-7.459531454681209706e-01,1.758605078159302948e-01,2.510233349675762282e-01,-2.204165679024543967e-01,1.814940820968139745e-01,-2.741519494480100794e-01,-3.714513998091923397e-01,-2.357759124505403869e-01
2.032071820330242154e-02,-2.313239879530028520e-01,-7.660171048406141936e-02,1.204133084839952711e-01,3.384448810062184454e-01,2.393550965111995166e-01,4.886612063663162697e-01,1.928523304284519568e-01,2.051476156907386106e-01,-1.553510382026547232e-01,-3.203755922163704084e-01,6.388602750378994388e-01,1.921174428588693639e-01,-1.465170985676798321e-01,4.212812732756902045e-01,5.672711090705426784e-01,4.526441779715698055e-01,-1.481828365300643657e-01,-2.108052682048811577e-01,2.006869042473974629e-01,-3.341303808918420076e-02,-5.095890079614900925e-01,-1.259145429724455589e-01,-6.272716837149603375e-01,-5.899075168856959817e-03,-1.617931964417497204e-01,-2.492308747329336285e-02,-5.792028725268176803e-01,1.967479642852114907e-01,-1.960143376244218583e-01,-3.161504706002983278e-01,1.128286720149539873e-01,-1.161986442285214416e-01,1.025018439159833400e-01,-1.952606002392043988e-02,-2.793105308194006042e-01,-2.327225754893765264e-01,-2.201510349161641955e-01,3.001425229233282144e-01,1.330948632551721134e-01,2.446194083890670112e-01,-7.596360124768659905e-02,1.095650603782644117e-02,-3.082462213468712409e-01,-4.681977128859687864e-01,-4.215191708609787313e-01,-4.533530222252622061e-02,-3.234737467430193192e-02,-1.765281734341403175e-01,3.815710467413347406e-01,-5.946673970858422642e-01,-4.582071408190905443e-02,4.338452224666847212e-02,-8.659196849580105271e-01,1.186834965907078293e-01,2.948778924847653485e-02,-3.504416552515677852e-01,-5.328524463914314779e-01,8.478029022627640854e-02,-2.745764109218453708e-01,1.268470306036095507e-01,-8.891515888124223999e-01,1.541338254905762033e-02,2.310161000023404354e-01,6.952803826946682419e-02,2.786004558711128731e-01,-4.236829687546651568e-01,-5.831142940398053032e-01,-4.358310073866739076e-01,-4.721657264052951941e-01,9.986378797838367516e-02,-5.564489395726400778e-01,-2.687125675458457708e-01,6.263094344535140579e-01,7.406963810292788164e-01,-3.144206371412605616e-01,-1.175484190612452046e-01,4.134683892810429584e-01,1.314386991151561268e-01,-2.773624445290243656e-01,-4.658593166099386784e-01,-9.432917720681817386e-02,1.111356364062829755e-01,7.346265057850701052e-02,-4.045705188763669691e-01,1.726304385991292989e-01,2.207531257905098188e-01,-5.443525128741740771e-01,1.134296644305899382e-01,-3.458298977411553010e-01,3.217374335944292452e-01,1.137402247735639776e-01,5.327585787748402302e-01,-2.115160448250521796e-01,-1.530706840889737019e-01,3.364242882081895369e-01,-7.061717415775469187e-01,-1.190635805025286598e-01,3.694891888845075467e-02,-3.183051135950235588e-01,4.413694004254329339e-01,2.714376273525856420e-01,-4.818602664149708170e-01,-8.971564807070533942e-02,6.141914238900184619e-01,-1.872416108879125241e-01,-1.908432538427543290e-01,2.966020359075687285e-01,4.469481195088322867e-01
-1.980229734227371974e-01,4.419899450973033272e-01,1.086919182604224821e+00,5.151975726675142031e-01,-4.111856038086631471e-01,2.299800360307937552e-01,1.668794051924626654e-01,7.082217785112910891e-01,6.643688779193486493e-02,2.796649057310551800e-01,8.647710474898909205e-02,6.587945821213025965e-01,3.634251364613169666e-02,-2.535149998376224345e-01,3.451529776318231213e-01,4.347019917606397277e-01,9.490767140500576404e-02,4.778554347844729544e-01,-1.493010350487301158e-02,2.025998962261250647e-01,-1.535966594265802086e-02,2.311324692951086460e-02,-4.725063987982865976e-01,-1.300445923300180551e-01,2.400130055332939660e-01,4.428560538690505255e-01,2.410959001531222945e-01,-3.724405296305168811e-01,5.079756201599607002e-02,4.909861688971542959e-01,-4.340965702687101246e-01,2.576993675173016030e-01,7.475225297082159770e-01,7.164977877581556465e-01,1.894436882850695503e-01,-3.267728253311701914e-01,-2.638399477118372194e-01,2.209115075450129029e-01,-4.214667329020148623e-01,-2.221171108854030907e-01,9.575751780348697173e-02,-2.913132062612522333e-01,-1.592567537507130759e-01,-1.368397626982393589e-01,-1.738734972054452599e-01,-3.297988129502521515e-01,-3.138798801545827910e-01,-3.627048020390312155e-01,-1.407678283263928409e-01,-8.264594056176824410e-02,2.253411221052252777e-01,-1.994921975673352166e-01,1.469265207892692937e-01,-1.342430085470220670e-02,-7.337274454211984986e-01,6.115277685227073906e-02,-2.437007020551188452e-01,2.851542894169712405e-01,-3.856811310201116449e-01,7.626055194541512261e-01,-4.420398642682191737e-01,3.430876480198499084e-02,2.492743762086944703e-01,-4.119716327549587387e-01,-3.285229719256789749e-01,-5.933027011179902582e-02,2.317276221991572405e-01,4.589276103169847021e-01,-2.087698511652488487e-01,4.187383560216539902e-01,-1.555008993682686358e-01,4.775531469934545248e-01,-1.875070581953380278e-01,4.038045494933369395e-01,4.017390381243557962e-01,2.354841357955601011e-01,4.892306078891450749e-01,3.756462144309799522e-02,3.856640897311323091e-01,4.141979097807130805e-01,7.145467920068868661e-01,4.103623191290045602e-01,3.387665126953295358e-01,-2.196771872230668110e-01,1.323333057798238843e-01,-2.034560028558194400e-01,1.891001404583638190e-01,-2.810497773776168828e-01,7.369444061088765707e-01,5.525181410501931456e-01,-5.211830036600899607e-01,3.797852259570175248e-03,1.850825412061402608e-01,-6.500661638552569788e-02,-9.886803814153212466e-02,8.092788174632034592e-03,-3.410635729991085552e-01,4.450846973290719655e-01,4.370853577561285008e-01,-3.229988250908615854e-01,-2.681972476347112555e-01,4.104915800957816274e-01,4.809651024858165036e-02,-4.700067540083051054e-01,7.839425215644556244e-02,9.154831038197479565e-01,4.332755404884034434e-01,4.308568721460642736e-01,5.081923393276187584e-01
-2.337052718737236967e-01,-3.221144912914388758e-01,1.950096381208676344e-01,6.290061214627425124e-02,3.843924538618603282e-01,-2.374223367864325140e-01,-7.644645917089858411e-01,2.175754329082636995e-01,-2.446854747458169221e-01,-4.667548687888837812e-05,-1.415746537097403723e-01,2.775473864791074829e-01,4.659647737285346064e-02,-2.701692035594893682e-01,1.137688293430230424e-01,-3.698256090610217428e-01,1.033486746471816015e-01,2.114460893117397766e-01,-6.817017413034646145e-01,1.826897648071765801e-01,-2.065762923667687628e-02,1.529795163919923373e-01,2.157686977920720839e-01,-2.684217458253534416e-01,-2.299287152347232188e-01,2.393969169273744632e-02,-1.533611746202431236e-01,4.546852548681257211e-01,-4.643498476938314745e-01,-3.467848897842401024e-01,-4.498664387506840640e-02,1.536142146382403206e-01,-1.816344998649595255e-01,1.813513750579667794e-01,6.804392808569206252e-01,1.535558975500094514e-01,-6.758930385072593472e-01,-5.137073273694718889e-01,-1.913207169545620978e-01,9.007608978149328482e-02,-3.443692649235902126e-01,5.882286929337580128e-01,-1.198905885189958075e-02,-1.021987998037192091e-01,-3.305120974224201036e-01,-3.273523135410203455e-01,2.238156535983796824e-01,1.144028467345536244e-03,-4.482322959968084719e-01,-4.325361973311559610e-02,8.483916054240911997e-01,-2.938217110791213615e-01,-6.552524629361999864e-02,-1.472365075609468055e-01,2.245924451124500232e-01,-5.202056595554517271e-01,-2.999949885920055181e-01,-3.668866111508180539e-01,4.892832372220273091e-02,1.708392049657562473e-01,-1.159459165898854421e-01,1.839981149458214948e-01,-2.667144646277309628e-01,-1.007261474311119537e-01,-2.528851942662123098e-01,-1.316815298005697965e-01,5.638018079052956599e-01,3.986707249707919787e-01,-1.452772600545467196e-01,-4.011555418143207818e-01,8.778053385431995592e-02,4.184394349143600450e-02,-7.258567156237385500e-03,4.587963420341418241e-01,-3.206526189725538573e-02,-5.757368900978163812e-02,-1.715822245953052827e-01,3.490200702481610073e-01,5.544990390087279897e-01,-3.515033261226729183e-02,3.504114199311068045e-01,-4.611172197772181458e-01,-1.784941862532848089e-01,2.053151377194776250e-01,-2.274191283452107193e-01,-4.829635773378102709e-02,2.600839815467643756e-01,1.636059199312500934e-01,5.441925749749854102e-01,1.806301339877933176e-01,4.757747837046958916e-01,-3.561683527169808849e-01,3.501713219736189431e-01,-3.706079864299882676e-02,-2.840739703395976923e-01,3.651705848081877592e-01,-2.299925626988887084e-02,2.299182228072966239e-01,-2.129632392324258550e-01,3.521015226093027195e-01,2.449993685951742939e-01,3.609708542540528975e-01,-2.671392572863746651e-01,-4.311981060367604118e-02,-4.537507438546551919e-01,5.813339921580340519e-02,-9.157150304332827007e-02,2.586949486747060489e-01,-2.410448644384973749e-01
4.762091124801763886e-01,2.781500566124514573e-01,1.766760512123853322e-01,-2.863088616827342073e-02,-8.099436886937141367e-01,-8.408318997616437418e-02,-1.912546255356139813e-01,1.381118318467378370e-01,4.811535446898429491e-01,-6.511390412272927142e-02,3.238929285852411022e-01,-2.724611196607320540e-01,1.080998205521360583e-01,-6.016860028806232386e-01,-4.080995647273633620e-01,-5.858846999559844670e-01,4.855457585026390910e-01,1.010274240942985902e+00,-7.249742624378452405e-02,3.764618298899166660e-01,1.532017117893994251e-01,3.033332640501078536e-01,-4.244371212163372542e-01,-1.700312597080489707e-01,-4.212264840866306731e-02,-4.491836044737137490e-01,-6.827482423133521272e-02,-4.709142063111209087e-01,2.256001353477991578e-01,2.136201894392175671e-02,7.358310617950748755e-02,-1.906065966045133730e-01,-1.758282761491544634e-03,2.191998292468555487e-01,5.925313181984425553e-02,-3.359165485965008857e-01,4.029753556263735992e-01,2.036404199216303168e-01,-5.001942170512433394e-01,3.400862419228224409e-01,-7.707369313861302251e-02,3.111052483504151561e-02,2.152251156027905066e-01,-1.876972556109111623e-01,-5.165263274398770865e-02,2.599101533899639271e-01,5.408586622890936280e-01,4.738664759830522877e-02,-3.403768295136127553e-01,5.151386641648895287e-02,-4.530975758235885054e-01,3.624867447050420521e-01,-3.241103034346364820e-01,5.675957459829682472e-01,6.509924322290198129e-01,-4.741056264612722448e-02,-3.426447463875412214e-01,-2.392248438807686728e-01,-1.535898652629328898e-01,1.323127198429186260e-02,-7.419994163838452561e-01,-1.109548134072873976e-01,5.407798135107123871e-02,4.517498189207028864e-02,6.124455112389362021e-01,-1.293013903920867125e-01,5.386638408079327256e-01,-5.516415589457093066e-02,4.464706372149118141e-01,-4.795224294617581040e-01,3.482747864347781053e-01,-3.412703750060294694e-02,-1.922972967004031586e-01,3.377360278343027877e-01,-1.767710908940828968e-02,-1.154719061485960097e-01,-1.654019769612176949e-01,-1.370111186612954224e-01,3.581355212954295264e-01,-2.116495256415763526e-01,-5.653663046812649196e-01,2.031465103779749037e-01,-3.606501910735047944e-02,-2.948154448946815331e-01,6.384597178993915711e-02,4.001295677110835308e-02,3.642426797129645899e-01,-2.895130455258204116e-01,-1.191449631214481705e-02,1.864319254100422346e-02,4.956732522694760612e-01,-4.501591882738126826e-01,2.135892921547774270e-01,-7.233325343093677251e-02,1.578544120073895884e-01,5.004480953684931066e-01,-4.716706766155784880e-01,-5.160208094545675195e-01,-5.661854322329866740e-01,-4.430285348241873034e-01,2.135523076307769413e-03,-7.525330478449826499e-01,3.215102563591552554e-01,-1.166399127587044657e-02,-4.691118507170440877e-01,2.003791461649414851e-01,-5.567088578837819934e-01,-2.693813329746515550e-01,-3.334083270989486592e-02
3.452532373413584321e-01,-3.347587283459662610e-01,1.481226097292900057e-01,-3.628679547865074073e-02,-2.994399827732622255e-01,-1.306196312150445515e-01,-8.058032054351252915e-01,-5.400464809968146263e-01,6.436120365643039909e-01,7.795370081206039192e-02,-5.293024400863738377e-01,-1.999484458154019428e-01,-5.580464064607777025e-02,1.859654348618059172e-01,-7.283193569953759494e-02,2.743392508859854861e-01,-3.047226560060363118e-02,6.721811158865278468e-01,-4.977249117826507696e-01,-5.086476863020367861e-02,-5.370790030263201675e-01,2.267619570023571840e-01,8.388295427855190223e-01,-1.786219198115333306e-01,-3.715650129798954149e-01,9.021979366013653523e-02,-6.156371246751554116e-01,-4.448382171691989684e-01,1.524212925359356707e-01,4.635083785769700815e-01,1.144051115552317116e-01,2.725872366617166365e-01,3.188923958107863776e-01,1.475777524828101872e-01,5.687282696474763588e-01,-3.053450855770122874e-01,3.835933817633980780e-01,-6.391464778181632500e-01,-3.105348270863075300e-01,6.149035418771016115e-01,8.525280082624109301e-01,-6.467246653970420978e-02,-5.894205877769930629e-02,-5.737174638660136328e-01,2.349275439566107793e-02,-1.466973255635659612e-01,1.534085364665069007e-01,-4.939850234198912560e-01,-4.530737287025398130e-01,7.186315795134909923e-01,-3.892175328641852422e-02,1.873713185091742117e-01,3.306340964172548302e-01,3.479295935227995629e-01,4.739205113010751536e-01,-8.207207871517524511e-02,4.701378769266665453e-02,4.968402618495947887e-01,-4.469455177724129258e-01,3.020416363449167640e-01,7.300069096034118576e-01,-4.869372295084670177e-01,2.785968027202920805e-01,1.666960583756250114e-01,-2.084690575029845838e-01,-5.620803334039934374e-01,-6.648820592313283220e-03,2.738469072052654094e-03,2.539334956235422269e-01,5.428488802637390087e-01,-3.731942523790891530e-01,-2.048533074148224109e-01,2.112046698055675964e-01,-1.220167808186719272e-01,2.385690677978367091e-01,-3.796691650791750305e-01,7.330075051184770096e-01,-9.421342825555287237e-02,-2.418368617905481410e-01,-1.947406680233945697e-01,-3.858629792920412194e-01,-5.483799962044275667e-01,-2.228409879607161914e-01,-6.752846603452101748e-01,-3.343571680245105426e-01,-7.661064178184012752e-02,-2.295707040855601566e-01,-6.349423123313656381e-02,-4.512512722632783246e-01,-1.207391142488771635e-01,3.691021384643080605e-01,-5.493174677786777371e-01,2.408284291857171744e-01,4.884762831402019723e-01,1.016447244320858867e-01,6.273063051258065403e-01,-6.932716975867653231e-01,9.577862033962475374e-02,5.228444642436656103e-02,5.377545636661648087e-01,1.275273262044392675e-01,8.097223876117068397e-03,4.895126118790215641e-01,7.359709997887546873e-01,-8.983547058091416460e-02,-6.541317858504482885e-01,2.797705710253398093e-01,-2.067976708355554749e-01,1.783248281057032980e-01
4.229261370263903523e-03,5.176011993113822651e-01,1.762243173096140481e-01,2.078243889700038486e-03,-4.013936182061836333e-01,1.167965414328675511e-01,-5.435456817039046040e-01,-3.614060483028433413e-01,-1.459570641166708094e-01,-3.170396627266728329e-01,-6.127548318786303350e-01,-3.574447596630372925e-01,-1.152595418488600726e-02,-2.314828579762318594e-01,-2.376653432227085749e-01,-4.318172761939583770e-01,3.490000656302833515e-01,-6.513138828370867994e-02,1.863147700616820945e-01,2.988722121387173136e-02,-3.034926840454016395e-01,6.045998483544284818e-01,-3.277835121140132424e-02,1.714173067641477644e-01,4.924324102673866554e-01,4.134391800141184459e-01,-1.474290783586146847e-01,7.702421777465910321e-03,-2.684249777031804118e-01,-3.585196595918530016e-01,-3.828703726831724774e-01,3.552671536080970749e-01,4.528364398286535142e-01,2.729704664635782541e-01,5.582040977073710053e-01,-6.523999566035719455e-02,-2.189463673332609772e-01,-3.926257237844244519e-01,-1.584345207861696803e-01,2.314738449960455358e-01,1.786878082994748651e-02,6.619794516535612572e-02,3.140256483032529689e-01,-4.845329070113970071e-01,-3.094356491501236150e-01,-3.284560243331396956e-01,1.514602134239887987e-01,2.390786725172933391e-01,-6.809671664585947859e-02,-1.610314791348111951e-01,-1.795539769453060597e-01,-4.097987797974566582e-01,-4.307381307828429123e-02,3.740118098557146387e-01,2.272955077896045006e-01,-1.331226860530466405e-01,1.889674741615861298e-01,7.042985187056199914e-02,7.800718936083944621e-02,1.565151379944232646e-01,-5.744765444071621152e-01,-4.587549692559129144e-01,1.677417883496503948e-01,-4.432442225194287988e-01,5.161273579551581836e-01,-5.062225713144751227e-01,4.263623300491997115e-01,-2.718945943992776559e-01,1.587950878931822796e-01,3.948222928926864994e-01,2.889720586097896948e-01,-1.444382539509356245e-01,-3.303906981853719782e-01,1.182566913651239213e-02,-2.180517921310033969e-01,6.422705512198423339e-01,1.420414372959768745e-01,1.340905237405062280e-03,3.787667216410528503e-01,-3.920148809602460038e-01,-2.027232620479483549e-01,6.965494163272994976e-02,1.916467359423527569e-02,-7.010370371071616979e-01,3.838555472923680933e-01,7.433065460436087957e-01,1.273886165493585687e-01,9.817439092366532505e-02,2.356288081496832887e-01,-1.992009384360388102e-01,-2.225474188664103015e-01,3.779286856041633169e-01,2.091059419844366885e-01,-5.901017473395379215e-02,5.542413688191577537e-01,-1.903576817012790079e-01,7.131090148928352912e-01,-3.953896435859312608e-01,-6.947232080066279014e-01,2.112902547315197721e-01,3.076226341191049540e-01,1.241405156404311871e-01,-1.250943640217779818e-01,-2.270186357381621389e-01,3.424577280343487073e-01,4.890695443836485801e-01,-2.116032182495404257e-01,-2.904495834229610107e-01,-6.350433722469876752e-02
7.290153074028675739e-01,2.334933849717431842e-01,3.126768739327456803e-02,-2.995638248345485199e-01,-1.999907052501901927e-01,-2.248491458749300453e-01,1.479093230927547298e-01,6.090556311537683731e-01,2.355224406968881024e-01,-2.796258739312831310e-01,-2.331976441114916865e-01,-1.024563945856041824e-01,7.029395534542443036e-01,-1.752772434397637802e-01,2.037572500219269056e-01,7.956489984786394021e-02,8.531766934709796857e-01,7.304131724885916110e-01,9.720459845878963445e-02,2.358487375447704815e-01,-8.347720875281727793e-02,-1.603814895971718835e-01,3.410663324593433687e-01,-2.287056827757304733e-01,-4.346094048153178457e-01,1.772541172838195886e-02,6.378421137054754997e-01,-2.436355811974935670e-01,-2.585565321544671114e-01,3.390035169118719161e-01,2.835798130916656126e-02,-4.853577547746578680e-01,4.546969502820418230e-01,-4.339276716819025492e-01,1.328613452700767861e-01,-2.269395986580308999e-01,1.700477602173826319e-01,-1.192061580933995585e-01,-2.216602075102187472e-02,-1.770267712943691951e-01,1.161501867982246833e-01,-3.855522929736674431e-01,-6.523714123141058363e-02,3.259835058340377900e-01,2.620699564122926928e-01,2.645520730392761921e-01,3.338536667690458204e-01,2.684660890383128162e-01,-5.597280486279598843e-02,-6.498943503747429684e-01,4.336823193245656349e-01,-2.249466121656125972e-01,-1.711943554553813918e-01,2.359992826008919520e-01,-4.155774879095323615e-01,-6.939696283954251976e-01,-1.310716958545043997e-01,3.163706137604449520e-01,-4.555636847572980819e-01,5.441421422950980524e-01,6.759654974632137159e-02,-1.754059312278877236e-01,3.620966849297501677e-01,-5.245309919937746201e-01,-8.276725178241088610e-02,-9.071103218550245761e-02,4.820273979705980150e-01,-2.617320669253856980e-01,-1.990574477811410670e-01,1.190073155225906121e-01,3.155495657268907461e-01,2.183644127173077487e-01,-6.896427925243260593e-02,-2.649837631568314755e-01,-2.273425724518341740e-01,6.321561326448746909e-01,6.656207013439298104e-01,6.012616881496540833e-01,-1.416130475144873266e-02,-1.090601601228825129e-01,1.977996581250184571e-01,1.508644991528734491e-01,1.789608147073830369e-01,-2.088006733861975661e-01,2.151613842031276924e-01,-2.179238767335878527e-02,8.209277986054906995e-01,2.603283541398350720e-01,6.907456462204110414e-02,3.225174005433544822e-01,1.798979085987692239e-01,2.319880481589107479e-01,-4.990400176208713567e-01,2.005951462653434228e-02,6.222323472595900906e-01,7.752836532865944319e-01,2.828367272647742264e-02,7.718819925492418840e-03,3.449325886329484003e-01,-2.488199942853088209e-01,1.535257358555668361e-01,-8.003140917861879811e-02,5.511133998853412486e-01,-2.320479550879365749e-01,-4.865134561747649355e-01,7.657087372462502151e-01,-3.709020165803036950e-01,-8.321596082270751316e-01,-8.251438514506297395e-01
-2.317250909353913563e-02,6.191642111070125853e-01,1.522815096738156793e-01,5.547926659395508997e-01,-1.438464693249554560e-01,3.052938185537409921e-01,5.783718808882205853e-02,-5.589404945376110767e-01,-2.526773143559755685e-01,4.029584990274463069e-02,5.296865159281787666e-02,-1.270758775348635461e-01,5.801992895112765281e-01,-5.389475107904588835e-01,-5.937787318075928855e-01,5.787208776390486697e-01,-4.940551751499244193e-01,-9.037673582618315216e-01,3.481723734494767131e-01,1.434335942057896884e-01,3.214116356009923403e-01,3.500292678397153301e-01,-1.632617801250935696e-01,1.789238395838429752e-01,1.183833712307174602e-01,2.700884181895379377e-01,6.134981100079768546e-02,-1.911822851102012444e-01,-6.698073234024092271e-01,3.777185563297958404e-01,2.566914553661294729e-01,2.477029785141126594e-01,2.535407692376445699e-01,-4.768830053280984083e-01,5.512888367899933945e-02,-1.454006219407895650e-01,-1.690269011052514259e-01,4.842590409084940872e-01,-3.453392627998224662e-01,-4.212870812873712456e-01,1.889830432153123685e-02,3.604568636279652516e-01,5.596031603677011912e-01,2.935269886535075701e-01,5.562896845688821701e-01,-1.646200322532894167e-01,4.988518424394340345e-01,5.842617246285141119e-01,1.601621126059385447e-01,1.238557184366542024e-02,-4.926825536007765627e-01,2.312021095234442214e-01,4.553141560934423904e-01,3.435000710567293059e-01,5.210097841421913456e-01,-3.947112923505076698e-01,-2.483809654637206266e-01,-6.290775249461287855e-01,-1.996811676275621061e-01,-2.111738599546278961e-01,2.101649528011640677e-01,1.238442695370657043e-01,-2.599050309896262512e-01,-1.647074577574456425e-02,2.748958707233685739e-01,-8.249584883526166201e-02,-2.749192884941978887e-01,-5.033376793189459769e-02,-6.566171014304991171e-01,4.919705136560350023e-01,6.346693544888896976e-02,2.457432978491159298e-02,-2.822455192533040447e-01,-2.128420743638318458e-01,-9.460521908754848663e-01,-4.286649755474820078e-01,4.691329669389995849e-02,2.597987405776281400e-01,-1.624509863373266305e-01,4.750246107715620780e-02,-1.410903939322002143e-01,1.267443353300733988e-01,5.897300075954821086e-01,-2.660975424460140792e-01,1.741105563361670383e-01,4.091327670795403271e-01,-8.663681029250504262e-02,2.522956225069751257e-01,2.195760733890521899e-01,1.803866027669601413e-01,-3.343091320826924728e-01,-3.338945027738795535e-01,-2.765455534720586139e-01,7.113102961243196465e-02,-2.764127741216931833e-01,-5.992572606871045954e-02,1.234024379510707398e-01,-6.895794289069906435e-01,-3.409985301582421080e-01,-3.757825925486620311e-01,1.932301851447515706e-01,-5.116412556935913125e-01,-3.589921592680193618e-01,1.124349231812646482e-01,9.174904113912038528e-02,-1.639515418302248673e-01,-2.266277197178409031e-01,-6.807802598932405358e-01,-2.192024403692779955e-01
2.993596539629901285e-02,-5.340220766463473767e-01,3.946541449301148585e-01,3.386365198065212356e-02,1.447700140298413263e-01,-1.839258604313985523e-01,2.420469087901520600e-01,-6.119704049804302048e-01,2.324993605171614408e-01,2.677119913533923534e-01,1.993156367350893965e-01,3.752291523397924822e-01,-2.257480985571196641e-01,6.193473075764603930e-01,-2.209733840957564255e-01,7.666061329144711889e-02,-4.580016199174411495e-01,3.713970201236028723e-01,2.781734307508617610e-01,4.453952325799837020e-01,-6.397113394668411945e-02,3.847558401318018073e-01,-3.592267222574779262e-01,-5.757436232470693194e-03,-3.959819681415546744e-01,5.381242421150090882e-01,1.082627270230566707e-01,-1.104451945529602852e-01,3.117162431823264357e-01,-1.051081110728522838e-01,-4.456434342647555003e-01,-5.269441038273116329e-02,-4.081905212341471745e-01,8.122437990192078738e-02,-3.645089781803825812e-01,-2.426558222781061980e-01,-1.872560082279206839e-01,4.529114792025170644e-01,-6.402170441390300226e-01,3.567717111887869774e-01,-3.287899483362766717e-01,4.676418402613041758e-01,6.445795721194705896e-01,-1.238915377608958797e-03,-2.592460237957029401e-01,-1.088635453275404175e-01,-2.100500564699243067e-01,2.153833794734164586e-01,-4.537137273940233251e-01,1.620853998541736396e-01,-5.265485758863088783e-01,9.027207883332678817e-02,7.688697084093280010e-01,2.670840152971825088e-01,-2.600669817194252165e-01,1.799636168646362444e-01,-2.372271881470165711e-01,-4.445734762696244569e-01,4.136270678709678128e-01,3.243699264268290472e-02,-1.891102909642959906e-01,-3.903884455337385262e-01,-2.460669535211772174e-01,2.746437028924494372e-01,1.520561845613475627e-01,3.240252400955735412e-01,-5.098284884350059443e-01,4.839684972193124546e-01,1.563939487297281716e-01,2.906882825177190544e-01,2.768602401919805292e-02,4.063955971564930381e-01,-9.993431057153120967e-02,1.848686822950536268e-01,-2.628894893446505621e-01,-2.797484465302912948e-01,-2.301147307849509827e-01,-1.732452954998575378e-01,-1.341971111729403643e-01,2.651409779186101878e-01,3.304683313147778745e-01,-6.681433682493793935e-02,-1.900304366726865979e-01,2.577582330562392943e-01,2.389872729525871209e-01,1.855357177056836115e-01,8.639572393058778110e-02,5.897741932832166467e-02,-6.154601814251572378e-01,2.572400294183405656e-01,-1.615458769278138029e-01,-2.604834043029743418e-01,-6.213773680019373247e-01,-2.637820825881219133e-01,2.328591861494316573e-01,-1.651008095360463890e-01,-3.563588394788610447e-01,3.890478382662670986e-01,-2.393894212944945865e-01,1.378082683481911819e-01,-4.577667455426905341e-01,3.757838967012227388e-02,3.152587219449469180e-01,2.115854941690738789e-01,-7.307101389991929041e-01,3.500494707624731139e-01,-3.730266720857081109e-01,7.321259939908783543e-02,-2.848228654274184146e-01
-5.681955690307374240e-01,4.093438446848693402e-01,-5.681986613077109061e-01,-6.791985758020344655e-01,-2.815437984212328798e-02,6.193678331797309866e-01,1.587858414938740637e-01,-8.744659189523643628e-01,3.841682814896693610e-01,4.059237947289928705e-01,5.504019072365545773e-01,-3.228666269311371018e-01,-2.482684546852021723e-01,-5.522301078795109897e-01,3.371877001943742180e-01,-1.173981872891224562e-02,1.114658017481177377e-01,1.926268161686301161e-01,4.891526163394697146e-01,-2.251753147175669933e-01,-3.504450497938831344e-01,-1.609894351757342190e-01,-8.151426232697076002e-02,4.622518754918636952e-01,-6.507743005545905124e-01,-5.913686312136939849e-01,1.371036925502170101e-01,2.337004387709937514e-01,-2.433153559599496030e-01,1.766464767320679793e-02,-6.407435882324402643e-02,-2.759359077732943533e-01,-6.900550530998135479e-02,2.915661952111822663e-01,-8.150855965355948696e-01,9.873515272904281881e-02,-4.291194239625594764e-01,7.515958453940490003e-01,-3.694296995993324173e-01,-2.527766067454149945e-02,3.551560797666323821e-01,3.664888391888322383e-01,4.426289383961373169e-01,-3.476980198766986829e-01,-5.763384653749923370e-01,-7.062742510105686211e-01,3.400045682971562511e-01,3.517210930452631668e-01,5.050033742319164770e-02,-6.361848931514514360e-01,-1.011411594827131555e-01,6.311875519636502840e-01,7.054754743964184449e-01,3.776637608330686395e-03,4.975099257156103023e-03,4.570111784107138142e-01,5.966554372175945919e-02,2.048889270296506970e-01,-2.851768605376112098e-01,-4.044517781763475872e-01,-2.208759468623881228e-01,3.341722528341255494e-01,6.611159186849485669e-01,-5.388555492305796557e-02,1.058746015640069787e-01,6.531850563631190765e-01,1.513129792214405744e-01,-5.975536822451607000e-01,8.140328973311995731e-02,4.984608305750417578e-01,-2.870550039504393691e-01,4.848431935271147464e-01,2.661101127190965698e-01,4.041606468715502332e-01,-3.616247921167634050e-01,-3.756051750942940859e-01,-3.335353725334578301e-01,-6.425713411343939377e-03,1.170696107466952934e-01,1.842721962961997584e-01,5.561144702700032694e-01,1.660434962020866656e-01,4.063423710534333488e-01,1.851931763254700547e-01,-1.974362661194291879e-01,4.393484581893960517e-01,-7.322311464326389796e-01,-3.373625458961841510e-03,6.401632969206947354e-01,9.616835770203422395e-01,4.951767523408356908e-01,1.327850915893256101e-01,5.245412716066545356e-01,-5.735745319925776853e-01,1.886711624684068167e-01,7.357461780674263985e-02,-2.959353149686188011e-01,-2.637695629527289087e-01,2.250450177562444420e-01,3.948536120085193168e-01,4.614045600937721758e-01,2.426542882179295868e-01,-1.025734925643507101e+00,-5.461667190071627376e-01,-1.468466226557564938e-02,-1.253787524979738777e+00,-5.282060718776588892e-01,-3.294967780740241103e-01,-6.551686947313594134e-01
2.262104840760453817e-01,-5.054872957060648764e-01,7.949826493409890837e-02,-3.223944838674385194e-01,-2.251132471272498103e-01,-5.926825988374271326e-01,8.973238220555271871e-01,-4.764505075641585208e-01,5.795454588879646041e-01,-1.935340530693918371e-01,8.803695246420546461e-01,-1.071834079367751796e-01,1.304256215930915397e-01,1.820391261822061346e-01,5.015049926951491155e-02,-1.875182582187769065e-02,2.757622050929235402e-01,-2.745329404326248002e-02,5.962457888530451333e-01,-8.670012886216378611e-02,-2.529704840317687498e-01,-6.562738553253062435e-01,3.163687274891498202e-02,2.549648292066709065e-01,-6.217829936386860823e-02,4.669338809030275650e-01,1.206263830774605833e-01,4.172364789132227969e-01,-1.726725146639968012e-01,-5.151867006698341855e-01,-3.128666956419158818e-01,-3.031529924865823400e-01,-3.515065454716495008e-01,2.417569747688612380e-01,-6.081120147951693533e-02,-6.156730979275950588e-01,-1.863652398508601205e-01,-1.631117873525212980e-01,8.670932830544379744e-02,9.114726434661457599e-02,-7.580261100407729991e-02,-4.691466860660022942e-01,-2.996540775407653956e-01,7.514829113778361824e-01,-3.132868999858877124e-01,1.286854414140619352e-01,2.632039506823846131e-01,-5.812215664780807922e-02,5.035465729765298271e-01,-4.564553293896750352e-01,-2.289625071625352171e-01,-3.925285316696789373e-01,1.052702739801701509e-01,-3.931529284520849932e-01,6.699525258361903601e-01,1.248131104272312553e-01,-1.708714261072047380e-01,-5.093650452039623078e-01,-9.618708993549558439e-01,-1.526932042166530834e-01,-4.976642415942130609e-02,-3.603255559115196016e-01,-2.587688520131485315e-01,-2.497711980663786316e-02,-8.637434578481742800e-03,-5.428786550514943521e-01,9.879395174048764133e-03,-3.834287850716463497e-01,8.993702009317437740e-02,2.842100410920757048e-01,6.847660548865872610e-01,5.660916618583979876e-01,4.213716479648624835e-01,-1.201057746627225836e-01,3.059430940294366463e-01,1.259217311464401190e-01,7.807154176682028213e-02,6.387104058667022466e-01,6.146887322469204440e-01,-9.291236924883697346e-02,5.980791190051140127e-01,6.930889791719304638e-01,2.925809581622864641e-01,1.616883518325745728e-01,6.099694052317637949e-01,-2.835675239124167968e-01,2.575334675566004483e-01,1.017322415030855742e+00,8.417295024724328334e-01,-2.793725919824965320e-01,1.214528865494258342e-01,1.571650324393011611e-01,8.178337229927709062e-01,2.973200390050400044e-01,-2.654878318169439089e-01,7.753110647429131141e-01,5.819386768791222353e-02,4.843172770033749019e-01,1.826438747800643025e-01,1.562342371903978899e-01,-6.503979573106292156e-01,-5.975444797901126037e-01,-2.597817131934334611e-01,6.274826776740841661e-01,2.689485361255412599e-01,7.776251483806316811e-01,-7.191388148164759575e-02,5.640621171642932197e-01,-2.038067191442617110e-01
-1.211837615976125021e-01,1.143152994869525152e-01,6.795393944769296812e-01,-3.087427395780764638e-01,-5.755314392882145968e-01,-4.153575694886376679e-01,-2.549642324875435739e-01,-7.081811448294212941e-01,-1.945849098223006446e-01,2.939288119283559042e-01,5.608657099681207958e-01,5.454125821099901072e-01,-6.391687649240949121e-01,-6.245075486115152508e-01,-5.743247900131396300e-01,-4.480806387029311333e-01,-7.280073534217373910e-01,-3.056706248711003049e-01,1.174649923664140144e-01,7.144209058604664153e-02,4.577020571090642531e-02,6.351425950358301487e-01,-7.855476451138598826e-03,-5.101493113555988917e-02,3.229039483043193437e-01,2.331541430832246020e-01,1.157012316590736029e-01,-1.010555088346482694e-01,-7.392270729330983059e-01,1.757046701081532991e-01,-4.364437893185917905e-01,-1.170949377013534992e-01,-2.322467540826990695e-01,-2.536518890664210546e-01,-5.045770618844781091e-02,1.431403895069584264e-01,-7.952803984190875974e-03,6.146454914781717127e-01,4.100135981906449234e-01,-1.520662958652000130e-01,-2.030612527599617578e-01,-4.687033863497953173e-02,2.624151103290777720e-01,-1.595778471027434753e-01,6.394577937490782127e-02,-2.057021102125103085e-01,8.407554594367411260e-01,4.931727111755587201e-01,-8.899782031395510329e-02,2.585657553287259991e-01,-1.564125768423639817e-01,1.996215109034365220e-01,-1.066328048273476048e-01,-1.109668085951475008e-01,6.207122321942009080e-01,5.673614020848597450e-01,-3.704457273232625858e-01,3.709196502596032730e-01,2.771833790572880707e-01,-3.992726486053549406e-01,-2.770814611497565694e-01,-1.648139426317396239e-01,4.150287141974156047e-01,-3.939792804269204307e-01,-2.520261560320085636e-01,2.528000533253860760e-01,-5.208335173454615719e-01,4.321071379919686484e-01,1.928324740219688749e-01,5.281734849824187839e-02,5.966041730099887197e-02,-4.240358558968596592e-01,4.654642093100698208e-01,7.313487138896918038e-01,-3.901188221783151722e-01,-5.180760766974260578e-01,1.252494394225766861e-01,5.509879197063834999e-01,-4.643634432111004573e-02,-5.160832837603269718e-01,-3.887259221619107086e-01,1.805680346837927330e-01,-1.102252286907831197e-01,4.437529092659078245e-01,-3.587872070567693084e-01,4.974515025818210257e-01,3.665254351452537640e-02,-1.369208253609898174e-01,6.063888194031344936e-01,2.549150432754198614e-01,8.453943754605142136e-02,2.676134115482128872e-01,3.323670131822183300e-03,-8.220593991554140390e-01,3.418340424907595487e-02,4.212870397299532943e-01,2.681522418391855678e-01,-6.860709995870590827e-01,2.695735198862146964e-01,2.051981287403966681e-01,-5.715111240966058714e-01,-5.776842164113069611e-01,-8.088278247975501101e-01,-6.788247701590950367e-01,-3.505597381822991299e-01,3.464222975484422817e-01,-4.721164191149500033e-01,-1.544170603026022159e-01,1.056971496983526299e-01
-3.861398778769007945e-01,-1.419127343654367768e-01,-7.254915736739161458e-01,-2.967347135167694994e-01,-3.068387515790058084e-01,-3.244442249552685897e-01,-2.365281835784579789e-01,4.697346677837513362e-02,-2.280810210141039629e-01,-2.514195159456329431e-01,-2.327844599832258332e-01,-2.035983676407284171e-01,-1.539314382134295001e-01,5.101168885657029195e-01,-3.354725221792131395e-01,3.343857318874398077e-01,-3.985771477589754586e-01,7.898218996828317851e-01,-3.296559973822571488e-01,2.115137587910922295e-02,-1.946257236655412892e-01,-1.048156862673400719e-01,-2.930508105929297002e-01,1.603125005957552196e-01,-3.186584561151227235e-01,-6.384990961291762968e-02,1.008489222313088268e-01,4.312024464262687595e-01,-3.930509148776972772e-01,-1.261135721200688786e-02,1.077128241784554852e-01,1.862503879532118323e-01,4.457080826089504511e-02,2.080129604858679260e-01,4.871070737781791893e-01,8.311089882627277214e-01,4.072946672589131123e-01,-4.871973046698910292e-02,-1.018252713405549681e-01,2.965703531554282277e-02,1.252693179155601744e-01,-4.579686770697070641e-01,-8.901438060718355749e-02,-6.778133193929540834e-01,3.999637467674523328e-01,-3.092771306945506504e-01,-9.506597635553833137e-02,-1.507895717391966595e-01,1.087435185239504915e-01,5.219969668849319122e-01,-2.717541371278152651e-01,-3.923385764329799796e-01,4.959949151545600676e-02,1.949028719544287636e-01,-4.347391274121071292e-01,2.906043823510088830e-01,-2.246650213506236893e-01,2.858556953102304177e-01,3.087943116634581653e-01,-4.799499943910450622e-02,-4.229258192999372223e-01,-2.341372417245654869e-01,5.701719223441801404e-02,5.785607276853080849e-01,6.085410262641932633e-01,-5.297120042140246454e-02,-2.894041114558909555e-01,1.196539431548851798e-02,-1.166472042080358845e-01,2.301485116819019516e-01,4.582034383372916159e-02,-7.735366360747958359e-01,-5.617121777994023291e-02,7.184287737018316689e-01,2.100368494848928735e-01,-1.236743268386914507e-01,1.013400908416172003e-01,-7.939218726461724773e-02,2.988799343616913018e-01,1.985859964533326916e-01,2.237238078390578755e-01,1.713180785482815993e-01,-7.834487669664448317e-01,-3.342724558976639671e-01,-3.652986380555539592e-02,-3.380191613255045802e-01,2.857927822311098209e-01,4.389596651914255965e-01,7.061666604903378275e-01,-4.377919220447157311e-01,-1.384268884902710717e-01,4.912237616321421529e-01,3.682104468376840578e-01,3.028412784811886915e-01,2.139046763448879396e-01,-3.197333610346272947e-02,1.702234515645446034e-01,-1.086364699636565949e-02,4.642207196610648179e-01,-3.500354615099219302e-01,-4.498963843799382856e-01,-6.695214753213962755e-02,-4.522800122349263652e-01,-7.674080340920365062e-01,-3.357064765722939104e-01,2.398495464547705236e-01,-1.683872579716795201e-02,1.885788911561504452e-02,9.140151600762523587e-02
-2.425536022493122168e-01,5.735801376088770637e-02,-1.757909601259258769e-01,-4.165944158805549025e-01,-9.854101177618971308e-01,-4.969937936705129955e-01,-8.686216729641740297e-01,-6.218515788352332874e-02,6.714393642192121314e-01,-6.377302503912469778e-01,-2.373899575067946466e-01,-2.855122143207599605e-01,-5.291732527417345455e-01,2.670894520307984937e-02,-3.176944208797066183e-01,4.573615601521051066e-01,3.701780156892260365e-01,2.610922195651679822e-01,6.143210925516746634e-01,-5.370338953063129583e-01,2.756167790778629723e-01,2.828669020250439980e-01,-5.965713823237205338e-01,-1.545325074478090532e-01,-4.453820558873476942e-01,5.428956702637821596e-02,-3.692735509970590524e-01,-1.293102639303623513e-01,-4.548008106106298798e-01,-5.942326982276624481e-01,-4.055549618847797411e-01,2.055603546051748554e-01,-3.006813626913734105e-01,-1.251635320395858703e-02,-5.754156918546994293e-01,3.510907456373488222e-01,2.909298373544003113e-02,-6.137002036980355735e-01,-7.062028526013338636e-01,8.706743189475490974e-02,-6.841806521260809237e-01,-5.699413837875269007e-01,-2.605520431273400384e-01,-8.965212748398678766e-01,-1.357669631888269168e-01,2.801747870493722647e-01,-9.109233306322403467e-02,7.403685017028716064e-01,-6.048734067603359632e-01,6.119809692800385476e-02,-3.718945357066326673e-01,-2.202724314809430262e-01,-3.488769212372939688e-01,4.694701657065993017e-02,3.008250086971075987e-01,-1.201148149052189279e-01,6.647040024015904609e-03,-2.707046572100473281e-01,4.710205896746296195e-01,4.612839696605782747e-01,4.567539425431181854e-01,6.713519155545093209e-02,1.450017095846885956e-02,4.068628027115054335e-01,5.305131768872728415e-01,1.271632135670688335e-01,-2.871535185942110033e-02,2.737215828752070229e-02,-2.021139806507851466e-01,-7.355510063395840348e-01,2.356962542709105102e-01,2.946863241618989937e-01,4.660131160946109907e-01,6.929883354670537399e-01,8.529352155468161722e-02,1.444236366641283020e-01,3.429952693342707692e-01,-2.174044003145233495e-01,-4.491169496315277621e-01,3.006455253510115222e-01,3.424999214610895959e-01,-6.317808029408800152e-01,-3.763590815001480183e-01,2.518231245468151025e-01,3.242877532041806704e-02,1.831619908469770408e-01,3.163835135898711015e-01,-5.041076798289427785e-01,-2.954067363831492932e-01,4.608566736278392195e-01,2.913594695508063825e-01,-4.201080170931929536e-01,4.171846467954424265e-01,-1.272183061667318260e-01,-2.551968593986343129e-03,5.739989401832077190e-03,4.156129054165866310e-01,6.591438569501968658e-02,2.268222598475366225e-01,3.824354703286937940e-01,1.552226567288912396e-01,-8.090453651714231142e-01,-1.469607359751314846e-01,8.100604498107405113e-03,3.708018360778306266e-01,7.863952395618349911e-01,2.684995215333905172e-01,-4.030947912696652424e-01,2.259849432492347654e-01
1.883654408843968009e-01,-2.950830537116089225e-01,-1.009849153873204064e-01,-1.774903175621970752e-01,-1.311558638326901505e-01,-5.417645803393251747e-01,-3.227284743041686776e-01,-1.574779461855231044e-01,6.990656574008866642e-01,4.414336085446460833e-01,2.526146947458174918e-01,-6.399467206497995164e-01,-3.885514772428168284e-02,2.111586368096209365e-01,-2.784127025102716146e-01,-1.494740756176769492e-01,-1.465536061292722902e-01,-1.032284713438995777e-01,2.106862849755410105e-01,-3.763803731248428486e-01,5.974228963484006227e-01,-5.757285833384456764e-01,1.893475731515687367e-03,-5.075643494856857396e-01,-8.827913899653262730e-02,-3.857067013197048033e-01,4.186563315600609625e-02,4.964877299521549547e-01,1.179554001286840237e-01,-3.971295541526481121e-01,-6.332490407656169440e-01,-9.167961506705846197e-02,3.046108376221212666e-01,-2.534674097359730927e-01,9.538984943688190443e-02,3.218227582701792960e-02,-4.476749686164287201e-03,9.100859318676049470e-02,2.368713586574375807e-01,-7.277945450814137240e-01,-4.873090660373152749e-01,1.753637351989484686e-02,3.970622501256942383e-01,-1.251748062171821330e-01,-1.166760604073835417e-01,-1.015081124530280154e-01,-5.620894948758370369e-01,2.965268145277970557e-01,-1.733233140249463011e-01,4.308905279135697985e-01,7.430182867796206736e-01,1.625743249939821111e-01,2.910557229176567451e-01,4.670020414408506682e-01,-2.455883953698947131e-01,1.265370256500201185e-01,-3.945591566298148334e-01,-2.272904446112734289e-01,6.882078111327229186e-02,-3.268186656855354144e-02,2.227138363807720511e-01,-5.014064850855686623e-03,4.574104296499225536e-02,-1.173716441015352357e-01,-1.979173695929840049e-01,-1.226181149135970455e-01,3.719950186609505272e-02,-2.293031554694608676e-01,-7.444075025733462025e-01,4.028195402158544353e-02,-1.341115485514214056e-01,8.606063432892276099e-02,2.982675735163191344e-02,7.510600470935259176e-01,-1.939195753664175181e-01,1.487876542665468871e-01,2.703732309414363932e-01,-3.864886929562637574e-01,-2.342516279132829116e-01,-3.174494218832291659e-01,-4.448296729822726059e-01,-3.463003503467638744e-01,6.126754893435410604e-02,4.880182261397945642e-01,-3.649193180630713185e-01,-1.610443957343444255e-01,-6.654619343622351912e-02,1.698649663641561280e-01,-6.618796569758049753e-01,6.098265105095016653e-02,-4.095669185501731313e-01,6.806323419174060974e-02,4.143164062392412639e-01,5.518803466659990553e-01,4.772557187639603904e-01,-3.231266583600527209e-01,1.265374402118452091e-02,-4.496709423098043668e-01,-1.880715937380131042e-01,3.317844360090919098e-01,-5.863113233550814631e-03,9.431122644220649165e-02,-8.447390189944023464e-02,7.628331179271226684e-03,4.971041490174704092e-01,7.667993052232614515e-01,3.860394797111897369e-01,1.368951535007799092e-01,2.595580230125064669e-01
-4.226450521776944358e-01,4.641171159738453206e-02,2.366319843467335760e-01,-8.829687895083935256e-01,-6.100011396972313538e-01,-4.149376633721857943e-01,-3.693594289915541062e-01,-3.487016036866150137e-02,-5.080904848681828956e-02,8.539178302063968329e-02,8.040514163097698397e-01,2.564544537394065904e-02,-3.199288356307261050e-01,-4.313703921301739741e-01,-8.627204618732842167e-02,-9.397342492042408679e-01,-6.172000595798646794e-01,1.777739124112127644e-01,-9.064026731557033312e-01,-8.635778472172557507e-02,-4.108895112761364321e-01,8.909068302165773501e-02,-2.885786408435086492e-01,-3.974438190326055054e-01,-1.750319705444470597e-03,4.006659822640901703e-01,-8.360088055389629513e-01,-2.761271805213619257e-01,1.874853332997573063e-01,-3.453466438948488149e-01,1.556861143536249770e-01,-5.341087181597602429e-01,-1.038408399144167826e-01,2.781135749913385413e-01,7.327191606048705230e-01,4.814272730969818004e-01,-4.225027153018058312e-01,-2.741520256744359868e-02,5.343267214531013387e-01,2.932608400024557249e-01,3.527876826956395928e-01,4.017413846402411171e-01,2.299555149900724682e-01,2.707106618602873604e-01,-1.106838074455456650e-01,3.100577777996086845e-02,-4.103676563123138665e-01,4.579384779860120602e-01,-5.391327682852670167e-01,5.655535860949659765e-01,-1.778136858329062986e-01,7.639295903132555798e-01,3.811725462610441317e-01,-3.768562451791302448e-01,6.442678166992822641e-02,6.319334628558384015e-01,3.746016213499749892e-01,-1.767976485984526502e-01,-2.005817282209726160e-01,-6.672799223704645177e-01,1.072365056681929413e-01,3.622170627169415263e-02,-1.788745861367461720e-01,6.540826260398478406e-03,2.420895794048409932e-01,7.310083483116057435e-02,-5.316398111574620611e-01,4.147660722291862112e-01,3.971325626251262508e-02,2.162706614502320490e-01,-3.844232343518055178e-02,3.241129555668589846e-01,-3.917879850281510978e-01,5.213126835239714207e-01,2.053542466939556055e-01,6.673184217281820096e-01,5.722900812531706016e-01,-2.930156355018870284e-01,-5.062504957453702048e-02,-8.259321856291061970e-01,4.379654194561429237e-01,-1.987227959597395455e-01,1.262679694737822711e-01,3.714630480265312396e-01,4.359971284079361964e-01,-2.902314740878098598e-01,8.399467946511069982e-01,-9.446443986580393970e-02,-5.724935792370612342e-01,-4.987991775897351876e-01,-4.314687332482742832e-01,-2.335423825849595458e-01,5.632684621431747196e-01,2.813855653096700160e-01,4.849730610233115580e-01,3.907943098392297476e-01,-6.065649232541836522e-01,-7.872343812208980329e-02,-4.422835934669988589e-01,-1.960470830295119316e-01,3.115549017942562116e-01,6.581394646072415977e-01,-2.234891768235526543e-01,3.241647425477473532e-01,-4.385585829875378594e-01,1.676189022238740722e-01,-6.520287452696073016e-01,8.259180685252563714e-02,6.532886959623218637e-01
1.379287958310668194e-01,1.059931576844495987e-01,-2.898753521220158447e-02,3.176910880927998337e-01,-2.389247741680878417e-02,-6.934138733203104588e-01,-2.995417318954659014e-01,4.308519684074821332e-01,-4.989591385964549652e-01,-1.802979738275088673e-01,-3.483206863596073899e-01,2.356697302405378058e-01,1.312285558035432009e-01,-2.058876118176149739e-01,2.561956975144069060e-01,-7.055881786965774172e-01,7.813850452123759227e-03,4.880075546388446539e-01,5.324505248317863877e-04,-4.358097981167955992e-01,5.009499806337990024e-02,-1.040584658076263713e-01,2.069180423474093616e-02,-3.758315168599670741e-01,-1.747663551963147266e-01,-4.961157964101213236e-01,3.078837149725919264e-01,4.357439773775830250e-01,-3.580189017045392608e-01,3.031546590966066601e-01,7.363765461368101950e-02,2.634012276971729460e-01,-3.642485976531326664e-01,3.931578527922438213e-03,3.012766318983776115e-01,-4.836096767109825806e-02,1.009064768868033063e-01,-7.895310528328010335e-02,5.416568087994684255e-01,7.368404201696897582e-01,-3.705010690101382398e-01,-1.568011186908175036e-01,-1.361127259572016968e-01,-5.085144218879093791e-02,3.565847533032874273e-01,-3.498078313755984686e-02,3.154001402098028928e-01,9.867542736755519073e-01,-1.335420834610091256e-01,4.862147041704580896e-01,3.433221633150027596e-01,-9.158292077033954037e-03,1.625723992369662863e-01,2.649229196178692347e-01,4.144291752161119446e-01,7.888756436813523787e-02,5.579685056356045170e-01,3.476027914856739121e-01,-8.887693613899563805e-02,-8.354508109136457028e-01,4.878179451638667286e-01,9.486179392990309878e-02,-7.250087316935384385e-02,-4.226997165852141580e-01,5.460046862153077329e-01,-6.182746541442019073e-01,4.096554103287429749e-01,-4.153123784977783561e-01,-6.324042043976813021e-02,3.231614687308722450e-02,-1.906856959679415486e-01,5.199205920002010206e-01,1.001087996912233963e-01,-2.482439414520503096e-01,1.334056064205728538e-03,7.367715536576008306e-02,-5.331614593018733084e-01,-4.419250996350713723e-01,5.585719498493212365e-01,-5.539938837778978220e-01,3.005643470207079448e-01,-6.975009295338802096e-01,1.467186503061829739e-01,3.513454594349877530e-02,2.136810923035266929e-01,-2.902205898112797389e-01,-4.128050223991537315e-01,-3.025776261353483876e-01,2.049415445749363240e-01,4.107459102287531749e-01,3.640826902989012237e-01,2.355201437225831196e-01,3.512414572512322780e-02,3.687441116584775913e-01,-1.606830344791984611e-01,-6.399621265293058414e-01,1.589166066996977045e-01,1.540108421574424014e-01,-6.849696012158299485e-01,-4.360139234914983120e-01,-1.640125331784494933e-02,-1.722430745341334835e-01,5.034911170554746684e-01,2.782867678933487743e-01,-8.739527982538870532e-01,-4.060210786218488299e-01,-3.884666276221548226e-02,-6.238630298283751596e-01,3.036694383460842861e-01
